network unknown {
}
variable Amount {
    type discrete [ 10 ] { 0.0, 1.0, 2.0, 3.0, 4.0, 5.0, 6.0, 7.0, 8.0, 9.0 };
}
variable Class {
    type discrete [ 2 ] { 0, 1 };
}
variable Time {
    type discrete [ 10 ] { 0.0, 1.0, 2.0, 3.0, 4.0, 5.0, 6.0, 7.0, 8.0, 9.0 };
}
variable V1 {
    type discrete [ 10 ] { 0.0, 1.0, 2.0, 3.0, 4.0, 5.0, 6.0, 7.0, 8.0, 9.0 };
}
variable V2 {
    type discrete [ 10 ] { 0.0, 1.0, 2.0, 3.0, 4.0, 5.0, 6.0, 7.0, 8.0, 9.0 };
}
variable V3 {
    type discrete [ 10 ] { 0.0, 1.0, 2.0, 3.0, 4.0, 5.0, 6.0, 7.0, 8.0, 9.0 };
}
probability ( Amount ) {
    table 0.81443, 0.12985, 0.03883, 0.01198, 0.00374, 0.0007, 0.00031, 0.00011, 3e-05, 2e-05 ;
}
probability ( Class | Amount, V1 ) {
    ( 0.0, 0.0 ) 0.5, 0.5;
    ( 0.0, 1.0 ) 0.0010672358591248667, 0.9989327641408752;
    ( 0.0, 2.0 ) 0.001212856276531231, 0.9987871437234688;
    ( 0.0, 3.0 ) 0.003620564808110065, 0.99637943519189;
    ( 0.0, 4.0 ) 0.010411244143675169, 0.9895887558563248;
    ( 0.0, 5.0 ) 0.04578313253012048, 0.9542168674698795;
    ( 0.0, 6.0 ) 0.10244845360824742, 0.8975515463917526;
    ( 0.0, 7.0 ) 0.32632313365892557, 0.6736768663410745;
    ( 0.0, 8.0 ) 0.6269168136789253, 0.3730831863210748;
    ( 0.0, 9.0 ) 0.7001974550241334, 0.2998025449758666;
    ( 1.0, 0.0 ) 1.0, 0.0;
    ( 1.0, 1.0 ) 0.5, 0.5;
    ( 1.0, 2.0 ) 1.0, 0.0;
    ( 1.0, 3.0 ) 0.23809523809523808, 0.7619047619047619;
    ( 1.0, 4.0 ) 0.033112582781456956, 0.9668874172185431;
    ( 1.0, 5.0 ) 0.05656108597285068, 0.9434389140271493;
    ( 1.0, 6.0 ) 0.06536636794939378, 0.9346336320506062;
    ( 1.0, 7.0 ) 0.292, 0.708;
    ( 1.0, 8.0 ) 0.4848636477358019, 0.5151363522641982;
    ( 1.0, 9.0 ) 0.9120879120879121, 0.08791208791208792;
    ( 2.0, 0.0 ) 1.0, 0.0;
    ( 2.0, 1.0 ) 1.0, 0.0;
    ( 2.0, 2.0 ) 0.5, 0.5;
    ( 2.0, 3.0 ) 1.0, 0.0;
    ( 2.0, 4.0 ) 0.5, 0.5;
    ( 2.0, 5.0 ) 0.34375, 0.65625;
    ( 2.0, 6.0 ) 0.31496062992125984, 0.6850393700787402;
    ( 2.0, 7.0 ) 0.17737430167597765, 0.8226256983240223;
    ( 2.0, 8.0 ) 0.4214380825565912, 0.5785619174434088;
    ( 2.0, 9.0 ) 0.7171253822629969, 0.28287461773700306;
    ( 3.0, 0.0 ) 0.5, 0.5;
    ( 3.0, 1.0 ) 1.0, 0.0;
    ( 3.0, 2.0 ) 1.0, 0.0;
    ( 3.0, 3.0 ) 1.0, 0.0;
    ( 3.0, 4.0 ) 1.0, 0.0;
    ( 3.0, 5.0 ) 1.0, 0.0;
    ( 3.0, 6.0 ) 0.09933774834437085, 0.9006622516556292;
    ( 3.0, 7.0 ) 0.2616136919315403, 0.7383863080684596;
    ( 3.0, 8.0 ) 0.45302013422818793, 0.5469798657718121;
    ( 3.0, 9.0 ) 1.0, 0.0;
    ( 4.0, 0.0 ) 1.0, 0.0;
    ( 4.0, 1.0 ) 0.5, 0.5;
    ( 4.0, 2.0 ) 1.0, 0.0;
    ( 4.0, 3.0 ) 0.5, 0.5;
    ( 4.0, 4.0 ) 1.0, 0.0;
    ( 4.0, 5.0 ) 1.0, 0.0;
    ( 4.0, 6.0 ) 0.29545454545454547, 0.7045454545454546;
    ( 4.0, 7.0 ) 0.3153153153153153, 0.6846846846846847;
    ( 4.0, 8.0 ) 0.6868686868686869, 0.31313131313131315;
    ( 4.0, 9.0 ) 1.0, 0.0;
    ( 5.0, 0.0 ) 1.0, 0.0;
    ( 5.0, 1.0 ) 0.5, 0.5;
    ( 5.0, 2.0 ) 0.5, 0.5;
    ( 5.0, 3.0 ) 0.5, 0.5;
    ( 5.0, 4.0 ) 0.5, 0.5;
    ( 5.0, 5.0 ) 1.0, 0.0;
    ( 5.0, 6.0 ) 1.0, 0.0;
    ( 5.0, 7.0 ) 1.0, 0.0;
    ( 5.0, 8.0 ) 1.0, 0.0;
    ( 5.0, 9.0 ) 0.5, 0.5;
    ( 6.0, 0.0 ) 1.0, 0.0;
    ( 6.0, 1.0 ) 1.0, 0.0;
    ( 6.0, 2.0 ) 1.0, 0.0;
    ( 6.0, 3.0 ) 0.5, 0.5;
    ( 6.0, 4.0 ) 1.0, 0.0;
    ( 6.0, 5.0 ) 1.0, 0.0;
    ( 6.0, 6.0 ) 1.0, 0.0;
    ( 6.0, 7.0 ) 1.0, 0.0;
    ( 6.0, 8.0 ) 0.5, 0.5;
    ( 6.0, 9.0 ) 0.5, 0.5;
    ( 7.0, 0.0 ) 1.0, 0.0;
    ( 7.0, 1.0 ) 0.5, 0.5;
    ( 7.0, 2.0 ) 1.0, 0.0;
    ( 7.0, 3.0 ) 0.5, 0.5;
    ( 7.0, 4.0 ) 1.0, 0.0;
    ( 7.0, 5.0 ) 1.0, 0.0;
    ( 7.0, 6.0 ) 1.0, 0.0;
    ( 7.0, 7.0 ) 0.5, 0.5;
    ( 7.0, 8.0 ) 0.5, 0.5;
    ( 7.0, 9.0 ) 0.5, 0.5;
    ( 8.0, 0.0 ) 0.5, 0.5;
    ( 8.0, 1.0 ) 0.5, 0.5;
    ( 8.0, 2.0 ) 0.5, 0.5;
    ( 8.0, 3.0 ) 1.0, 0.0;
    ( 8.0, 4.0 ) 0.5, 0.5;
    ( 8.0, 5.0 ) 1.0, 0.0;
    ( 8.0, 6.0 ) 0.5, 0.5;
    ( 8.0, 7.0 ) 0.5, 0.5;
    ( 8.0, 8.0 ) 0.5, 0.5;
    ( 8.0, 9.0 ) 0.5, 0.5;
    ( 9.0, 0.0 ) 1.0, 0.0;
    ( 9.0, 1.0 ) 0.5, 0.5;
    ( 9.0, 2.0 ) 0.5, 0.5;
    ( 9.0, 3.0 ) 0.5, 0.5;
    ( 9.0, 4.0 ) 0.5, 0.5;
    ( 9.0, 5.0 ) 0.5, 0.5;
    ( 9.0, 6.0 ) 0.5, 0.5;
    ( 9.0, 7.0 ) 0.5, 0.5;
    ( 9.0, 8.0 ) 0.5, 0.5;
    ( 9.0, 9.0 ) 0.5, 0.5;

}
probability ( Time | Amount, Class, V1, V2 ) {
    ( 0.0, 0, 0.0, 0.0 ) 0.1, 0.1, 0.1, 0.1, 0.1, 0.1, 0.1, 0.1, 0.1, 0.1;
    ( 0.0, 0, 0.0, 1.0 ) 0.1, 0.1, 0.1, 0.1, 0.1, 0.1, 0.1, 0.1, 0.1, 0.1;
    ( 0.0, 0, 0.0, 2.0 ) 0.1, 0.1, 0.1, 0.1, 0.1, 0.1, 0.1, 0.1, 0.1, 0.1;
    ( 0.0, 0, 0.0, 3.0 ) 0.1, 0.1, 0.1, 0.1, 0.1, 0.1, 0.1, 0.1, 0.1, 0.1;
    ( 0.0, 0, 0.0, 4.0 ) 0.1, 0.1, 0.1, 0.1, 0.1, 0.1, 0.1, 0.1, 0.1, 0.1;
    ( 0.0, 0, 0.0, 5.0 ) 0.1, 0.1, 0.1, 0.1, 0.1, 0.1, 0.1, 0.1, 0.1, 0.1;
    ( 0.0, 0, 0.0, 6.0 ) 0.1, 0.1, 0.1, 0.1, 0.1, 0.1, 0.1, 0.1, 0.1, 0.1;
    ( 0.0, 0, 0.0, 7.0 ) 0.1, 0.1, 0.1, 0.1, 0.1, 0.1, 0.1, 0.1, 0.1, 0.1;
    ( 0.0, 0, 0.0, 8.0 ) 0.1, 0.1, 0.1, 0.1, 0.1, 0.1, 0.1, 0.1, 0.1, 0.1;
    ( 0.0, 0, 0.0, 9.0 ) 0.1, 0.1, 0.1, 0.1, 0.1, 0.1, 0.1, 0.1, 0.1, 0.1;
    ( 0.0, 0, 1.0, 0.0 ) 0.1, 0.1, 0.1, 0.1, 0.1, 0.1, 0.1, 0.1, 0.1, 0.1;
    ( 0.0, 0, 1.0, 1.0 ) 0.1, 0.1, 0.1, 0.1, 0.1, 0.1, 0.1, 0.1, 0.1, 0.1;
    ( 0.0, 0, 1.0, 2.0 ) 0.1, 0.1, 0.1, 0.1, 0.1, 0.1, 0.1, 0.1, 0.1, 0.1;
    ( 0.0, 0, 1.0, 3.0 ) 0.1, 0.1, 0.1, 0.1, 0.1, 0.1, 0.1, 0.1, 0.1, 0.1;
    ( 0.0, 0, 1.0, 4.0 ) 0.1, 0.1, 0.1, 0.1, 0.1, 0.1, 0.1, 0.1, 0.1, 0.1;
    ( 0.0, 0, 1.0, 5.0 ) 0.1, 0.1, 0.1, 0.1, 0.1, 0.1, 0.1, 0.1, 0.1, 0.1;
    ( 0.0, 0, 1.0, 6.0 ) 0.1, 0.1, 0.1, 0.1, 0.1, 0.1, 0.1, 0.1, 0.1, 0.1;
    ( 0.0, 0, 1.0, 7.0 ) 0.1, 0.1, 0.1, 0.1, 0.1, 0.1, 0.1, 0.1, 0.1, 0.1;
    ( 0.0, 0, 1.0, 8.0 ) 0.1, 0.1, 0.1, 0.1, 0.1, 0.1, 0.1, 0.1, 0.1, 0.1;
    ( 0.0, 0, 1.0, 9.0 ) 0.0, 0.0, 1.0, 0.0, 0.0, 0.0, 0.0, 0.0, 0.0, 0.0;
    ( 0.0, 0, 2.0, 0.0 ) 0.1, 0.1, 0.1, 0.1, 0.1, 0.1, 0.1, 0.1, 0.1, 0.1;
    ( 0.0, 0, 2.0, 1.0 ) 0.1, 0.1, 0.1, 0.1, 0.1, 0.1, 0.1, 0.1, 0.1, 0.1;
    ( 0.0, 0, 2.0, 2.0 ) 0.0, 0.0, 1.0, 0.0, 0.0, 0.0, 0.0, 0.0, 0.0, 0.0;
    ( 0.0, 0, 2.0, 3.0 ) 0.1, 0.1, 0.1, 0.1, 0.1, 0.1, 0.1, 0.1, 0.1, 0.1;
    ( 0.0, 0, 2.0, 4.0 ) 0.1, 0.1, 0.1, 0.1, 0.1, 0.1, 0.1, 0.1, 0.1, 0.1;
    ( 0.0, 0, 2.0, 5.0 ) 0.1, 0.1, 0.1, 0.1, 0.1, 0.1, 0.1, 0.1, 0.1, 0.1;
    ( 0.0, 0, 2.0, 6.0 ) 0.1, 0.1, 0.1, 0.1, 0.1, 0.1, 0.1, 0.1, 0.1, 0.1;
    ( 0.0, 0, 2.0, 7.0 ) 0.1, 0.1, 0.1, 0.1, 0.1, 0.1, 0.1, 0.1, 0.1, 0.1;
    ( 0.0, 0, 2.0, 8.0 ) 0.1, 0.1, 0.1, 0.1, 0.1, 0.1, 0.1, 0.1, 0.1, 0.1;
    ( 0.0, 0, 2.0, 9.0 ) 0.0, 1.0, 0.0, 0.0, 0.0, 0.0, 0.0, 0.0, 0.0, 0.0;
    ( 0.0, 0, 3.0, 0.0 ) 0.0, 0.0, 0.0, 0.0, 0.0, 0.0, 0.0, 0.0, 1.0, 0.0;
    ( 0.0, 0, 3.0, 1.0 ) 0.0, 0.0, 0.3333333333333333, 0.0, 0.0, 0.0, 0.0, 0.0, 0.6666666666666666, 0.0;
    ( 0.0, 0, 3.0, 2.0 ) 0.1, 0.1, 0.1, 0.1, 0.1, 0.1, 0.1, 0.1, 0.1, 0.1;
    ( 0.0, 0, 3.0, 3.0 ) 0.1, 0.1, 0.1, 0.1, 0.1, 0.1, 0.1, 0.1, 0.1, 0.1;
    ( 0.0, 0, 3.0, 4.0 ) 0.1, 0.1, 0.1, 0.1, 0.1, 0.1, 0.1, 0.1, 0.1, 0.1;
    ( 0.0, 0, 3.0, 5.0 ) 0.1, 0.1, 0.1, 0.1, 0.1, 0.1, 0.1, 0.1, 0.1, 0.1;
    ( 0.0, 0, 3.0, 6.0 ) 0.1, 0.1, 0.1, 0.1, 0.1, 0.1, 0.1, 0.1, 0.1, 0.1;
    ( 0.0, 0, 3.0, 7.0 ) 0.1, 0.1, 0.1, 0.1, 0.1, 0.1, 0.1, 0.1, 0.1, 0.1;
    ( 0.0, 0, 3.0, 8.0 ) 0.0, 1.0, 0.0, 0.0, 0.0, 0.0, 0.0, 0.0, 0.0, 0.0;
    ( 0.0, 0, 3.0, 9.0 ) 0.1, 0.1, 0.1, 0.1, 0.1, 0.1, 0.1, 0.1, 0.1, 0.1;
    ( 0.0, 0, 4.0, 0.0 ) 0.0, 0.0, 0.0, 0.5, 0.0, 0.0, 0.0, 0.0, 0.5, 0.0;
    ( 0.0, 0, 4.0, 1.0 ) 0.0, 0.0, 0.0, 0.2, 0.2, 0.0, 0.2, 0.2, 0.0, 0.2;
    ( 0.0, 0, 4.0, 2.0 ) 0.0, 0.0, 1.0, 0.0, 0.0, 0.0, 0.0, 0.0, 0.0, 0.0;
    ( 0.0, 0, 4.0, 3.0 ) 0.0, 0.0, 0.0, 0.0, 0.5, 0.0, 0.0, 0.0, 0.0, 0.5;
    ( 0.0, 0, 4.0, 4.0 ) 0.1, 0.1, 0.1, 0.1, 0.1, 0.1, 0.1, 0.1, 0.1, 0.1;
    ( 0.0, 0, 4.0, 5.0 ) 0.1, 0.1, 0.1, 0.1, 0.1, 0.1, 0.1, 0.1, 0.1, 0.1;
    ( 0.0, 0, 4.0, 6.0 ) 0.1, 0.1, 0.1, 0.1, 0.1, 0.1, 0.1, 0.1, 0.1, 0.1;
    ( 0.0, 0, 4.0, 7.0 ) 0.1, 0.1, 0.1, 0.1, 0.1, 0.1, 0.1, 0.1, 0.1, 0.1;
    ( 0.0, 0, 4.0, 8.0 ) 0.0, 0.4444444444444444, 0.1111111111111111, 0.0, 0.3333333333333333, 0.0, 0.0, 0.1111111111111111, 0.0, 0.0;
    ( 0.0, 0, 4.0, 9.0 ) 0.0, 0.0, 0.0, 0.0, 0.0, 0.0, 0.0, 0.0, 0.0, 1.0;
    ( 0.0, 0, 5.0, 0.0 ) 0.1, 0.1, 0.1, 0.1, 0.1, 0.1, 0.1, 0.1, 0.1, 0.1;
    ( 0.0, 0, 5.0, 1.0 ) 0.0, 0.0, 0.15384615384615385, 0.11538461538461539, 0.15384615384615385, 0.0, 0.07692307692307693, 0.23076923076923078, 0.23076923076923078, 0.038461538461538464;
    ( 0.0, 0, 5.0, 2.0 ) 0.0, 0.0, 0.0, 0.3333333333333333, 0.16666666666666666, 0.16666666666666666, 0.16666666666666666, 0.0, 0.16666666666666666, 0.0;
    ( 0.0, 0, 5.0, 3.0 ) 0.0, 0.0, 0.0, 0.3333333333333333, 0.3333333333333333, 0.0, 0.0, 0.0, 0.0, 0.3333333333333333;
    ( 0.0, 0, 5.0, 4.0 ) 0.0, 0.0, 0.5, 0.5, 0.0, 0.0, 0.0, 0.0, 0.0, 0.0;
    ( 0.0, 0, 5.0, 5.0 ) 0.1, 0.1, 0.1, 0.1, 0.1, 0.1, 0.1, 0.1, 0.1, 0.1;
    ( 0.0, 0, 5.0, 6.0 ) 0.1, 0.1, 0.1, 0.1, 0.1, 0.1, 0.1, 0.1, 0.1, 0.1;
    ( 0.0, 0, 5.0, 7.0 ) 0.05263157894736842, 0.5263157894736842, 0.0, 0.05263157894736842, 0.21052631578947367, 0.0, 0.0, 0.10526315789473684, 0.05263157894736842, 0.0;
    ( 0.0, 0, 5.0, 8.0 ) 0.017241379310344827, 0.08620689655172414, 0.10344827586206896, 0.10344827586206896, 0.25862068965517243, 0.017241379310344827, 0.0, 0.05172413793103448, 0.13793103448275862, 0.22413793103448276;
    ( 0.0, 0, 5.0, 9.0 ) 0.1, 0.1, 0.1, 0.1, 0.1, 0.1, 0.1, 0.1, 0.1, 0.1;
    ( 0.0, 0, 6.0, 0.0 ) 0.1, 0.1, 0.1, 0.1, 0.1, 0.1, 0.1, 0.1, 0.1, 0.1;
    ( 0.0, 0, 6.0, 1.0 ) 0.0, 0.12, 0.08, 0.24, 0.12, 0.08, 0.12, 0.08, 0.0, 0.16;
    ( 0.0, 0, 6.0, 2.0 ) 0.018691588785046728, 0.04672897196261682, 0.18691588785046728, 0.14953271028037382, 0.11214953271028037, 0.06542056074766354, 0.12149532710280374, 0.102803738317757, 0.12149532710280374, 0.07476635514018691;
    ( 0.0, 0, 6.0, 3.0 ) 0.025, 0.0, 0.15, 0.1, 0.1, 0.025, 0.075, 0.15, 0.2, 0.175;
    ( 0.0, 0, 6.0, 4.0 ) 0.06666666666666667, 0.0, 0.06666666666666667, 0.0, 0.2, 0.0, 0.13333333333333333, 0.26666666666666666, 0.2, 0.06666666666666667;
    ( 0.0, 0, 6.0, 5.0 ) 0.12, 0.08, 0.16, 0.04, 0.16, 0.08, 0.0, 0.24, 0.08, 0.04;
    ( 0.0, 0, 6.0, 6.0 ) 0.042105263157894736, 0.042105263157894736, 0.18947368421052632, 0.10526315789473684, 0.1368421052631579, 0.031578947368421054, 0.11578947368421053, 0.08421052631578947, 0.1368421052631579, 0.11578947368421053;
    ( 0.0, 0, 6.0, 7.0 ) 0.027874564459930314, 0.07317073170731707, 0.12195121951219512, 0.11149825783972125, 0.25435540069686413, 0.05226480836236934, 0.059233449477351915, 0.05226480836236934, 0.11846689895470383, 0.1289198606271777;
    ( 0.0, 0, 6.0, 8.0 ) 0.0, 0.047619047619047616, 0.0, 0.11904761904761904, 0.35714285714285715, 0.11904761904761904, 0.07142857142857142, 0.023809523809523808, 0.14285714285714285, 0.11904761904761904;
    ( 0.0, 0, 6.0, 9.0 ) 0.1, 0.1, 0.1, 0.1, 0.1, 0.1, 0.1, 0.1, 0.1, 0.1;
    ( 0.0, 0, 7.0, 0.0 ) 0.1, 0.1, 0.1, 0.1, 0.1, 0.1, 0.1, 0.1, 0.1, 0.1;
    ( 0.0, 0, 7.0, 1.0 ) 0.1, 0.1, 0.1, 0.1, 0.1, 0.1, 0.1, 0.1, 0.1, 0.1;
    ( 0.0, 0, 7.0, 2.0 ) 0.02, 0.006666666666666667, 0.22, 0.12, 0.1, 0.04666666666666667, 0.08, 0.14, 0.18, 0.08666666666666667;
    ( 0.0, 0, 7.0, 3.0 ) 0.03880070546737213, 0.07231040564373897, 0.15696649029982362, 0.1693121693121693, 0.13580246913580246, 0.042328042328042326, 0.06701940035273368, 0.09347442680776014, 0.11816578483245149, 0.10582010582010581;
    ( 0.0, 0, 7.0, 4.0 ) 0.04745166959578207, 0.054481546572934976, 0.14411247803163443, 0.19156414762741653, 0.1687170474516696, 0.0351493848857645, 0.056239015817223195, 0.09666080843585237, 0.11072056239015818, 0.09490333919156414;
    ( 0.0, 0, 7.0, 5.0 ) 0.05211726384364821, 0.05971769815418024, 0.14115092290988057, 0.17263843648208468, 0.18023887079261672, 0.04668838219326819, 0.04777415852334419, 0.09337676438653637, 0.10423452768729642, 0.10206297502714441;
    ( 0.0, 0, 7.0, 6.0 ) 0.04853387259858443, 0.06572295247724974, 0.11931243680485339, 0.12537917087967643, 0.18402426693629928, 0.06471183013144591, 0.05156723963599596, 0.07987866531850354, 0.10920121334681497, 0.15166835187057634;
    ( 0.0, 0, 7.0, 7.0 ) 0.08974358974358974, 0.05128205128205128, 0.07692307692307693, 0.07692307692307693, 0.19230769230769232, 0.02564102564102564, 0.08974358974358974, 0.14102564102564102, 0.14102564102564102, 0.11538461538461539;
    ( 0.0, 0, 7.0, 8.0 ) 0.1, 0.1, 0.1, 0.1, 0.1, 0.1, 0.1, 0.1, 0.1, 0.1;
    ( 0.0, 0, 7.0, 9.0 ) 0.1, 0.1, 0.1, 0.1, 0.1, 0.1, 0.1, 0.1, 0.1, 0.1;
    ( 0.0, 0, 8.0, 0.0 ) 0.1, 0.1, 0.1, 0.1, 0.1, 0.1, 0.1, 0.1, 0.1, 0.1;
    ( 0.0, 0, 8.0, 1.0 ) 0.1, 0.1, 0.1, 0.1, 0.1, 0.1, 0.1, 0.1, 0.1, 0.1;
    ( 0.0, 0, 8.0, 2.0 ) 0.0, 0.0, 0.0, 0.0, 0.0, 0.0, 0.4, 0.2, 0.2, 0.2;
    ( 0.0, 0, 8.0, 3.0 ) 0.0136986301369863, 0.0578386605783866, 0.136986301369863, 0.1263318112633181, 0.0989345509893455, 0.0258751902587519, 0.0943683409436834, 0.1567732115677321, 0.1841704718417047, 0.1050228310502283;
    ( 0.0, 0, 8.0, 4.0 ) 0.04071153493489822, 0.0768384375573079, 0.13167064001467083, 0.12653585182468366, 0.1342380341096644, 0.035576746744911056, 0.0891252521547772, 0.11883366953970291, 0.1311204841371722, 0.11534934898221162;
    ( 0.0, 0, 8.0, 5.0 ) 0.046978182730084424, 0.05834656858647497, 0.11268076569422386, 0.1296497534063362, 0.1490428822201789, 0.04622586307782329, 0.07999665635710106, 0.10942071386775892, 0.12120705508651676, 0.14645155897350162;
    ( 0.0, 0, 8.0, 6.0 ) 0.0525, 0.0375, 0.11, 0.0875, 0.13, 0.0625, 0.0725, 0.11, 0.1675, 0.17;
    ( 0.0, 0, 8.0, 7.0 ) 1.0, 0.0, 0.0, 0.0, 0.0, 0.0, 0.0, 0.0, 0.0, 0.0;
    ( 0.0, 0, 8.0, 8.0 ) 0.1, 0.1, 0.1, 0.1, 0.1, 0.1, 0.1, 0.1, 0.1, 0.1;
    ( 0.0, 0, 8.0, 9.0 ) 0.1, 0.1, 0.1, 0.1, 0.1, 0.1, 0.1, 0.1, 0.1, 0.1;
    ( 0.0, 0, 9.0, 0.0 ) 0.1, 0.1, 0.1, 0.1, 0.1, 0.1, 0.1, 0.1, 0.1, 0.1;
    ( 0.0, 0, 9.0, 1.0 ) 0.1, 0.1, 0.1, 0.1, 0.1, 0.1, 0.1, 0.1, 0.1, 0.1;
    ( 0.0, 0, 9.0, 2.0 ) 0.1, 0.1, 0.1, 0.1, 0.1, 0.1, 0.1, 0.1, 0.1, 0.1;
    ( 0.0, 0, 9.0, 3.0 ) 0.015681544028950542, 0.05790108564535585, 0.1189384800965018, 0.10952955367913149, 0.10663449939686369, 0.019059107358262967, 0.10784077201447527, 0.16212303980699638, 0.16188178528347408, 0.14041013268998795;
    ( 0.0, 0, 9.0, 4.0 ) 0.03993746446844798, 0.07234223990903922, 0.12563956793632747, 0.13231949971574758, 0.15392268334280843, 0.043988061398521884, 0.08321489482660603, 0.10609721432632177, 0.12151790790221717, 0.12102046617396248;
    ( 0.0, 0, 9.0, 5.0 ) 0.05032822757111598, 0.08424507658643327, 0.14551422319474835, 0.12691466083150985, 0.13347921225382933, 0.04266958424507659, 0.07986870897155361, 0.13129102844638948, 0.10940919037199125, 0.0962800875273523;
    ( 0.0, 0, 9.0, 6.0 ) 0.0, 0.0, 0.0, 0.2777777777777778, 0.2777777777777778, 0.1111111111111111, 0.16666666666666666, 0.1111111111111111, 0.0, 0.05555555555555555;
    ( 0.0, 0, 9.0, 7.0 ) 0.1, 0.1, 0.1, 0.1, 0.1, 0.1, 0.1, 0.1, 0.1, 0.1;
    ( 0.0, 0, 9.0, 8.0 ) 0.1, 0.1, 0.1, 0.1, 0.1, 0.1, 0.1, 0.1, 0.1, 0.1;
    ( 0.0, 0, 9.0, 9.0 ) 0.1, 0.1, 0.1, 0.1, 0.1, 0.1, 0.1, 0.1, 0.1, 0.1;
    ( 0.0, 1, 0.0, 0.0 ) 0.1, 0.1, 0.1, 0.1, 0.1, 0.1, 0.1, 0.1, 0.1, 0.1;
    ( 0.0, 1, 0.0, 1.0 ) 0.1, 0.1, 0.1, 0.1, 0.1, 0.1, 0.1, 0.1, 0.1, 0.1;
    ( 0.0, 1, 0.0, 2.0 ) 0.1, 0.1, 0.1, 0.1, 0.1, 0.1, 0.1, 0.1, 0.1, 0.1;
    ( 0.0, 1, 0.0, 3.0 ) 0.1, 0.1, 0.1, 0.1, 0.1, 0.1, 0.1, 0.1, 0.1, 0.1;
    ( 0.0, 1, 0.0, 4.0 ) 0.1, 0.1, 0.1, 0.1, 0.1, 0.1, 0.1, 0.1, 0.1, 0.1;
    ( 0.0, 1, 0.0, 5.0 ) 0.1, 0.1, 0.1, 0.1, 0.1, 0.1, 0.1, 0.1, 0.1, 0.1;
    ( 0.0, 1, 0.0, 6.0 ) 0.1, 0.1, 0.1, 0.1, 0.1, 0.1, 0.1, 0.1, 0.1, 0.1;
    ( 0.0, 1, 0.0, 7.0 ) 0.1, 0.1, 0.1, 0.1, 0.1, 0.1, 0.1, 0.1, 0.1, 0.1;
    ( 0.0, 1, 0.0, 8.0 ) 0.1, 0.1, 0.1, 0.1, 0.1, 0.1, 0.1, 0.1, 0.1, 0.1;
    ( 0.0, 1, 0.0, 9.0 ) 0.1, 0.1, 0.1, 0.1, 0.1, 0.1, 0.1, 0.1, 0.1, 0.1;
    ( 0.0, 1, 1.0, 0.0 ) 0.1, 0.1, 0.1, 0.1, 0.1, 0.1, 0.1, 0.1, 0.1, 0.1;
    ( 0.0, 1, 1.0, 1.0 ) 0.1, 0.1, 0.1, 0.1, 0.1, 0.1, 0.1, 0.1, 0.1, 0.1;
    ( 0.0, 1, 1.0, 2.0 ) 0.1, 0.1, 0.1, 0.1, 0.1, 0.1, 0.1, 0.1, 0.1, 0.1;
    ( 0.0, 1, 1.0, 3.0 ) 0.1, 0.1, 0.1, 0.1, 0.1, 0.1, 0.1, 0.1, 0.1, 0.1;
    ( 0.0, 1, 1.0, 4.0 ) 0.1, 0.1, 0.1, 0.1, 0.1, 0.1, 0.1, 0.1, 0.1, 0.1;
    ( 0.0, 1, 1.0, 5.0 ) 0.1, 0.1, 0.1, 0.1, 0.1, 0.1, 0.1, 0.1, 0.1, 0.1;
    ( 0.0, 1, 1.0, 6.0 ) 0.1, 0.1, 0.1, 0.1, 0.1, 0.1, 0.1, 0.1, 0.1, 0.1;
    ( 0.0, 1, 1.0, 7.0 ) 0.1, 0.1, 0.1, 0.1, 0.1, 0.1, 0.1, 0.1, 0.1, 0.1;
    ( 0.0, 1, 1.0, 8.0 ) 0.1, 0.1, 0.1, 0.1, 0.1, 0.1, 0.1, 0.1, 0.1, 0.1;
    ( 0.0, 1, 1.0, 9.0 ) 0.0, 0.7692307692307693, 0.0, 0.0, 0.0, 0.23076923076923078, 0.0, 0.0, 0.0, 0.0;
    ( 0.0, 1, 2.0, 0.0 ) 0.1, 0.1, 0.1, 0.1, 0.1, 0.1, 0.1, 0.1, 0.1, 0.1;
    ( 0.0, 1, 2.0, 1.0 ) 0.1, 0.1, 0.1, 0.1, 0.1, 0.1, 0.1, 0.1, 0.1, 0.1;
    ( 0.0, 1, 2.0, 2.0 ) 0.1, 0.1, 0.1, 0.1, 0.1, 0.1, 0.1, 0.1, 0.1, 0.1;
    ( 0.0, 1, 2.0, 3.0 ) 0.1, 0.1, 0.1, 0.1, 0.1, 0.1, 0.1, 0.1, 0.1, 0.1;
    ( 0.0, 1, 2.0, 4.0 ) 0.1, 0.1, 0.1, 0.1, 0.1, 0.1, 0.1, 0.1, 0.1, 0.1;
    ( 0.0, 1, 2.0, 5.0 ) 0.1, 0.1, 0.1, 0.1, 0.1, 0.1, 0.1, 0.1, 0.1, 0.1;
    ( 0.0, 1, 2.0, 6.0 ) 0.1, 0.1, 0.1, 0.1, 0.1, 0.1, 0.1, 0.1, 0.1, 0.1;
    ( 0.0, 1, 2.0, 7.0 ) 0.1, 0.1, 0.1, 0.1, 0.1, 0.1, 0.1, 0.1, 0.1, 0.1;
    ( 0.0, 1, 2.0, 8.0 ) 0.1, 0.1, 0.1, 0.1, 0.1, 0.1, 0.1, 0.1, 0.1, 0.1;
    ( 0.0, 1, 2.0, 9.0 ) 0.0, 0.48755312689738917, 0.0, 0.0, 0.0, 0.5124468731026108, 0.0, 0.0, 0.0, 0.0;
    ( 0.0, 1, 3.0, 0.0 ) 0.1, 0.1, 0.1, 0.1, 0.1, 0.1, 0.1, 0.1, 0.1, 0.1;
    ( 0.0, 1, 3.0, 1.0 ) 0.1, 0.1, 0.1, 0.1, 0.1, 0.1, 0.1, 0.1, 0.1, 0.1;
    ( 0.0, 1, 3.0, 2.0 ) 0.1, 0.1, 0.1, 0.1, 0.1, 0.1, 0.1, 0.1, 0.1, 0.1;
    ( 0.0, 1, 3.0, 3.0 ) 0.1, 0.1, 0.1, 0.1, 0.1, 0.1, 0.1, 0.1, 0.1, 0.1;
    ( 0.0, 1, 3.0, 4.0 ) 0.1, 0.1, 0.1, 0.1, 0.1, 0.1, 0.1, 0.1, 0.1, 0.1;
    ( 0.0, 1, 3.0, 5.0 ) 0.1, 0.1, 0.1, 0.1, 0.1, 0.1, 0.1, 0.1, 0.1, 0.1;
    ( 0.0, 1, 3.0, 6.0 ) 0.1, 0.1, 0.1, 0.1, 0.1, 0.1, 0.1, 0.1, 0.1, 0.1;
    ( 0.0, 1, 3.0, 7.0 ) 0.1, 0.1, 0.1, 0.1, 0.1, 0.1, 0.1, 0.1, 0.1, 0.1;
    ( 0.0, 1, 3.0, 8.0 ) 0.0, 0.512087912087912, 0.18021978021978022, 0.2681318681318681, 0.03956043956043956, 0.0, 0.0, 0.0, 0.0, 0.0;
    ( 0.0, 1, 3.0, 9.0 ) 0.0, 0.5526601520086862, 0.0, 0.0010857763300760044, 0.08251900108577633, 0.36373507057546145, 0.0, 0.0, 0.0, 0.0;
    ( 0.0, 1, 4.0, 0.0 ) 0.1, 0.1, 0.1, 0.1, 0.1, 0.1, 0.1, 0.1, 0.1, 0.1;
    ( 0.0, 1, 4.0, 1.0 ) 0.1, 0.1, 0.1, 0.1, 0.1, 0.1, 0.1, 0.1, 0.1, 0.1;
    ( 0.0, 1, 4.0, 2.0 ) 0.1, 0.1, 0.1, 0.1, 0.1, 0.1, 0.1, 0.1, 0.1, 0.1;
    ( 0.0, 1, 4.0, 3.0 ) 0.1, 0.1, 0.1, 0.1, 0.1, 0.1, 0.1, 0.1, 0.1, 0.1;
    ( 0.0, 1, 4.0, 4.0 ) 0.1, 0.1, 0.1, 0.1, 0.1, 0.1, 0.1, 0.1, 0.1, 0.1;
    ( 0.0, 1, 4.0, 5.0 ) 0.1, 0.1, 0.1, 0.1, 0.1, 0.1, 0.1, 0.1, 0.1, 0.1;
    ( 0.0, 1, 4.0, 6.0 ) 0.1, 0.1, 0.1, 0.1, 0.1, 0.1, 0.1, 0.1, 0.1, 0.1;
    ( 0.0, 1, 4.0, 7.0 ) 0.0, 1.0, 0.0, 0.0, 0.0, 0.0, 0.0, 0.0, 0.0, 0.0;
    ( 0.0, 1, 4.0, 8.0 ) 0.0, 0.6184428492545555, 0.29155162893429043, 0.02319160684704583, 0.05080066261733849, 0.01601325234676974, 0.0, 0.0, 0.0, 0.0;
    ( 0.0, 1, 4.0, 9.0 ) 0.0, 0.0, 0.0, 0.0, 0.0, 1.0, 0.0, 0.0, 0.0, 0.0;
    ( 0.0, 1, 5.0, 0.0 ) 0.1, 0.1, 0.1, 0.1, 0.1, 0.1, 0.1, 0.1, 0.1, 0.1;
    ( 0.0, 1, 5.0, 1.0 ) 0.1, 0.1, 0.1, 0.1, 0.1, 0.1, 0.1, 0.1, 0.1, 0.1;
    ( 0.0, 1, 5.0, 2.0 ) 0.1, 0.1, 0.1, 0.1, 0.1, 0.1, 0.1, 0.1, 0.1, 0.1;
    ( 0.0, 1, 5.0, 3.0 ) 0.1, 0.1, 0.1, 0.1, 0.1, 0.1, 0.1, 0.1, 0.1, 0.1;
    ( 0.0, 1, 5.0, 4.0 ) 0.1, 0.1, 0.1, 0.1, 0.1, 0.1, 0.1, 0.1, 0.1, 0.1;
    ( 0.0, 1, 5.0, 5.0 ) 0.1, 0.1, 0.1, 0.1, 0.1, 0.1, 0.1, 0.1, 0.1, 0.1;
    ( 0.0, 1, 5.0, 6.0 ) 0.0, 0.0, 0.0, 1.0, 0.0, 0.0, 0.0, 0.0, 0.0, 0.0;
    ( 0.0, 1, 5.0, 7.0 ) 0.0, 0.009345794392523364, 0.6666666666666666, 0.17133956386292834, 0.04984423676012461, 0.102803738317757, 0.0, 0.0, 0.0, 0.0;
    ( 0.0, 1, 5.0, 8.0 ) 0.0, 0.0, 0.35164099129269927, 0.02277294038847957, 0.04085733422638982, 0.5847287340924313, 0.0, 0.0, 0.0, 0.0;
    ( 0.0, 1, 5.0, 9.0 ) 0.0, 0.0, 0.0, 0.9709090909090909, 0.02909090909090909, 0.0, 0.0, 0.0, 0.0, 0.0;
    ( 0.0, 1, 6.0, 0.0 ) 0.1, 0.1, 0.1, 0.1, 0.1, 0.1, 0.1, 0.1, 0.1, 0.1;
    ( 0.0, 1, 6.0, 1.0 ) 0.0, 0.0, 0.0, 0.0, 0.0, 0.0, 0.0, 0.0, 0.0, 1.0;
    ( 0.0, 1, 6.0, 2.0 ) 0.0, 0.016304347826086956, 0.22282608695652173, 0.32065217391304346, 0.13043478260869565, 0.10326086956521739, 0.02717391304347826, 0.07608695652173914, 0.05434782608695652, 0.04891304347826087;
    ( 0.0, 1, 6.0, 3.0 ) 0.0, 0.06896551724137931, 0.06896551724137931, 0.13793103448275862, 0.1724137931034483, 0.4827586206896552, 0.0, 0.0, 0.06896551724137931, 0.0;
    ( 0.0, 1, 6.0, 4.0 ) 0.0, 0.011904761904761904, 0.023809523809523808, 0.0, 0.023809523809523808, 0.0, 0.09523809523809523, 0.17857142857142858, 0.32142857142857145, 0.34523809523809523;
    ( 0.0, 1, 6.0, 5.0 ) 0.09560229445506692, 0.040152963671128104, 0.1338432122370937, 0.3977055449330784, 0.022944550669216062, 0.022944550669216062, 0.03441682600382409, 0.05927342256214149, 0.14149139579349904, 0.05162523900573614;
    ( 0.0, 1, 6.0, 6.0 ) 0.10254854368932038, 0.06128640776699029, 0.07160194174757281, 0.22512135922330098, 0.22148058252427186, 0.08495145631067962, 0.08070388349514564, 0.09283980582524272, 0.05764563106796117, 0.0018203883495145632;
    ( 0.0, 1, 6.0, 7.0 ) 0.0, 0.004893238434163701, 0.4942170818505338, 0.076067615658363, 0.04359430604982206, 0.17437722419928825, 0.13656583629893237, 0.010676156583629894, 0.059608540925266906, 0.0;
    ( 0.0, 1, 6.0, 8.0 ) 0.43824228028503565, 0.0, 0.18646080760095013, 0.027315914489311165, 0.06413301662707839, 0.2838479809976247, 0.0, 0.0, 0.0, 0.0;
    ( 0.0, 1, 6.0, 9.0 ) 0.1, 0.1, 0.1, 0.1, 0.1, 0.1, 0.1, 0.1, 0.1, 0.1;
    ( 0.0, 1, 7.0, 0.0 ) 0.1, 0.1, 0.1, 0.1, 0.1, 0.1, 0.1, 0.1, 0.1, 0.1;
    ( 0.0, 1, 7.0, 1.0 ) 0.1, 0.1, 0.1, 0.1, 0.1, 0.1, 0.1, 0.1, 0.1, 0.1;
    ( 0.0, 1, 7.0, 2.0 ) 0.0, 0.0, 0.0, 0.0, 0.018518518518518517, 0.05555555555555555, 0.35185185185185186, 0.18518518518518517, 0.25925925925925924, 0.12962962962962962;
    ( 0.0, 1, 7.0, 3.0 ) 0.0, 0.03260869565217391, 0.043478260869565216, 0.11956521739130435, 0.17391304347826086, 0.30434782608695654, 0.0, 0.14130434782608695, 0.18478260869565216, 0.0;
    ( 0.0, 1, 7.0, 4.0 ) 0.028, 0.008, 0.196, 0.324, 0.092, 0.1, 0.116, 0.064, 0.072, 0.0;
    ( 0.0, 1, 7.0, 5.0 ) 0.006566604127579738, 0.02626641651031895, 0.19136960600375236, 0.2101313320825516, 0.21200750469043153, 0.1022514071294559, 0.07973733583489681, 0.029080675422138838, 0.13696060037523453, 0.005628517823639775;
    ( 0.0, 1, 7.0, 6.0 ) 0.10149253731343283, 0.034541577825159916, 0.2046908315565032, 0.07377398720682303, 0.19445628997867803, 0.19147121535181236, 0.08400852878464819, 0.024733475479744138, 0.08528784648187633, 0.005543710021321962;
    ( 0.0, 1, 7.0, 7.0 ) 0.11966156325543917, 0.0346494762288477, 0.2945205479452055, 0.058823529411764705, 0.06688154713940371, 0.34971796937953264, 0.010475423045930701, 0.0056406124093473006, 0.02215954875100725, 0.03746978243352135;
    ( 0.0, 1, 7.0, 8.0 ) 1.0, 0.0, 0.0, 0.0, 0.0, 0.0, 0.0, 0.0, 0.0, 0.0;
    ( 0.0, 1, 7.0, 9.0 ) 0.1, 0.1, 0.1, 0.1, 0.1, 0.1, 0.1, 0.1, 0.1, 0.1;
    ( 0.0, 1, 8.0, 0.0 ) 0.1, 0.1, 0.1, 0.1, 0.1, 0.1, 0.1, 0.1, 0.1, 0.1;
    ( 0.0, 1, 8.0, 1.0 ) 0.1, 0.1, 0.1, 0.1, 0.1, 0.1, 0.1, 0.1, 0.1, 0.1;
    ( 0.0, 1, 8.0, 2.0 ) 0.1, 0.1, 0.1, 0.1, 0.1, 0.1, 0.1, 0.1, 0.1, 0.1;
    ( 0.0, 1, 8.0, 3.0 ) 0.0, 0.0, 0.0, 0.32608695652173914, 0.043478260869565216, 0.2826086956521739, 0.0, 0.2608695652173913, 0.08695652173913043, 0.0;
    ( 0.0, 1, 8.0, 4.0 ) 0.0, 0.0, 0.07692307692307693, 0.23317307692307693, 0.24519230769230768, 0.06009615384615385, 0.19230769230769232, 0.12740384615384615, 0.06490384615384616, 0.0;
    ( 0.0, 1, 8.0, 5.0 ) 0.0, 0.046649897095815226, 0.21038188886348044, 0.2739538074548365, 0.18339812485707752, 0.07523439286530986, 0.05739766750514521, 0.07203292933912646, 0.05488223187742968, 0.0260690601417791;
    ( 0.0, 1, 8.0, 6.0 ) 0.07766990291262135, 0.07340753019180678, 0.13734312100402557, 0.17878285578972294, 0.13237035282974188, 0.0949561922803694, 0.0667771726260952, 0.06796116504854369, 0.1333175467677007, 0.03741416054937249;
    ( 0.0, 1, 8.0, 7.0 ) 0.1820526044352759, 0.032490974729241874, 0.017534811758638472, 0.012893243940175348, 0.017534811758638472, 0.07013924703455389, 0.025786487880350695, 0.0221763795771016, 0.22382671480144403, 0.39556472408457966;
    ( 0.0, 1, 8.0, 8.0 ) 0.1, 0.1, 0.1, 0.1, 0.1, 0.1, 0.1, 0.1, 0.1, 0.1;
    ( 0.0, 1, 8.0, 9.0 ) 0.1, 0.1, 0.1, 0.1, 0.1, 0.1, 0.1, 0.1, 0.1, 0.1;
    ( 0.0, 1, 9.0, 0.0 ) 0.1, 0.1, 0.1, 0.1, 0.1, 0.1, 0.1, 0.1, 0.1, 0.1;
    ( 0.0, 1, 9.0, 1.0 ) 0.1, 0.1, 0.1, 0.1, 0.1, 0.1, 0.1, 0.1, 0.1, 0.1;
    ( 0.0, 1, 9.0, 2.0 ) 0.1, 0.1, 0.1, 0.1, 0.1, 0.1, 0.1, 0.1, 0.1, 0.1;
    ( 0.0, 1, 9.0, 3.0 ) 0.0, 0.0, 0.0, 1.0, 0.0, 0.0, 0.0, 0.0, 0.0, 0.0;
    ( 0.0, 1, 9.0, 4.0 ) 0.0, 0.026, 0.332, 0.352, 0.068, 0.075, 0.025, 0.013, 0.03, 0.079;
    ( 0.0, 1, 9.0, 5.0 ) 0.019254813703425855, 0.0792698174543636, 0.14153538384596148, 0.16729182295573894, 0.21580395098774693, 0.0792698174543636, 0.06701675418854713, 0.07426856714178545, 0.10202550637659415, 0.05426356589147287;
    ( 0.0, 1, 9.0, 6.0 ) 0.1747375550287843, 0.05384354893328818, 0.05316627158821537, 0.04537758211987809, 0.0277683711479851, 0.0457162207924145, 0.0650186251269895, 0.20149001015916018, 0.29021334236369795, 0.04266847273958686;
    ( 0.0, 1, 9.0, 7.0 ) 0.7593360995850622, 0.08298755186721991, 0.07053941908713693, 0.058091286307053944, 0.029045643153526972, 0.0, 0.0, 0.0, 0.0, 0.0;
    ( 0.0, 1, 9.0, 8.0 ) 0.1, 0.1, 0.1, 0.1, 0.1, 0.1, 0.1, 0.1, 0.1, 0.1;
    ( 0.0, 1, 9.0, 9.0 ) 0.1, 0.1, 0.1, 0.1, 0.1, 0.1, 0.1, 0.1, 0.1, 0.1;
    ( 1.0, 0, 0.0, 0.0 ) 0.0, 0.0, 0.0, 0.0, 0.0, 0.0, 0.0, 0.0, 1.0, 0.0;
    ( 1.0, 0, 0.0, 1.0 ) 0.1, 0.1, 0.1, 0.1, 0.1, 0.1, 0.1, 0.1, 0.1, 0.1;
    ( 1.0, 0, 0.0, 2.0 ) 0.1, 0.1, 0.1, 0.1, 0.1, 0.1, 0.1, 0.1, 0.1, 0.1;
    ( 1.0, 0, 0.0, 3.0 ) 0.1, 0.1, 0.1, 0.1, 0.1, 0.1, 0.1, 0.1, 0.1, 0.1;
    ( 1.0, 0, 0.0, 4.0 ) 0.1, 0.1, 0.1, 0.1, 0.1, 0.1, 0.1, 0.1, 0.1, 0.1;
    ( 1.0, 0, 0.0, 5.0 ) 0.1, 0.1, 0.1, 0.1, 0.1, 0.1, 0.1, 0.1, 0.1, 0.1;
    ( 1.0, 0, 0.0, 6.0 ) 0.1, 0.1, 0.1, 0.1, 0.1, 0.1, 0.1, 0.1, 0.1, 0.1;
    ( 1.0, 0, 0.0, 7.0 ) 0.1, 0.1, 0.1, 0.1, 0.1, 0.1, 0.1, 0.1, 0.1, 0.1;
    ( 1.0, 0, 0.0, 8.0 ) 0.1, 0.1, 0.1, 0.1, 0.1, 0.1, 0.1, 0.1, 0.1, 0.1;
    ( 1.0, 0, 0.0, 9.0 ) 0.1, 0.1, 0.1, 0.1, 0.1, 0.1, 0.1, 0.1, 0.1, 0.1;
    ( 1.0, 0, 1.0, 0.0 ) 0.1, 0.1, 0.1, 0.1, 0.1, 0.1, 0.1, 0.1, 0.1, 0.1;
    ( 1.0, 0, 1.0, 1.0 ) 0.1, 0.1, 0.1, 0.1, 0.1, 0.1, 0.1, 0.1, 0.1, 0.1;
    ( 1.0, 0, 1.0, 2.0 ) 0.1, 0.1, 0.1, 0.1, 0.1, 0.1, 0.1, 0.1, 0.1, 0.1;
    ( 1.0, 0, 1.0, 3.0 ) 0.1, 0.1, 0.1, 0.1, 0.1, 0.1, 0.1, 0.1, 0.1, 0.1;
    ( 1.0, 0, 1.0, 4.0 ) 0.1, 0.1, 0.1, 0.1, 0.1, 0.1, 0.1, 0.1, 0.1, 0.1;
    ( 1.0, 0, 1.0, 5.0 ) 0.1, 0.1, 0.1, 0.1, 0.1, 0.1, 0.1, 0.1, 0.1, 0.1;
    ( 1.0, 0, 1.0, 6.0 ) 0.1, 0.1, 0.1, 0.1, 0.1, 0.1, 0.1, 0.1, 0.1, 0.1;
    ( 1.0, 0, 1.0, 7.0 ) 0.1, 0.1, 0.1, 0.1, 0.1, 0.1, 0.1, 0.1, 0.1, 0.1;
    ( 1.0, 0, 1.0, 8.0 ) 0.1, 0.1, 0.1, 0.1, 0.1, 0.1, 0.1, 0.1, 0.1, 0.1;
    ( 1.0, 0, 1.0, 9.0 ) 0.1, 0.1, 0.1, 0.1, 0.1, 0.1, 0.1, 0.1, 0.1, 0.1;
    ( 1.0, 0, 2.0, 0.0 ) 0.0, 0.0, 0.5, 0.5, 0.0, 0.0, 0.0, 0.0, 0.0, 0.0;
    ( 1.0, 0, 2.0, 1.0 ) 0.1, 0.1, 0.1, 0.1, 0.1, 0.1, 0.1, 0.1, 0.1, 0.1;
    ( 1.0, 0, 2.0, 2.0 ) 0.1, 0.1, 0.1, 0.1, 0.1, 0.1, 0.1, 0.1, 0.1, 0.1;
    ( 1.0, 0, 2.0, 3.0 ) 0.1, 0.1, 0.1, 0.1, 0.1, 0.1, 0.1, 0.1, 0.1, 0.1;
    ( 1.0, 0, 2.0, 4.0 ) 0.1, 0.1, 0.1, 0.1, 0.1, 0.1, 0.1, 0.1, 0.1, 0.1;
    ( 1.0, 0, 2.0, 5.0 ) 0.1, 0.1, 0.1, 0.1, 0.1, 0.1, 0.1, 0.1, 0.1, 0.1;
    ( 1.0, 0, 2.0, 6.0 ) 0.1, 0.1, 0.1, 0.1, 0.1, 0.1, 0.1, 0.1, 0.1, 0.1;
    ( 1.0, 0, 2.0, 7.0 ) 0.0, 0.0, 0.0, 0.0, 0.0, 0.0, 1.0, 0.0, 0.0, 0.0;
    ( 1.0, 0, 2.0, 8.0 ) 0.1, 0.1, 0.1, 0.1, 0.1, 0.1, 0.1, 0.1, 0.1, 0.1;
    ( 1.0, 0, 2.0, 9.0 ) 0.1, 0.1, 0.1, 0.1, 0.1, 0.1, 0.1, 0.1, 0.1, 0.1;
    ( 1.0, 0, 3.0, 0.0 ) 0.0, 0.0, 0.0, 1.0, 0.0, 0.0, 0.0, 0.0, 0.0, 0.0;
    ( 1.0, 0, 3.0, 1.0 ) 0.0, 0.2857142857142857, 0.0, 0.42857142857142855, 0.0, 0.0, 0.14285714285714285, 0.14285714285714285, 0.0, 0.0;
    ( 1.0, 0, 3.0, 2.0 ) 0.1, 0.1, 0.1, 0.1, 0.1, 0.1, 0.1, 0.1, 0.1, 0.1;
    ( 1.0, 0, 3.0, 3.0 ) 0.1, 0.1, 0.1, 0.1, 0.1, 0.1, 0.1, 0.1, 0.1, 0.1;
    ( 1.0, 0, 3.0, 4.0 ) 0.1, 0.1, 0.1, 0.1, 0.1, 0.1, 0.1, 0.1, 0.1, 0.1;
    ( 1.0, 0, 3.0, 5.0 ) 0.1, 0.1, 0.1, 0.1, 0.1, 0.1, 0.1, 0.1, 0.1, 0.1;
    ( 1.0, 0, 3.0, 6.0 ) 0.1, 0.1, 0.1, 0.1, 0.1, 0.1, 0.1, 0.1, 0.1, 0.1;
    ( 1.0, 0, 3.0, 7.0 ) 0.0, 0.0, 0.0, 0.0, 0.0, 0.0, 1.0, 0.0, 0.0, 0.0;
    ( 1.0, 0, 3.0, 8.0 ) 0.1, 0.1, 0.1, 0.1, 0.1, 0.1, 0.1, 0.1, 0.1, 0.1;
    ( 1.0, 0, 3.0, 9.0 ) 0.1, 0.1, 0.1, 0.1, 0.1, 0.1, 0.1, 0.1, 0.1, 0.1;
    ( 1.0, 0, 4.0, 0.0 ) 0.0, 0.0, 0.0, 0.0, 0.0, 0.0, 0.0, 0.0, 1.0, 0.0;
    ( 1.0, 0, 4.0, 1.0 ) 0.0, 0.0, 0.2, 0.0, 0.2, 0.0, 0.4, 0.2, 0.0, 0.0;
    ( 1.0, 0, 4.0, 2.0 ) 0.1, 0.1, 0.1, 0.1, 0.1, 0.1, 0.1, 0.1, 0.1, 0.1;
    ( 1.0, 0, 4.0, 3.0 ) 0.1, 0.1, 0.1, 0.1, 0.1, 0.1, 0.1, 0.1, 0.1, 0.1;
    ( 1.0, 0, 4.0, 4.0 ) 0.1, 0.1, 0.1, 0.1, 0.1, 0.1, 0.1, 0.1, 0.1, 0.1;
    ( 1.0, 0, 4.0, 5.0 ) 0.0, 0.0, 0.0, 0.0, 0.0, 0.0, 0.0, 1.0, 0.0, 0.0;
    ( 1.0, 0, 4.0, 6.0 ) 0.0, 0.0, 1.0, 0.0, 0.0, 0.0, 0.0, 0.0, 0.0, 0.0;
    ( 1.0, 0, 4.0, 7.0 ) 0.1, 0.1, 0.1, 0.1, 0.1, 0.1, 0.1, 0.1, 0.1, 0.1;
    ( 1.0, 0, 4.0, 8.0 ) 0.0, 0.0, 1.0, 0.0, 0.0, 0.0, 0.0, 0.0, 0.0, 0.0;
    ( 1.0, 0, 4.0, 9.0 ) 0.1, 0.1, 0.1, 0.1, 0.1, 0.1, 0.1, 0.1, 0.1, 0.1;
    ( 1.0, 0, 5.0, 0.0 ) 0.1, 0.1, 0.1, 0.1, 0.1, 0.1, 0.1, 0.1, 0.1, 0.1;
    ( 1.0, 0, 5.0, 1.0 ) 0.0, 0.16666666666666666, 0.08333333333333333, 0.16666666666666666, 0.16666666666666666, 0.0, 0.25, 0.0, 0.16666666666666666, 0.0;
    ( 1.0, 0, 5.0, 2.0 ) 0.0, 0.0, 0.2857142857142857, 0.14285714285714285, 0.0, 0.0, 0.0, 0.42857142857142855, 0.14285714285714285, 0.0;
    ( 1.0, 0, 5.0, 3.0 ) 0.0, 0.0, 0.0, 1.0, 0.0, 0.0, 0.0, 0.0, 0.0, 0.0;
    ( 1.0, 0, 5.0, 4.0 ) 0.1, 0.1, 0.1, 0.1, 0.1, 0.1, 0.1, 0.1, 0.1, 0.1;
    ( 1.0, 0, 5.0, 5.0 ) 0.0, 0.0, 0.25, 0.5, 0.0, 0.0, 0.0, 0.25, 0.0, 0.0;
    ( 1.0, 0, 5.0, 6.0 ) 0.0, 0.0, 1.0, 0.0, 0.0, 0.0, 0.0, 0.0, 0.0, 0.0;
    ( 1.0, 0, 5.0, 7.0 ) 0.1, 0.1, 0.1, 0.1, 0.1, 0.1, 0.1, 0.1, 0.1, 0.1;
    ( 1.0, 0, 5.0, 8.0 ) 0.1, 0.1, 0.1, 0.1, 0.1, 0.1, 0.1, 0.1, 0.1, 0.1;
    ( 1.0, 0, 5.0, 9.0 ) 0.1, 0.1, 0.1, 0.1, 0.1, 0.1, 0.1, 0.1, 0.1, 0.1;
    ( 1.0, 0, 6.0, 0.0 ) 0.1, 0.1, 0.1, 0.1, 0.1, 0.1, 0.1, 0.1, 0.1, 0.1;
    ( 1.0, 0, 6.0, 1.0 ) 0.14285714285714285, 0.14285714285714285, 0.14285714285714285, 0.14285714285714285, 0.0, 0.0, 0.2857142857142857, 0.0, 0.14285714285714285, 0.0;
    ( 1.0, 0, 6.0, 2.0 ) 0.03076923076923077, 0.0, 0.07692307692307693, 0.18461538461538463, 0.07692307692307693, 0.046153846153846156, 0.07692307692307693, 0.2, 0.18461538461538463, 0.12307692307692308;
    ( 1.0, 0, 6.0, 3.0 ) 0.043478260869565216, 0.0, 0.30434782608695654, 0.2608695652173913, 0.043478260869565216, 0.0, 0.08695652173913043, 0.17391304347826086, 0.08695652173913043, 0.0;
    ( 1.0, 0, 6.0, 4.0 ) 0.0, 0.0, 0.15384615384615385, 0.15384615384615385, 0.15384615384615385, 0.0, 0.15384615384615385, 0.15384615384615385, 0.15384615384615385, 0.07692307692307693;
    ( 1.0, 0, 6.0, 5.0 ) 0.0, 0.0, 0.0, 0.5714285714285714, 0.0, 0.0, 0.0, 0.14285714285714285, 0.14285714285714285, 0.14285714285714285;
    ( 1.0, 0, 6.0, 6.0 ) 0.0, 0.0, 0.14285714285714285, 0.14285714285714285, 0.0, 0.0, 0.0, 0.0, 0.5714285714285714, 0.14285714285714285;
    ( 1.0, 0, 6.0, 7.0 ) 0.0, 0.0, 0.0, 0.0, 0.0, 0.0, 0.0, 0.0, 0.5, 0.5;
    ( 1.0, 0, 6.0, 8.0 ) 0.1, 0.1, 0.1, 0.1, 0.1, 0.1, 0.1, 0.1, 0.1, 0.1;
    ( 1.0, 0, 6.0, 9.0 ) 0.1, 0.1, 0.1, 0.1, 0.1, 0.1, 0.1, 0.1, 0.1, 0.1;
    ( 1.0, 0, 7.0, 0.0 ) 0.1, 0.1, 0.1, 0.1, 0.1, 0.1, 0.1, 0.1, 0.1, 0.1;
    ( 1.0, 0, 7.0, 1.0 ) 0.1, 0.1, 0.1, 0.1, 0.1, 0.1, 0.1, 0.1, 0.1, 0.1;
    ( 1.0, 0, 7.0, 2.0 ) 0.03305785123966942, 0.049586776859504134, 0.19008264462809918, 0.1652892561983471, 0.09917355371900827, 0.0, 0.09917355371900827, 0.09917355371900827, 0.14049586776859505, 0.12396694214876033;
    ( 1.0, 0, 7.0, 3.0 ) 0.021108179419525065, 0.0633245382585752, 0.19261213720316622, 0.13984168865435356, 0.14511873350923482, 0.0316622691292876, 0.06068601583113457, 0.11873350923482849, 0.14511873350923482, 0.08179419525065963;
    ( 1.0, 0, 7.0, 4.0 ) 0.0425531914893617, 0.05319148936170213, 0.1595744680851064, 0.15425531914893617, 0.1702127659574468, 0.02127659574468085, 0.0425531914893617, 0.12234042553191489, 0.15425531914893617, 0.0797872340425532;
    ( 1.0, 0, 7.0, 5.0 ) 0.03488372093023256, 0.06976744186046512, 0.046511627906976744, 0.18604651162790697, 0.13953488372093023, 0.03488372093023256, 0.03488372093023256, 0.16279069767441862, 0.12790697674418605, 0.16279069767441862;
    ( 1.0, 0, 7.0, 6.0 ) 0.03571428571428571, 0.03571428571428571, 0.10714285714285714, 0.14285714285714285, 0.17857142857142858, 0.0, 0.03571428571428571, 0.10714285714285714, 0.14285714285714285, 0.21428571428571427;
    ( 1.0, 0, 7.0, 7.0 ) 0.0, 1.0, 0.0, 0.0, 0.0, 0.0, 0.0, 0.0, 0.0, 0.0;
    ( 1.0, 0, 7.0, 8.0 ) 0.1, 0.1, 0.1, 0.1, 0.1, 0.1, 0.1, 0.1, 0.1, 0.1;
    ( 1.0, 0, 7.0, 9.0 ) 0.1, 0.1, 0.1, 0.1, 0.1, 0.1, 0.1, 0.1, 0.1, 0.1;
    ( 1.0, 0, 8.0, 0.0 ) 0.1, 0.1, 0.1, 0.1, 0.1, 0.1, 0.1, 0.1, 0.1, 0.1;
    ( 1.0, 0, 8.0, 1.0 ) 0.1, 0.1, 0.1, 0.1, 0.1, 0.1, 0.1, 0.1, 0.1, 0.1;
    ( 1.0, 0, 8.0, 2.0 ) 0.0, 0.0, 0.0, 0.0, 0.0, 0.0, 0.6666666666666666, 0.0, 0.0, 0.3333333333333333;
    ( 1.0, 0, 8.0, 3.0 ) 0.018867924528301886, 0.0660377358490566, 0.17452830188679244, 0.13443396226415094, 0.10849056603773585, 0.030660377358490566, 0.10141509433962265, 0.14622641509433962, 0.14386792452830188, 0.07547169811320754;
    ( 1.0, 0, 8.0, 4.0 ) 0.0335195530726257, 0.06797020484171322, 0.1610800744878957, 0.14338919925512103, 0.13128491620111732, 0.025139664804469275, 0.08472998137802606, 0.14432029795158285, 0.10893854748603352, 0.09962756052141528;
    ( 1.0, 0, 8.0, 5.0 ) 0.03233256351039261, 0.057736720554272515, 0.12702078521939955, 0.13625866050808313, 0.13856812933025403, 0.03926096997690531, 0.08545034642032333, 0.15242494226327943, 0.13394919168591224, 0.09699769053117784;
    ( 1.0, 0, 8.0, 6.0 ) 0.0, 0.0, 0.0, 0.25, 0.0, 0.0, 0.0, 0.75, 0.0, 0.0;
    ( 1.0, 0, 8.0, 7.0 ) 0.1, 0.1, 0.1, 0.1, 0.1, 0.1, 0.1, 0.1, 0.1, 0.1;
    ( 1.0, 0, 8.0, 8.0 ) 0.1, 0.1, 0.1, 0.1, 0.1, 0.1, 0.1, 0.1, 0.1, 0.1;
    ( 1.0, 0, 8.0, 9.0 ) 0.1, 0.1, 0.1, 0.1, 0.1, 0.1, 0.1, 0.1, 0.1, 0.1;
    ( 1.0, 0, 9.0, 0.0 ) 0.1, 0.1, 0.1, 0.1, 0.1, 0.1, 0.1, 0.1, 0.1, 0.1;
    ( 1.0, 0, 9.0, 1.0 ) 0.1, 0.1, 0.1, 0.1, 0.1, 0.1, 0.1, 0.1, 0.1, 0.1;
    ( 1.0, 0, 9.0, 2.0 ) 0.0, 0.0, 0.0, 0.0, 0.0, 0.0, 0.0, 0.0, 1.0, 0.0;
    ( 1.0, 0, 9.0, 3.0 ) 0.02034174125305126, 0.06224572823433686, 0.16395443449959315, 0.13628966639544346, 0.12571196094385678, 0.019121236777868186, 0.08584214808787632, 0.14117168429617574, 0.1371033360455655, 0.10821806346623271;
    ( 1.0, 0, 9.0, 4.0 ) 0.043758043758043756, 0.07979407979407979, 0.17117117117117117, 0.12998712998713, 0.12355212355212356, 0.02445302445302445, 0.06692406692406692, 0.1287001287001287, 0.13127413127413126, 0.10038610038610038;
    ( 1.0, 0, 9.0, 5.0 ) 0.0, 0.0, 0.0, 0.0, 0.0, 0.0, 0.0, 0.0, 0.0, 1.0;
    ( 1.0, 0, 9.0, 6.0 ) 0.1, 0.1, 0.1, 0.1, 0.1, 0.1, 0.1, 0.1, 0.1, 0.1;
    ( 1.0, 0, 9.0, 7.0 ) 0.1, 0.1, 0.1, 0.1, 0.1, 0.1, 0.1, 0.1, 0.1, 0.1;
    ( 1.0, 0, 9.0, 8.0 ) 0.1, 0.1, 0.1, 0.1, 0.1, 0.1, 0.1, 0.1, 0.1, 0.1;
    ( 1.0, 0, 9.0, 9.0 ) 0.1, 0.1, 0.1, 0.1, 0.1, 0.1, 0.1, 0.1, 0.1, 0.1;
    ( 1.0, 1, 0.0, 0.0 ) 0.1, 0.1, 0.1, 0.1, 0.1, 0.1, 0.1, 0.1, 0.1, 0.1;
    ( 1.0, 1, 0.0, 1.0 ) 0.1, 0.1, 0.1, 0.1, 0.1, 0.1, 0.1, 0.1, 0.1, 0.1;
    ( 1.0, 1, 0.0, 2.0 ) 0.1, 0.1, 0.1, 0.1, 0.1, 0.1, 0.1, 0.1, 0.1, 0.1;
    ( 1.0, 1, 0.0, 3.0 ) 0.1, 0.1, 0.1, 0.1, 0.1, 0.1, 0.1, 0.1, 0.1, 0.1;
    ( 1.0, 1, 0.0, 4.0 ) 0.1, 0.1, 0.1, 0.1, 0.1, 0.1, 0.1, 0.1, 0.1, 0.1;
    ( 1.0, 1, 0.0, 5.0 ) 0.1, 0.1, 0.1, 0.1, 0.1, 0.1, 0.1, 0.1, 0.1, 0.1;
    ( 1.0, 1, 0.0, 6.0 ) 0.1, 0.1, 0.1, 0.1, 0.1, 0.1, 0.1, 0.1, 0.1, 0.1;
    ( 1.0, 1, 0.0, 7.0 ) 0.1, 0.1, 0.1, 0.1, 0.1, 0.1, 0.1, 0.1, 0.1, 0.1;
    ( 1.0, 1, 0.0, 8.0 ) 0.1, 0.1, 0.1, 0.1, 0.1, 0.1, 0.1, 0.1, 0.1, 0.1;
    ( 1.0, 1, 0.0, 9.0 ) 0.1, 0.1, 0.1, 0.1, 0.1, 0.1, 0.1, 0.1, 0.1, 0.1;
    ( 1.0, 1, 1.0, 0.0 ) 0.1, 0.1, 0.1, 0.1, 0.1, 0.1, 0.1, 0.1, 0.1, 0.1;
    ( 1.0, 1, 1.0, 1.0 ) 0.1, 0.1, 0.1, 0.1, 0.1, 0.1, 0.1, 0.1, 0.1, 0.1;
    ( 1.0, 1, 1.0, 2.0 ) 0.1, 0.1, 0.1, 0.1, 0.1, 0.1, 0.1, 0.1, 0.1, 0.1;
    ( 1.0, 1, 1.0, 3.0 ) 0.1, 0.1, 0.1, 0.1, 0.1, 0.1, 0.1, 0.1, 0.1, 0.1;
    ( 1.0, 1, 1.0, 4.0 ) 0.1, 0.1, 0.1, 0.1, 0.1, 0.1, 0.1, 0.1, 0.1, 0.1;
    ( 1.0, 1, 1.0, 5.0 ) 0.1, 0.1, 0.1, 0.1, 0.1, 0.1, 0.1, 0.1, 0.1, 0.1;
    ( 1.0, 1, 1.0, 6.0 ) 0.1, 0.1, 0.1, 0.1, 0.1, 0.1, 0.1, 0.1, 0.1, 0.1;
    ( 1.0, 1, 1.0, 7.0 ) 0.1, 0.1, 0.1, 0.1, 0.1, 0.1, 0.1, 0.1, 0.1, 0.1;
    ( 1.0, 1, 1.0, 8.0 ) 0.1, 0.1, 0.1, 0.1, 0.1, 0.1, 0.1, 0.1, 0.1, 0.1;
    ( 1.0, 1, 1.0, 9.0 ) 0.1, 0.1, 0.1, 0.1, 0.1, 0.1, 0.1, 0.1, 0.1, 0.1;
    ( 1.0, 1, 2.0, 0.0 ) 0.1, 0.1, 0.1, 0.1, 0.1, 0.1, 0.1, 0.1, 0.1, 0.1;
    ( 1.0, 1, 2.0, 1.0 ) 0.1, 0.1, 0.1, 0.1, 0.1, 0.1, 0.1, 0.1, 0.1, 0.1;
    ( 1.0, 1, 2.0, 2.0 ) 0.1, 0.1, 0.1, 0.1, 0.1, 0.1, 0.1, 0.1, 0.1, 0.1;
    ( 1.0, 1, 2.0, 3.0 ) 0.1, 0.1, 0.1, 0.1, 0.1, 0.1, 0.1, 0.1, 0.1, 0.1;
    ( 1.0, 1, 2.0, 4.0 ) 0.1, 0.1, 0.1, 0.1, 0.1, 0.1, 0.1, 0.1, 0.1, 0.1;
    ( 1.0, 1, 2.0, 5.0 ) 0.1, 0.1, 0.1, 0.1, 0.1, 0.1, 0.1, 0.1, 0.1, 0.1;
    ( 1.0, 1, 2.0, 6.0 ) 0.1, 0.1, 0.1, 0.1, 0.1, 0.1, 0.1, 0.1, 0.1, 0.1;
    ( 1.0, 1, 2.0, 7.0 ) 0.1, 0.1, 0.1, 0.1, 0.1, 0.1, 0.1, 0.1, 0.1, 0.1;
    ( 1.0, 1, 2.0, 8.0 ) 0.1, 0.1, 0.1, 0.1, 0.1, 0.1, 0.1, 0.1, 0.1, 0.1;
    ( 1.0, 1, 2.0, 9.0 ) 0.1, 0.1, 0.1, 0.1, 0.1, 0.1, 0.1, 0.1, 0.1, 0.1;
    ( 1.0, 1, 3.0, 0.0 ) 0.1, 0.1, 0.1, 0.1, 0.1, 0.1, 0.1, 0.1, 0.1, 0.1;
    ( 1.0, 1, 3.0, 1.0 ) 0.1, 0.1, 0.1, 0.1, 0.1, 0.1, 0.1, 0.1, 0.1, 0.1;
    ( 1.0, 1, 3.0, 2.0 ) 0.1, 0.1, 0.1, 0.1, 0.1, 0.1, 0.1, 0.1, 0.1, 0.1;
    ( 1.0, 1, 3.0, 3.0 ) 0.1, 0.1, 0.1, 0.1, 0.1, 0.1, 0.1, 0.1, 0.1, 0.1;
    ( 1.0, 1, 3.0, 4.0 ) 0.1, 0.1, 0.1, 0.1, 0.1, 0.1, 0.1, 0.1, 0.1, 0.1;
    ( 1.0, 1, 3.0, 5.0 ) 0.1, 0.1, 0.1, 0.1, 0.1, 0.1, 0.1, 0.1, 0.1, 0.1;
    ( 1.0, 1, 3.0, 6.0 ) 0.1, 0.1, 0.1, 0.1, 0.1, 0.1, 0.1, 0.1, 0.1, 0.1;
    ( 1.0, 1, 3.0, 7.0 ) 0.1, 0.1, 0.1, 0.1, 0.1, 0.1, 0.1, 0.1, 0.1, 0.1;
    ( 1.0, 1, 3.0, 8.0 ) 0.0, 0.0, 1.0, 0.0, 0.0, 0.0, 0.0, 0.0, 0.0, 0.0;
    ( 1.0, 1, 3.0, 9.0 ) 0.1, 0.1, 0.1, 0.1, 0.1, 0.1, 0.1, 0.1, 0.1, 0.1;
    ( 1.0, 1, 4.0, 0.0 ) 0.1, 0.1, 0.1, 0.1, 0.1, 0.1, 0.1, 0.1, 0.1, 0.1;
    ( 1.0, 1, 4.0, 1.0 ) 0.1, 0.1, 0.1, 0.1, 0.1, 0.1, 0.1, 0.1, 0.1, 0.1;
    ( 1.0, 1, 4.0, 2.0 ) 0.1, 0.1, 0.1, 0.1, 0.1, 0.1, 0.1, 0.1, 0.1, 0.1;
    ( 1.0, 1, 4.0, 3.0 ) 0.1, 0.1, 0.1, 0.1, 0.1, 0.1, 0.1, 0.1, 0.1, 0.1;
    ( 1.0, 1, 4.0, 4.0 ) 0.1, 0.1, 0.1, 0.1, 0.1, 0.1, 0.1, 0.1, 0.1, 0.1;
    ( 1.0, 1, 4.0, 5.0 ) 0.1, 0.1, 0.1, 0.1, 0.1, 0.1, 0.1, 0.1, 0.1, 0.1;
    ( 1.0, 1, 4.0, 6.0 ) 0.1, 0.1, 0.1, 0.1, 0.1, 0.1, 0.1, 0.1, 0.1, 0.1;
    ( 1.0, 1, 4.0, 7.0 ) 0.0, 1.0, 0.0, 0.0, 0.0, 0.0, 0.0, 0.0, 0.0, 0.0;
    ( 1.0, 1, 4.0, 8.0 ) 0.0, 0.0, 0.8461538461538461, 0.0944055944055944, 0.05944055944055944, 0.0, 0.0, 0.0, 0.0, 0.0;
    ( 1.0, 1, 4.0, 9.0 ) 0.1, 0.1, 0.1, 0.1, 0.1, 0.1, 0.1, 0.1, 0.1, 0.1;
    ( 1.0, 1, 5.0, 0.0 ) 0.1, 0.1, 0.1, 0.1, 0.1, 0.1, 0.1, 0.1, 0.1, 0.1;
    ( 1.0, 1, 5.0, 1.0 ) 0.1, 0.1, 0.1, 0.1, 0.1, 0.1, 0.1, 0.1, 0.1, 0.1;
    ( 1.0, 1, 5.0, 2.0 ) 0.1, 0.1, 0.1, 0.1, 0.1, 0.1, 0.1, 0.1, 0.1, 0.1;
    ( 1.0, 1, 5.0, 3.0 ) 0.1, 0.1, 0.1, 0.1, 0.1, 0.1, 0.1, 0.1, 0.1, 0.1;
    ( 1.0, 1, 5.0, 4.0 ) 0.1, 0.1, 0.1, 0.1, 0.1, 0.1, 0.1, 0.1, 0.1, 0.1;
    ( 1.0, 1, 5.0, 5.0 ) 0.1, 0.1, 0.1, 0.1, 0.1, 0.1, 0.1, 0.1, 0.1, 0.1;
    ( 1.0, 1, 5.0, 6.0 ) 0.1, 0.1, 0.1, 0.1, 0.1, 0.1, 0.1, 0.1, 0.1, 0.1;
    ( 1.0, 1, 5.0, 7.0 ) 0.0, 1.0, 0.0, 0.0, 0.0, 0.0, 0.0, 0.0, 0.0, 0.0;
    ( 1.0, 1, 5.0, 8.0 ) 0.0, 0.0, 0.24468085106382978, 0.0, 0.06382978723404255, 0.6914893617021277, 0.0, 0.0, 0.0, 0.0;
    ( 1.0, 1, 5.0, 9.0 ) 0.1, 0.1, 0.1, 0.1, 0.1, 0.1, 0.1, 0.1, 0.1, 0.1;
    ( 1.0, 1, 6.0, 0.0 ) 0.1, 0.1, 0.1, 0.1, 0.1, 0.1, 0.1, 0.1, 0.1, 0.1;
    ( 1.0, 1, 6.0, 1.0 ) 0.1, 0.1, 0.1, 0.1, 0.1, 0.1, 0.1, 0.1, 0.1, 0.1;
    ( 1.0, 1, 6.0, 2.0 ) 0.0, 0.0, 0.09236947791164658, 0.3493975903614458, 0.12048192771084337, 0.08032128514056225, 0.14457831325301204, 0.05220883534136546, 0.0642570281124498, 0.0963855421686747;
    ( 1.0, 1, 6.0, 3.0 ) 0.0, 0.011904761904761904, 0.023809523809523808, 0.07142857142857142, 0.03968253968253968, 0.0873015873015873, 0.21031746031746032, 0.2222222222222222, 0.32142857142857145, 0.011904761904761904;
    ( 1.0, 1, 6.0, 4.0 ) 0.0, 0.05555555555555555, 0.0, 0.0, 0.6666666666666666, 0.2777777777777778, 0.0, 0.0, 0.0, 0.0;
    ( 1.0, 1, 6.0, 5.0 ) 0.0, 0.0, 0.0, 0.0, 0.0, 0.0, 0.0, 0.0, 0.0, 1.0;
    ( 1.0, 1, 6.0, 6.0 ) 0.0, 0.00881057268722467, 0.055800293685756244, 0.2922173274596182, 0.5477239353891337, 0.005873715124816446, 0.020558002936857563, 0.032305433186490456, 0.03671071953010279, 0.0;
    ( 1.0, 1, 6.0, 7.0 ) 0.0, 0.0, 0.39114391143911437, 0.13284132841328414, 0.36162361623616235, 0.11439114391143912, 0.0, 0.0, 0.0, 0.0;
    ( 1.0, 1, 6.0, 8.0 ) 0.0, 0.0, 0.0802675585284281, 0.05351170568561873, 0.0802675585284281, 0.7859531772575251, 0.0, 0.0, 0.0, 0.0;
    ( 1.0, 1, 6.0, 9.0 ) 0.1, 0.1, 0.1, 0.1, 0.1, 0.1, 0.1, 0.1, 0.1, 0.1;
    ( 1.0, 1, 7.0, 0.0 ) 0.1, 0.1, 0.1, 0.1, 0.1, 0.1, 0.1, 0.1, 0.1, 0.1;
    ( 1.0, 1, 7.0, 1.0 ) 0.1, 0.1, 0.1, 0.1, 0.1, 0.1, 0.1, 0.1, 0.1, 0.1;
    ( 1.0, 1, 7.0, 2.0 ) 0.0, 0.0, 0.0, 0.1, 0.03333333333333333, 0.03333333333333333, 0.3333333333333333, 0.16666666666666666, 0.3333333333333333, 0.0;
    ( 1.0, 1, 7.0, 3.0 ) 0.0, 0.0, 0.30952380952380953, 0.38095238095238093, 0.12380952380952381, 0.09523809523809523, 0.009523809523809525, 0.0, 0.04285714285714286, 0.0380952380952381;
    ( 1.0, 1, 7.0, 4.0 ) 0.0, 0.0, 0.0049261083743842365, 0.029556650246305417, 0.2561576354679803, 0.17733990147783252, 0.07881773399014778, 0.1724137931034483, 0.10837438423645321, 0.1724137931034483;
    ( 1.0, 1, 7.0, 5.0 ) 0.0, 0.03333333333333333, 0.02727272727272727, 0.3, 0.21212121212121213, 0.11212121212121212, 0.07272727272727272, 0.024242424242424242, 0.030303030303030304, 0.18787878787878787;
    ( 1.0, 1, 7.0, 6.0 ) 0.02335456475583864, 0.027600849256900213, 0.15074309978768577, 0.09978768577494693, 0.3248407643312102, 0.16666666666666666, 0.0732484076433121, 0.10721868365180467, 0.0074309978768577496, 0.01910828025477707;
    ( 1.0, 1, 7.0, 7.0 ) 0.0, 0.0, 0.14224137931034483, 0.08620689655172414, 0.08620689655172414, 0.6637931034482759, 0.0, 0.004310344827586207, 0.017241379310344827, 0.0;
    ( 1.0, 1, 7.0, 8.0 ) 0.1, 0.1, 0.1, 0.1, 0.1, 0.1, 0.1, 0.1, 0.1, 0.1;
    ( 1.0, 1, 7.0, 9.0 ) 0.1, 0.1, 0.1, 0.1, 0.1, 0.1, 0.1, 0.1, 0.1, 0.1;
    ( 1.0, 1, 8.0, 0.0 ) 0.1, 0.1, 0.1, 0.1, 0.1, 0.1, 0.1, 0.1, 0.1, 0.1;
    ( 1.0, 1, 8.0, 1.0 ) 0.1, 0.1, 0.1, 0.1, 0.1, 0.1, 0.1, 0.1, 0.1, 0.1;
    ( 1.0, 1, 8.0, 2.0 ) 0.1, 0.1, 0.1, 0.1, 0.1, 0.1, 0.1, 0.1, 0.1, 0.1;
    ( 1.0, 1, 8.0, 3.0 ) 0.0, 0.0, 0.08609271523178808, 0.3443708609271523, 0.3841059602649007, 0.12582781456953643, 0.006622516556291391, 0.0, 0.033112582781456956, 0.019867549668874173;
    ( 1.0, 1, 8.0, 4.0 ) 0.0, 0.0, 0.02631578947368421, 0.2894736842105263, 0.2868421052631579, 0.08157894736842106, 0.039473684210526314, 0.08421052631578947, 0.12631578947368421, 0.06578947368421052;
    ( 1.0, 1, 8.0, 5.0 ) 0.0, 0.0, 0.20266120777891505, 0.4155578300921187, 0.17707267144319344, 0.07164790174002048, 0.05424769703172978, 0.06038894575230297, 0.014329580348004094, 0.0040941658137154556;
    ( 1.0, 1, 8.0, 6.0 ) 0.0, 0.0, 0.007285974499089253, 0.2677595628415301, 0.14025500910746813, 0.04371584699453552, 0.12568306010928962, 0.13296903460837886, 0.11657559198542805, 0.1657559198542805;
    ( 1.0, 1, 8.0, 7.0 ) 0.0, 0.0, 0.0, 0.0, 0.0, 0.0, 0.0, 0.0, 1.0, 0.0;
    ( 1.0, 1, 8.0, 8.0 ) 0.1, 0.1, 0.1, 0.1, 0.1, 0.1, 0.1, 0.1, 0.1, 0.1;
    ( 1.0, 1, 8.0, 9.0 ) 0.1, 0.1, 0.1, 0.1, 0.1, 0.1, 0.1, 0.1, 0.1, 0.1;
    ( 1.0, 1, 9.0, 0.0 ) 0.1, 0.1, 0.1, 0.1, 0.1, 0.1, 0.1, 0.1, 0.1, 0.1;
    ( 1.0, 1, 9.0, 1.0 ) 0.1, 0.1, 0.1, 0.1, 0.1, 0.1, 0.1, 0.1, 0.1, 0.1;
    ( 1.0, 1, 9.0, 2.0 ) 0.1, 0.1, 0.1, 0.1, 0.1, 0.1, 0.1, 0.1, 0.1, 0.1;
    ( 1.0, 1, 9.0, 3.0 ) 0.0, 0.0, 0.0, 0.0, 0.0, 0.0, 0.0, 0.0, 1.0, 0.0;
    ( 1.0, 1, 9.0, 4.0 ) 0.0, 0.0, 0.06043956043956044, 0.11538461538461539, 0.06593406593406594, 0.06593406593406594, 0.12637362637362637, 0.3626373626373626, 0.16483516483516483, 0.038461538461538464;
    ( 1.0, 1, 9.0, 5.0 ) 0.0, 0.0, 0.0, 0.0, 0.0, 0.31007751937984496, 0.06976744186046512, 0.5503875968992248, 0.06976744186046512, 0.0;
    ( 1.0, 1, 9.0, 6.0 ) 0.1, 0.1, 0.1, 0.1, 0.1, 0.1, 0.1, 0.1, 0.1, 0.1;
    ( 1.0, 1, 9.0, 7.0 ) 0.1, 0.1, 0.1, 0.1, 0.1, 0.1, 0.1, 0.1, 0.1, 0.1;
    ( 1.0, 1, 9.0, 8.0 ) 0.1, 0.1, 0.1, 0.1, 0.1, 0.1, 0.1, 0.1, 0.1, 0.1;
    ( 1.0, 1, 9.0, 9.0 ) 0.1, 0.1, 0.1, 0.1, 0.1, 0.1, 0.1, 0.1, 0.1, 0.1;
    ( 2.0, 0, 0.0, 0.0 ) 0.0, 0.0, 0.0, 0.0, 0.0, 0.0, 0.0, 1.0, 0.0, 0.0;
    ( 2.0, 0, 0.0, 1.0 ) 0.1, 0.1, 0.1, 0.1, 0.1, 0.1, 0.1, 0.1, 0.1, 0.1;
    ( 2.0, 0, 0.0, 2.0 ) 0.1, 0.1, 0.1, 0.1, 0.1, 0.1, 0.1, 0.1, 0.1, 0.1;
    ( 2.0, 0, 0.0, 3.0 ) 0.1, 0.1, 0.1, 0.1, 0.1, 0.1, 0.1, 0.1, 0.1, 0.1;
    ( 2.0, 0, 0.0, 4.0 ) 0.1, 0.1, 0.1, 0.1, 0.1, 0.1, 0.1, 0.1, 0.1, 0.1;
    ( 2.0, 0, 0.0, 5.0 ) 0.1, 0.1, 0.1, 0.1, 0.1, 0.1, 0.1, 0.1, 0.1, 0.1;
    ( 2.0, 0, 0.0, 6.0 ) 0.1, 0.1, 0.1, 0.1, 0.1, 0.1, 0.1, 0.1, 0.1, 0.1;
    ( 2.0, 0, 0.0, 7.0 ) 0.1, 0.1, 0.1, 0.1, 0.1, 0.1, 0.1, 0.1, 0.1, 0.1;
    ( 2.0, 0, 0.0, 8.0 ) 0.1, 0.1, 0.1, 0.1, 0.1, 0.1, 0.1, 0.1, 0.1, 0.1;
    ( 2.0, 0, 0.0, 9.0 ) 0.1, 0.1, 0.1, 0.1, 0.1, 0.1, 0.1, 0.1, 0.1, 0.1;
    ( 2.0, 0, 1.0, 0.0 ) 0.0, 0.0, 0.0, 0.0, 0.0, 0.0, 0.0, 1.0, 0.0, 0.0;
    ( 2.0, 0, 1.0, 1.0 ) 0.1, 0.1, 0.1, 0.1, 0.1, 0.1, 0.1, 0.1, 0.1, 0.1;
    ( 2.0, 0, 1.0, 2.0 ) 0.1, 0.1, 0.1, 0.1, 0.1, 0.1, 0.1, 0.1, 0.1, 0.1;
    ( 2.0, 0, 1.0, 3.0 ) 0.1, 0.1, 0.1, 0.1, 0.1, 0.1, 0.1, 0.1, 0.1, 0.1;
    ( 2.0, 0, 1.0, 4.0 ) 0.1, 0.1, 0.1, 0.1, 0.1, 0.1, 0.1, 0.1, 0.1, 0.1;
    ( 2.0, 0, 1.0, 5.0 ) 0.1, 0.1, 0.1, 0.1, 0.1, 0.1, 0.1, 0.1, 0.1, 0.1;
    ( 2.0, 0, 1.0, 6.0 ) 0.1, 0.1, 0.1, 0.1, 0.1, 0.1, 0.1, 0.1, 0.1, 0.1;
    ( 2.0, 0, 1.0, 7.0 ) 0.1, 0.1, 0.1, 0.1, 0.1, 0.1, 0.1, 0.1, 0.1, 0.1;
    ( 2.0, 0, 1.0, 8.0 ) 0.1, 0.1, 0.1, 0.1, 0.1, 0.1, 0.1, 0.1, 0.1, 0.1;
    ( 2.0, 0, 1.0, 9.0 ) 0.1, 0.1, 0.1, 0.1, 0.1, 0.1, 0.1, 0.1, 0.1, 0.1;
    ( 2.0, 0, 2.0, 0.0 ) 0.1, 0.1, 0.1, 0.1, 0.1, 0.1, 0.1, 0.1, 0.1, 0.1;
    ( 2.0, 0, 2.0, 1.0 ) 0.1, 0.1, 0.1, 0.1, 0.1, 0.1, 0.1, 0.1, 0.1, 0.1;
    ( 2.0, 0, 2.0, 2.0 ) 0.1, 0.1, 0.1, 0.1, 0.1, 0.1, 0.1, 0.1, 0.1, 0.1;
    ( 2.0, 0, 2.0, 3.0 ) 0.1, 0.1, 0.1, 0.1, 0.1, 0.1, 0.1, 0.1, 0.1, 0.1;
    ( 2.0, 0, 2.0, 4.0 ) 0.1, 0.1, 0.1, 0.1, 0.1, 0.1, 0.1, 0.1, 0.1, 0.1;
    ( 2.0, 0, 2.0, 5.0 ) 0.1, 0.1, 0.1, 0.1, 0.1, 0.1, 0.1, 0.1, 0.1, 0.1;
    ( 2.0, 0, 2.0, 6.0 ) 0.1, 0.1, 0.1, 0.1, 0.1, 0.1, 0.1, 0.1, 0.1, 0.1;
    ( 2.0, 0, 2.0, 7.0 ) 0.1, 0.1, 0.1, 0.1, 0.1, 0.1, 0.1, 0.1, 0.1, 0.1;
    ( 2.0, 0, 2.0, 8.0 ) 0.1, 0.1, 0.1, 0.1, 0.1, 0.1, 0.1, 0.1, 0.1, 0.1;
    ( 2.0, 0, 2.0, 9.0 ) 0.1, 0.1, 0.1, 0.1, 0.1, 0.1, 0.1, 0.1, 0.1, 0.1;
    ( 2.0, 0, 3.0, 0.0 ) 0.0, 0.3333333333333333, 0.3333333333333333, 0.0, 0.0, 0.0, 0.0, 0.3333333333333333, 0.0, 0.0;
    ( 2.0, 0, 3.0, 1.0 ) 0.0, 0.0, 0.25, 0.25, 0.0, 0.0, 0.0, 0.5, 0.0, 0.0;
    ( 2.0, 0, 3.0, 2.0 ) 0.1, 0.1, 0.1, 0.1, 0.1, 0.1, 0.1, 0.1, 0.1, 0.1;
    ( 2.0, 0, 3.0, 3.0 ) 0.1, 0.1, 0.1, 0.1, 0.1, 0.1, 0.1, 0.1, 0.1, 0.1;
    ( 2.0, 0, 3.0, 4.0 ) 0.1, 0.1, 0.1, 0.1, 0.1, 0.1, 0.1, 0.1, 0.1, 0.1;
    ( 2.0, 0, 3.0, 5.0 ) 0.1, 0.1, 0.1, 0.1, 0.1, 0.1, 0.1, 0.1, 0.1, 0.1;
    ( 2.0, 0, 3.0, 6.0 ) 0.1, 0.1, 0.1, 0.1, 0.1, 0.1, 0.1, 0.1, 0.1, 0.1;
    ( 2.0, 0, 3.0, 7.0 ) 0.1, 0.1, 0.1, 0.1, 0.1, 0.1, 0.1, 0.1, 0.1, 0.1;
    ( 2.0, 0, 3.0, 8.0 ) 0.1, 0.1, 0.1, 0.1, 0.1, 0.1, 0.1, 0.1, 0.1, 0.1;
    ( 2.0, 0, 3.0, 9.0 ) 0.1, 0.1, 0.1, 0.1, 0.1, 0.1, 0.1, 0.1, 0.1, 0.1;
    ( 2.0, 0, 4.0, 0.0 ) 0.1, 0.1, 0.1, 0.1, 0.1, 0.1, 0.1, 0.1, 0.1, 0.1;
    ( 2.0, 0, 4.0, 1.0 ) 0.1, 0.1, 0.1, 0.1, 0.1, 0.1, 0.1, 0.1, 0.1, 0.1;
    ( 2.0, 0, 4.0, 2.0 ) 0.1, 0.1, 0.1, 0.1, 0.1, 0.1, 0.1, 0.1, 0.1, 0.1;
    ( 2.0, 0, 4.0, 3.0 ) 0.1, 0.1, 0.1, 0.1, 0.1, 0.1, 0.1, 0.1, 0.1, 0.1;
    ( 2.0, 0, 4.0, 4.0 ) 0.1, 0.1, 0.1, 0.1, 0.1, 0.1, 0.1, 0.1, 0.1, 0.1;
    ( 2.0, 0, 4.0, 5.0 ) 0.1, 0.1, 0.1, 0.1, 0.1, 0.1, 0.1, 0.1, 0.1, 0.1;
    ( 2.0, 0, 4.0, 6.0 ) 0.1, 0.1, 0.1, 0.1, 0.1, 0.1, 0.1, 0.1, 0.1, 0.1;
    ( 2.0, 0, 4.0, 7.0 ) 0.1, 0.1, 0.1, 0.1, 0.1, 0.1, 0.1, 0.1, 0.1, 0.1;
    ( 2.0, 0, 4.0, 8.0 ) 0.1, 0.1, 0.1, 0.1, 0.1, 0.1, 0.1, 0.1, 0.1, 0.1;
    ( 2.0, 0, 4.0, 9.0 ) 0.1, 0.1, 0.1, 0.1, 0.1, 0.1, 0.1, 0.1, 0.1, 0.1;
    ( 2.0, 0, 5.0, 0.0 ) 0.1, 0.1, 0.1, 0.1, 0.1, 0.1, 0.1, 0.1, 0.1, 0.1;
    ( 2.0, 0, 5.0, 1.0 ) 0.0, 0.0, 0.2222222222222222, 0.0, 0.0, 0.1111111111111111, 0.1111111111111111, 0.1111111111111111, 0.2222222222222222, 0.2222222222222222;
    ( 2.0, 0, 5.0, 2.0 ) 0.0, 0.0, 0.0, 0.0, 0.0, 0.0, 0.0, 0.5, 0.5, 0.0;
    ( 2.0, 0, 5.0, 3.0 ) 0.1, 0.1, 0.1, 0.1, 0.1, 0.1, 0.1, 0.1, 0.1, 0.1;
    ( 2.0, 0, 5.0, 4.0 ) 0.1, 0.1, 0.1, 0.1, 0.1, 0.1, 0.1, 0.1, 0.1, 0.1;
    ( 2.0, 0, 5.0, 5.0 ) 0.1, 0.1, 0.1, 0.1, 0.1, 0.1, 0.1, 0.1, 0.1, 0.1;
    ( 2.0, 0, 5.0, 6.0 ) 0.1, 0.1, 0.1, 0.1, 0.1, 0.1, 0.1, 0.1, 0.1, 0.1;
    ( 2.0, 0, 5.0, 7.0 ) 0.1, 0.1, 0.1, 0.1, 0.1, 0.1, 0.1, 0.1, 0.1, 0.1;
    ( 2.0, 0, 5.0, 8.0 ) 0.1, 0.1, 0.1, 0.1, 0.1, 0.1, 0.1, 0.1, 0.1, 0.1;
    ( 2.0, 0, 5.0, 9.0 ) 0.1, 0.1, 0.1, 0.1, 0.1, 0.1, 0.1, 0.1, 0.1, 0.1;
    ( 2.0, 0, 6.0, 0.0 ) 0.1, 0.1, 0.1, 0.1, 0.1, 0.1, 0.1, 0.1, 0.1, 0.1;
    ( 2.0, 0, 6.0, 1.0 ) 0.0, 0.0, 0.07142857142857142, 0.2857142857142857, 0.07142857142857142, 0.0, 0.0, 0.21428571428571427, 0.21428571428571427, 0.14285714285714285;
    ( 2.0, 0, 6.0, 2.0 ) 0.0, 0.037037037037037035, 0.24074074074074073, 0.18518518518518517, 0.05555555555555555, 0.0, 0.16666666666666666, 0.07407407407407407, 0.2037037037037037, 0.037037037037037035;
    ( 2.0, 0, 6.0, 3.0 ) 0.09090909090909091, 0.0, 0.2727272727272727, 0.18181818181818182, 0.0, 0.0, 0.0, 0.2727272727272727, 0.09090909090909091, 0.09090909090909091;
    ( 2.0, 0, 6.0, 4.0 ) 1.0, 0.0, 0.0, 0.0, 0.0, 0.0, 0.0, 0.0, 0.0, 0.0;
    ( 2.0, 0, 6.0, 5.0 ) 0.1, 0.1, 0.1, 0.1, 0.1, 0.1, 0.1, 0.1, 0.1, 0.1;
    ( 2.0, 0, 6.0, 6.0 ) 0.1, 0.1, 0.1, 0.1, 0.1, 0.1, 0.1, 0.1, 0.1, 0.1;
    ( 2.0, 0, 6.0, 7.0 ) 0.1, 0.1, 0.1, 0.1, 0.1, 0.1, 0.1, 0.1, 0.1, 0.1;
    ( 2.0, 0, 6.0, 8.0 ) 0.1, 0.1, 0.1, 0.1, 0.1, 0.1, 0.1, 0.1, 0.1, 0.1;
    ( 2.0, 0, 6.0, 9.0 ) 0.1, 0.1, 0.1, 0.1, 0.1, 0.1, 0.1, 0.1, 0.1, 0.1;
    ( 2.0, 0, 7.0, 0.0 ) 0.1, 0.1, 0.1, 0.1, 0.1, 0.1, 0.1, 0.1, 0.1, 0.1;
    ( 2.0, 0, 7.0, 1.0 ) 0.1, 0.1, 0.1, 0.1, 0.1, 0.1, 0.1, 0.1, 0.1, 0.1;
    ( 2.0, 0, 7.0, 2.0 ) 0.012987012987012988, 0.03896103896103896, 0.12987012987012986, 0.18181818181818182, 0.11688311688311688, 0.03896103896103896, 0.09090909090909091, 0.1038961038961039, 0.19480519480519481, 0.09090909090909091;
    ( 2.0, 0, 7.0, 3.0 ) 0.03418803418803419, 0.06837606837606838, 0.09401709401709402, 0.23076923076923078, 0.13675213675213677, 0.017094017094017096, 0.07692307692307693, 0.15384615384615385, 0.13675213675213677, 0.05128205128205128;
    ( 2.0, 0, 7.0, 4.0 ) 0.044444444444444446, 0.06666666666666667, 0.2, 0.17777777777777778, 0.1111111111111111, 0.0, 0.044444444444444446, 0.044444444444444446, 0.15555555555555556, 0.15555555555555556;
    ( 2.0, 0, 7.0, 5.0 ) 0.0, 0.0, 0.09090909090909091, 0.09090909090909091, 0.18181818181818182, 0.0, 0.09090909090909091, 0.18181818181818182, 0.18181818181818182, 0.18181818181818182;
    ( 2.0, 0, 7.0, 6.0 ) 0.0, 0.0, 0.0, 0.25, 0.25, 0.0, 0.25, 0.0, 0.25, 0.0;
    ( 2.0, 0, 7.0, 7.0 ) 0.1, 0.1, 0.1, 0.1, 0.1, 0.1, 0.1, 0.1, 0.1, 0.1;
    ( 2.0, 0, 7.0, 8.0 ) 0.1, 0.1, 0.1, 0.1, 0.1, 0.1, 0.1, 0.1, 0.1, 0.1;
    ( 2.0, 0, 7.0, 9.0 ) 0.1, 0.1, 0.1, 0.1, 0.1, 0.1, 0.1, 0.1, 0.1, 0.1;
    ( 2.0, 0, 8.0, 0.0 ) 0.1, 0.1, 0.1, 0.1, 0.1, 0.1, 0.1, 0.1, 0.1, 0.1;
    ( 2.0, 0, 8.0, 1.0 ) 0.1, 0.1, 0.1, 0.1, 0.1, 0.1, 0.1, 0.1, 0.1, 0.1;
    ( 2.0, 0, 8.0, 2.0 ) 0.027777777777777776, 0.12037037037037036, 0.23148148148148148, 0.2962962962962963, 0.21296296296296297, 0.0, 0.037037037037037035, 0.027777777777777776, 0.027777777777777776, 0.018518518518518517;
    ( 2.0, 0, 8.0, 3.0 ) 0.03783783783783784, 0.10270270270270271, 0.2918918918918919, 0.1891891891891892, 0.1837837837837838, 0.008108108108108109, 0.03513513513513514, 0.04864864864864865, 0.04864864864864865, 0.05405405405405406;
    ( 2.0, 0, 8.0, 4.0 ) 0.05263157894736842, 0.07894736842105263, 0.18421052631578946, 0.19298245614035087, 0.09649122807017543, 0.008771929824561403, 0.02631578947368421, 0.16666666666666666, 0.10526315789473684, 0.08771929824561403;
    ( 2.0, 0, 8.0, 5.0 ) 0.08108108108108109, 0.02702702702702703, 0.13513513513513514, 0.13513513513513514, 0.10810810810810811, 0.05405405405405406, 0.10810810810810811, 0.08108108108108109, 0.08108108108108109, 0.1891891891891892;
    ( 2.0, 0, 8.0, 6.0 ) 0.0, 0.0, 0.0, 0.0, 0.0, 0.0, 0.0, 0.5, 0.25, 0.25;
    ( 2.0, 0, 8.0, 7.0 ) 0.1, 0.1, 0.1, 0.1, 0.1, 0.1, 0.1, 0.1, 0.1, 0.1;
    ( 2.0, 0, 8.0, 8.0 ) 0.1, 0.1, 0.1, 0.1, 0.1, 0.1, 0.1, 0.1, 0.1, 0.1;
    ( 2.0, 0, 8.0, 9.0 ) 0.1, 0.1, 0.1, 0.1, 0.1, 0.1, 0.1, 0.1, 0.1, 0.1;
    ( 2.0, 0, 9.0, 0.0 ) 0.1, 0.1, 0.1, 0.1, 0.1, 0.1, 0.1, 0.1, 0.1, 0.1;
    ( 2.0, 0, 9.0, 1.0 ) 0.1, 0.1, 0.1, 0.1, 0.1, 0.1, 0.1, 0.1, 0.1, 0.1;
    ( 2.0, 0, 9.0, 2.0 ) 0.0, 0.010752688172043012, 0.021505376344086023, 0.03225806451612903, 0.043010752688172046, 0.021505376344086023, 0.16129032258064516, 0.25806451612903225, 0.21505376344086022, 0.23655913978494625;
    ( 2.0, 0, 9.0, 3.0 ) 0.010666666666666666, 0.048, 0.12, 0.07733333333333334, 0.064, 0.032, 0.08, 0.208, 0.2, 0.16;
    ( 2.0, 0, 9.0, 4.0 ) 0.0, 0.0, 0.0, 0.0, 0.0, 0.0, 1.0, 0.0, 0.0, 0.0;
    ( 2.0, 0, 9.0, 5.0 ) 0.1, 0.1, 0.1, 0.1, 0.1, 0.1, 0.1, 0.1, 0.1, 0.1;
    ( 2.0, 0, 9.0, 6.0 ) 0.1, 0.1, 0.1, 0.1, 0.1, 0.1, 0.1, 0.1, 0.1, 0.1;
    ( 2.0, 0, 9.0, 7.0 ) 0.1, 0.1, 0.1, 0.1, 0.1, 0.1, 0.1, 0.1, 0.1, 0.1;
    ( 2.0, 0, 9.0, 8.0 ) 0.1, 0.1, 0.1, 0.1, 0.1, 0.1, 0.1, 0.1, 0.1, 0.1;
    ( 2.0, 0, 9.0, 9.0 ) 0.1, 0.1, 0.1, 0.1, 0.1, 0.1, 0.1, 0.1, 0.1, 0.1;
    ( 2.0, 1, 0.0, 0.0 ) 0.1, 0.1, 0.1, 0.1, 0.1, 0.1, 0.1, 0.1, 0.1, 0.1;
    ( 2.0, 1, 0.0, 1.0 ) 0.1, 0.1, 0.1, 0.1, 0.1, 0.1, 0.1, 0.1, 0.1, 0.1;
    ( 2.0, 1, 0.0, 2.0 ) 0.1, 0.1, 0.1, 0.1, 0.1, 0.1, 0.1, 0.1, 0.1, 0.1;
    ( 2.0, 1, 0.0, 3.0 ) 0.1, 0.1, 0.1, 0.1, 0.1, 0.1, 0.1, 0.1, 0.1, 0.1;
    ( 2.0, 1, 0.0, 4.0 ) 0.1, 0.1, 0.1, 0.1, 0.1, 0.1, 0.1, 0.1, 0.1, 0.1;
    ( 2.0, 1, 0.0, 5.0 ) 0.1, 0.1, 0.1, 0.1, 0.1, 0.1, 0.1, 0.1, 0.1, 0.1;
    ( 2.0, 1, 0.0, 6.0 ) 0.1, 0.1, 0.1, 0.1, 0.1, 0.1, 0.1, 0.1, 0.1, 0.1;
    ( 2.0, 1, 0.0, 7.0 ) 0.1, 0.1, 0.1, 0.1, 0.1, 0.1, 0.1, 0.1, 0.1, 0.1;
    ( 2.0, 1, 0.0, 8.0 ) 0.1, 0.1, 0.1, 0.1, 0.1, 0.1, 0.1, 0.1, 0.1, 0.1;
    ( 2.0, 1, 0.0, 9.0 ) 0.1, 0.1, 0.1, 0.1, 0.1, 0.1, 0.1, 0.1, 0.1, 0.1;
    ( 2.0, 1, 1.0, 0.0 ) 0.1, 0.1, 0.1, 0.1, 0.1, 0.1, 0.1, 0.1, 0.1, 0.1;
    ( 2.0, 1, 1.0, 1.0 ) 0.1, 0.1, 0.1, 0.1, 0.1, 0.1, 0.1, 0.1, 0.1, 0.1;
    ( 2.0, 1, 1.0, 2.0 ) 0.1, 0.1, 0.1, 0.1, 0.1, 0.1, 0.1, 0.1, 0.1, 0.1;
    ( 2.0, 1, 1.0, 3.0 ) 0.1, 0.1, 0.1, 0.1, 0.1, 0.1, 0.1, 0.1, 0.1, 0.1;
    ( 2.0, 1, 1.0, 4.0 ) 0.1, 0.1, 0.1, 0.1, 0.1, 0.1, 0.1, 0.1, 0.1, 0.1;
    ( 2.0, 1, 1.0, 5.0 ) 0.1, 0.1, 0.1, 0.1, 0.1, 0.1, 0.1, 0.1, 0.1, 0.1;
    ( 2.0, 1, 1.0, 6.0 ) 0.1, 0.1, 0.1, 0.1, 0.1, 0.1, 0.1, 0.1, 0.1, 0.1;
    ( 2.0, 1, 1.0, 7.0 ) 0.1, 0.1, 0.1, 0.1, 0.1, 0.1, 0.1, 0.1, 0.1, 0.1;
    ( 2.0, 1, 1.0, 8.0 ) 0.1, 0.1, 0.1, 0.1, 0.1, 0.1, 0.1, 0.1, 0.1, 0.1;
    ( 2.0, 1, 1.0, 9.0 ) 0.1, 0.1, 0.1, 0.1, 0.1, 0.1, 0.1, 0.1, 0.1, 0.1;
    ( 2.0, 1, 2.0, 0.0 ) 0.1, 0.1, 0.1, 0.1, 0.1, 0.1, 0.1, 0.1, 0.1, 0.1;
    ( 2.0, 1, 2.0, 1.0 ) 0.1, 0.1, 0.1, 0.1, 0.1, 0.1, 0.1, 0.1, 0.1, 0.1;
    ( 2.0, 1, 2.0, 2.0 ) 0.1, 0.1, 0.1, 0.1, 0.1, 0.1, 0.1, 0.1, 0.1, 0.1;
    ( 2.0, 1, 2.0, 3.0 ) 0.1, 0.1, 0.1, 0.1, 0.1, 0.1, 0.1, 0.1, 0.1, 0.1;
    ( 2.0, 1, 2.0, 4.0 ) 0.1, 0.1, 0.1, 0.1, 0.1, 0.1, 0.1, 0.1, 0.1, 0.1;
    ( 2.0, 1, 2.0, 5.0 ) 0.1, 0.1, 0.1, 0.1, 0.1, 0.1, 0.1, 0.1, 0.1, 0.1;
    ( 2.0, 1, 2.0, 6.0 ) 0.1, 0.1, 0.1, 0.1, 0.1, 0.1, 0.1, 0.1, 0.1, 0.1;
    ( 2.0, 1, 2.0, 7.0 ) 0.1, 0.1, 0.1, 0.1, 0.1, 0.1, 0.1, 0.1, 0.1, 0.1;
    ( 2.0, 1, 2.0, 8.0 ) 0.1, 0.1, 0.1, 0.1, 0.1, 0.1, 0.1, 0.1, 0.1, 0.1;
    ( 2.0, 1, 2.0, 9.0 ) 0.1, 0.1, 0.1, 0.1, 0.1, 0.1, 0.1, 0.1, 0.1, 0.1;
    ( 2.0, 1, 3.0, 0.0 ) 0.1, 0.1, 0.1, 0.1, 0.1, 0.1, 0.1, 0.1, 0.1, 0.1;
    ( 2.0, 1, 3.0, 1.0 ) 0.1, 0.1, 0.1, 0.1, 0.1, 0.1, 0.1, 0.1, 0.1, 0.1;
    ( 2.0, 1, 3.0, 2.0 ) 0.1, 0.1, 0.1, 0.1, 0.1, 0.1, 0.1, 0.1, 0.1, 0.1;
    ( 2.0, 1, 3.0, 3.0 ) 0.1, 0.1, 0.1, 0.1, 0.1, 0.1, 0.1, 0.1, 0.1, 0.1;
    ( 2.0, 1, 3.0, 4.0 ) 0.1, 0.1, 0.1, 0.1, 0.1, 0.1, 0.1, 0.1, 0.1, 0.1;
    ( 2.0, 1, 3.0, 5.0 ) 0.1, 0.1, 0.1, 0.1, 0.1, 0.1, 0.1, 0.1, 0.1, 0.1;
    ( 2.0, 1, 3.0, 6.0 ) 0.1, 0.1, 0.1, 0.1, 0.1, 0.1, 0.1, 0.1, 0.1, 0.1;
    ( 2.0, 1, 3.0, 7.0 ) 0.1, 0.1, 0.1, 0.1, 0.1, 0.1, 0.1, 0.1, 0.1, 0.1;
    ( 2.0, 1, 3.0, 8.0 ) 0.1, 0.1, 0.1, 0.1, 0.1, 0.1, 0.1, 0.1, 0.1, 0.1;
    ( 2.0, 1, 3.0, 9.0 ) 0.1, 0.1, 0.1, 0.1, 0.1, 0.1, 0.1, 0.1, 0.1, 0.1;
    ( 2.0, 1, 4.0, 0.0 ) 0.1, 0.1, 0.1, 0.1, 0.1, 0.1, 0.1, 0.1, 0.1, 0.1;
    ( 2.0, 1, 4.0, 1.0 ) 0.1, 0.1, 0.1, 0.1, 0.1, 0.1, 0.1, 0.1, 0.1, 0.1;
    ( 2.0, 1, 4.0, 2.0 ) 0.1, 0.1, 0.1, 0.1, 0.1, 0.1, 0.1, 0.1, 0.1, 0.1;
    ( 2.0, 1, 4.0, 3.0 ) 0.1, 0.1, 0.1, 0.1, 0.1, 0.1, 0.1, 0.1, 0.1, 0.1;
    ( 2.0, 1, 4.0, 4.0 ) 0.1, 0.1, 0.1, 0.1, 0.1, 0.1, 0.1, 0.1, 0.1, 0.1;
    ( 2.0, 1, 4.0, 5.0 ) 0.1, 0.1, 0.1, 0.1, 0.1, 0.1, 0.1, 0.1, 0.1, 0.1;
    ( 2.0, 1, 4.0, 6.0 ) 0.1, 0.1, 0.1, 0.1, 0.1, 0.1, 0.1, 0.1, 0.1, 0.1;
    ( 2.0, 1, 4.0, 7.0 ) 0.1, 0.1, 0.1, 0.1, 0.1, 0.1, 0.1, 0.1, 0.1, 0.1;
    ( 2.0, 1, 4.0, 8.0 ) 0.1, 0.1, 0.1, 0.1, 0.1, 0.1, 0.1, 0.1, 0.1, 0.1;
    ( 2.0, 1, 4.0, 9.0 ) 0.1, 0.1, 0.1, 0.1, 0.1, 0.1, 0.1, 0.1, 0.1, 0.1;
    ( 2.0, 1, 5.0, 0.0 ) 0.1, 0.1, 0.1, 0.1, 0.1, 0.1, 0.1, 0.1, 0.1, 0.1;
    ( 2.0, 1, 5.0, 1.0 ) 0.1, 0.1, 0.1, 0.1, 0.1, 0.1, 0.1, 0.1, 0.1, 0.1;
    ( 2.0, 1, 5.0, 2.0 ) 0.1, 0.1, 0.1, 0.1, 0.1, 0.1, 0.1, 0.1, 0.1, 0.1;
    ( 2.0, 1, 5.0, 3.0 ) 0.1, 0.1, 0.1, 0.1, 0.1, 0.1, 0.1, 0.1, 0.1, 0.1;
    ( 2.0, 1, 5.0, 4.0 ) 0.1, 0.1, 0.1, 0.1, 0.1, 0.1, 0.1, 0.1, 0.1, 0.1;
    ( 2.0, 1, 5.0, 5.0 ) 0.1, 0.1, 0.1, 0.1, 0.1, 0.1, 0.1, 0.1, 0.1, 0.1;
    ( 2.0, 1, 5.0, 6.0 ) 0.1, 0.1, 0.1, 0.1, 0.1, 0.1, 0.1, 0.1, 0.1, 0.1;
    ( 2.0, 1, 5.0, 7.0 ) 0.1, 0.1, 0.1, 0.1, 0.1, 0.1, 0.1, 0.1, 0.1, 0.1;
    ( 2.0, 1, 5.0, 8.0 ) 0.0, 0.0, 1.0, 0.0, 0.0, 0.0, 0.0, 0.0, 0.0, 0.0;
    ( 2.0, 1, 5.0, 9.0 ) 0.1, 0.1, 0.1, 0.1, 0.1, 0.1, 0.1, 0.1, 0.1, 0.1;
    ( 2.0, 1, 6.0, 0.0 ) 0.1, 0.1, 0.1, 0.1, 0.1, 0.1, 0.1, 0.1, 0.1, 0.1;
    ( 2.0, 1, 6.0, 1.0 ) 0.1, 0.1, 0.1, 0.1, 0.1, 0.1, 0.1, 0.1, 0.1, 0.1;
    ( 2.0, 1, 6.0, 2.0 ) 0.0, 0.0, 0.0, 0.53, 0.14, 0.18, 0.07, 0.08, 0.0, 0.0;
    ( 2.0, 1, 6.0, 3.0 ) 0.0, 0.0, 0.0, 0.0, 0.0, 0.03076923076923077, 0.12307692307692308, 0.3384615384615385, 0.5076923076923077, 0.0;
    ( 2.0, 1, 6.0, 4.0 ) 0.1, 0.1, 0.1, 0.1, 0.1, 0.1, 0.1, 0.1, 0.1, 0.1;
    ( 2.0, 1, 6.0, 5.0 ) 0.1, 0.1, 0.1, 0.1, 0.1, 0.1, 0.1, 0.1, 0.1, 0.1;
    ( 2.0, 1, 6.0, 6.0 ) 0.1, 0.1, 0.1, 0.1, 0.1, 0.1, 0.1, 0.1, 0.1, 0.1;
    ( 2.0, 1, 6.0, 7.0 ) 0.1, 0.1, 0.1, 0.1, 0.1, 0.1, 0.1, 0.1, 0.1, 0.1;
    ( 2.0, 1, 6.0, 8.0 ) 0.0, 0.0, 0.3333333333333333, 0.6666666666666666, 0.0, 0.0, 0.0, 0.0, 0.0, 0.0;
    ( 2.0, 1, 6.0, 9.0 ) 0.1, 0.1, 0.1, 0.1, 0.1, 0.1, 0.1, 0.1, 0.1, 0.1;
    ( 2.0, 1, 7.0, 0.0 ) 0.1, 0.1, 0.1, 0.1, 0.1, 0.1, 0.1, 0.1, 0.1, 0.1;
    ( 2.0, 1, 7.0, 1.0 ) 0.1, 0.1, 0.1, 0.1, 0.1, 0.1, 0.1, 0.1, 0.1, 0.1;
    ( 2.0, 1, 7.0, 2.0 ) 0.875, 0.125, 0.0, 0.0, 0.0, 0.0, 0.0, 0.0, 0.0, 0.0;
    ( 2.0, 1, 7.0, 3.0 ) 0.05925925925925926, 0.22962962962962963, 0.1259259259259259, 0.022222222222222223, 0.0, 0.0, 0.0, 0.06666666666666667, 0.2518518518518518, 0.24444444444444444;
    ( 2.0, 1, 7.0, 4.0 ) 0.0, 0.0670995670995671, 0.20995670995670995, 0.27056277056277056, 0.15800865800865802, 0.0670995670995671, 0.08225108225108226, 0.05627705627705628, 0.08874458874458875, 0.0;
    ( 2.0, 1, 7.0, 5.0 ) 0.0, 0.0, 0.3125, 0.15460526315789475, 0.09210526315789473, 0.07236842105263158, 0.06578947368421052, 0.07236842105263158, 0.20723684210526316, 0.023026315789473683;
    ( 2.0, 1, 7.0, 6.0 ) 0.0, 0.0, 0.0, 0.19831223628691982, 0.25316455696202533, 0.1729957805907173, 0.11392405063291139, 0.11814345991561181, 0.14345991561181434, 0.0;
    ( 2.0, 1, 7.0, 7.0 ) 0.1, 0.1, 0.1, 0.1, 0.1, 0.1, 0.1, 0.1, 0.1, 0.1;
    ( 2.0, 1, 7.0, 8.0 ) 0.1, 0.1, 0.1, 0.1, 0.1, 0.1, 0.1, 0.1, 0.1, 0.1;
    ( 2.0, 1, 7.0, 9.0 ) 0.1, 0.1, 0.1, 0.1, 0.1, 0.1, 0.1, 0.1, 0.1, 0.1;
    ( 2.0, 1, 8.0, 0.0 ) 0.1, 0.1, 0.1, 0.1, 0.1, 0.1, 0.1, 0.1, 0.1, 0.1;
    ( 2.0, 1, 8.0, 1.0 ) 0.1, 0.1, 0.1, 0.1, 0.1, 0.1, 0.1, 0.1, 0.1, 0.1;
    ( 2.0, 1, 8.0, 2.0 ) 0.1, 0.1, 0.1, 0.1, 0.1, 0.1, 0.1, 0.1, 0.1, 0.1;
    ( 2.0, 1, 8.0, 3.0 ) 0.0, 0.0, 0.04986149584487535, 0.29362880886426596, 0.11080332409972299, 0.22714681440443213, 0.14681440443213298, 0.10526315789473684, 0.036011080332409975, 0.030470914127423823;
    ( 2.0, 1, 8.0, 4.0 ) 0.0, 0.0, 0.0, 0.08029197080291971, 0.41605839416058393, 0.30656934306569344, 0.16423357664233576, 0.032846715328467155, 0.0, 0.0;
    ( 2.0, 1, 8.0, 5.0 ) 0.0, 0.0, 0.025, 0.15, 0.1125, 0.2375, 0.14375, 0.33125, 0.0, 0.0;
    ( 2.0, 1, 8.0, 6.0 ) 0.0, 0.0, 0.0, 0.08108108108108109, 0.25675675675675674, 0.28378378378378377, 0.05405405405405406, 0.0, 0.20270270270270271, 0.12162162162162163;
    ( 2.0, 1, 8.0, 7.0 ) 0.1, 0.1, 0.1, 0.1, 0.1, 0.1, 0.1, 0.1, 0.1, 0.1;
    ( 2.0, 1, 8.0, 8.0 ) 0.1, 0.1, 0.1, 0.1, 0.1, 0.1, 0.1, 0.1, 0.1, 0.1;
    ( 2.0, 1, 8.0, 9.0 ) 0.1, 0.1, 0.1, 0.1, 0.1, 0.1, 0.1, 0.1, 0.1, 0.1;
    ( 2.0, 1, 9.0, 0.0 ) 0.1, 0.1, 0.1, 0.1, 0.1, 0.1, 0.1, 0.1, 0.1, 0.1;
    ( 2.0, 1, 9.0, 1.0 ) 0.1, 0.1, 0.1, 0.1, 0.1, 0.1, 0.1, 0.1, 0.1, 0.1;
    ( 2.0, 1, 9.0, 2.0 ) 0.1, 0.1, 0.1, 0.1, 0.1, 0.1, 0.1, 0.1, 0.1, 0.1;
    ( 2.0, 1, 9.0, 3.0 ) 0.0, 0.0, 0.0, 0.0, 0.0, 0.022222222222222223, 0.3111111111111111, 0.6666666666666666, 0.0, 0.0;
    ( 2.0, 1, 9.0, 4.0 ) 0.0, 0.0, 0.0, 0.0, 0.0, 0.7473684210526316, 0.25263157894736843, 0.0, 0.0, 0.0;
    ( 2.0, 1, 9.0, 5.0 ) 0.1, 0.1, 0.1, 0.1, 0.1, 0.1, 0.1, 0.1, 0.1, 0.1;
    ( 2.0, 1, 9.0, 6.0 ) 0.1, 0.1, 0.1, 0.1, 0.1, 0.1, 0.1, 0.1, 0.1, 0.1;
    ( 2.0, 1, 9.0, 7.0 ) 0.1, 0.1, 0.1, 0.1, 0.1, 0.1, 0.1, 0.1, 0.1, 0.1;
    ( 2.0, 1, 9.0, 8.0 ) 0.1, 0.1, 0.1, 0.1, 0.1, 0.1, 0.1, 0.1, 0.1, 0.1;
    ( 2.0, 1, 9.0, 9.0 ) 0.1, 0.1, 0.1, 0.1, 0.1, 0.1, 0.1, 0.1, 0.1, 0.1;
    ( 3.0, 0, 0.0, 0.0 ) 0.1, 0.1, 0.1, 0.1, 0.1, 0.1, 0.1, 0.1, 0.1, 0.1;
    ( 3.0, 0, 0.0, 1.0 ) 0.1, 0.1, 0.1, 0.1, 0.1, 0.1, 0.1, 0.1, 0.1, 0.1;
    ( 3.0, 0, 0.0, 2.0 ) 0.1, 0.1, 0.1, 0.1, 0.1, 0.1, 0.1, 0.1, 0.1, 0.1;
    ( 3.0, 0, 0.0, 3.0 ) 0.1, 0.1, 0.1, 0.1, 0.1, 0.1, 0.1, 0.1, 0.1, 0.1;
    ( 3.0, 0, 0.0, 4.0 ) 0.1, 0.1, 0.1, 0.1, 0.1, 0.1, 0.1, 0.1, 0.1, 0.1;
    ( 3.0, 0, 0.0, 5.0 ) 0.1, 0.1, 0.1, 0.1, 0.1, 0.1, 0.1, 0.1, 0.1, 0.1;
    ( 3.0, 0, 0.0, 6.0 ) 0.1, 0.1, 0.1, 0.1, 0.1, 0.1, 0.1, 0.1, 0.1, 0.1;
    ( 3.0, 0, 0.0, 7.0 ) 0.1, 0.1, 0.1, 0.1, 0.1, 0.1, 0.1, 0.1, 0.1, 0.1;
    ( 3.0, 0, 0.0, 8.0 ) 0.1, 0.1, 0.1, 0.1, 0.1, 0.1, 0.1, 0.1, 0.1, 0.1;
    ( 3.0, 0, 0.0, 9.0 ) 0.1, 0.1, 0.1, 0.1, 0.1, 0.1, 0.1, 0.1, 0.1, 0.1;
    ( 3.0, 0, 1.0, 0.0 ) 0.0, 0.0, 0.0, 0.0, 0.0, 0.0, 0.0, 1.0, 0.0, 0.0;
    ( 3.0, 0, 1.0, 1.0 ) 0.1, 0.1, 0.1, 0.1, 0.1, 0.1, 0.1, 0.1, 0.1, 0.1;
    ( 3.0, 0, 1.0, 2.0 ) 0.1, 0.1, 0.1, 0.1, 0.1, 0.1, 0.1, 0.1, 0.1, 0.1;
    ( 3.0, 0, 1.0, 3.0 ) 0.1, 0.1, 0.1, 0.1, 0.1, 0.1, 0.1, 0.1, 0.1, 0.1;
    ( 3.0, 0, 1.0, 4.0 ) 0.1, 0.1, 0.1, 0.1, 0.1, 0.1, 0.1, 0.1, 0.1, 0.1;
    ( 3.0, 0, 1.0, 5.0 ) 0.1, 0.1, 0.1, 0.1, 0.1, 0.1, 0.1, 0.1, 0.1, 0.1;
    ( 3.0, 0, 1.0, 6.0 ) 0.1, 0.1, 0.1, 0.1, 0.1, 0.1, 0.1, 0.1, 0.1, 0.1;
    ( 3.0, 0, 1.0, 7.0 ) 0.1, 0.1, 0.1, 0.1, 0.1, 0.1, 0.1, 0.1, 0.1, 0.1;
    ( 3.0, 0, 1.0, 8.0 ) 0.1, 0.1, 0.1, 0.1, 0.1, 0.1, 0.1, 0.1, 0.1, 0.1;
    ( 3.0, 0, 1.0, 9.0 ) 0.1, 0.1, 0.1, 0.1, 0.1, 0.1, 0.1, 0.1, 0.1, 0.1;
    ( 3.0, 0, 2.0, 0.0 ) 0.0, 0.0, 0.0, 0.0, 0.0, 0.0, 0.0, 0.0, 0.0, 1.0;
    ( 3.0, 0, 2.0, 1.0 ) 0.1, 0.1, 0.1, 0.1, 0.1, 0.1, 0.1, 0.1, 0.1, 0.1;
    ( 3.0, 0, 2.0, 2.0 ) 0.1, 0.1, 0.1, 0.1, 0.1, 0.1, 0.1, 0.1, 0.1, 0.1;
    ( 3.0, 0, 2.0, 3.0 ) 0.1, 0.1, 0.1, 0.1, 0.1, 0.1, 0.1, 0.1, 0.1, 0.1;
    ( 3.0, 0, 2.0, 4.0 ) 0.1, 0.1, 0.1, 0.1, 0.1, 0.1, 0.1, 0.1, 0.1, 0.1;
    ( 3.0, 0, 2.0, 5.0 ) 0.1, 0.1, 0.1, 0.1, 0.1, 0.1, 0.1, 0.1, 0.1, 0.1;
    ( 3.0, 0, 2.0, 6.0 ) 0.1, 0.1, 0.1, 0.1, 0.1, 0.1, 0.1, 0.1, 0.1, 0.1;
    ( 3.0, 0, 2.0, 7.0 ) 0.1, 0.1, 0.1, 0.1, 0.1, 0.1, 0.1, 0.1, 0.1, 0.1;
    ( 3.0, 0, 2.0, 8.0 ) 0.1, 0.1, 0.1, 0.1, 0.1, 0.1, 0.1, 0.1, 0.1, 0.1;
    ( 3.0, 0, 2.0, 9.0 ) 0.1, 0.1, 0.1, 0.1, 0.1, 0.1, 0.1, 0.1, 0.1, 0.1;
    ( 3.0, 0, 3.0, 0.0 ) 0.1, 0.1, 0.1, 0.1, 0.1, 0.1, 0.1, 0.1, 0.1, 0.1;
    ( 3.0, 0, 3.0, 1.0 ) 0.0, 0.0, 0.0, 0.0, 0.0, 0.0, 0.0, 0.0, 0.0, 1.0;
    ( 3.0, 0, 3.0, 2.0 ) 0.1, 0.1, 0.1, 0.1, 0.1, 0.1, 0.1, 0.1, 0.1, 0.1;
    ( 3.0, 0, 3.0, 3.0 ) 0.1, 0.1, 0.1, 0.1, 0.1, 0.1, 0.1, 0.1, 0.1, 0.1;
    ( 3.0, 0, 3.0, 4.0 ) 0.1, 0.1, 0.1, 0.1, 0.1, 0.1, 0.1, 0.1, 0.1, 0.1;
    ( 3.0, 0, 3.0, 5.0 ) 0.1, 0.1, 0.1, 0.1, 0.1, 0.1, 0.1, 0.1, 0.1, 0.1;
    ( 3.0, 0, 3.0, 6.0 ) 0.1, 0.1, 0.1, 0.1, 0.1, 0.1, 0.1, 0.1, 0.1, 0.1;
    ( 3.0, 0, 3.0, 7.0 ) 0.1, 0.1, 0.1, 0.1, 0.1, 0.1, 0.1, 0.1, 0.1, 0.1;
    ( 3.0, 0, 3.0, 8.0 ) 0.1, 0.1, 0.1, 0.1, 0.1, 0.1, 0.1, 0.1, 0.1, 0.1;
    ( 3.0, 0, 3.0, 9.0 ) 0.1, 0.1, 0.1, 0.1, 0.1, 0.1, 0.1, 0.1, 0.1, 0.1;
    ( 3.0, 0, 4.0, 0.0 ) 0.1, 0.1, 0.1, 0.1, 0.1, 0.1, 0.1, 0.1, 0.1, 0.1;
    ( 3.0, 0, 4.0, 1.0 ) 0.0, 0.0, 0.0, 0.0, 0.0, 0.0, 0.0, 0.0, 1.0, 0.0;
    ( 3.0, 0, 4.0, 2.0 ) 0.1, 0.1, 0.1, 0.1, 0.1, 0.1, 0.1, 0.1, 0.1, 0.1;
    ( 3.0, 0, 4.0, 3.0 ) 0.1, 0.1, 0.1, 0.1, 0.1, 0.1, 0.1, 0.1, 0.1, 0.1;
    ( 3.0, 0, 4.0, 4.0 ) 0.1, 0.1, 0.1, 0.1, 0.1, 0.1, 0.1, 0.1, 0.1, 0.1;
    ( 3.0, 0, 4.0, 5.0 ) 0.1, 0.1, 0.1, 0.1, 0.1, 0.1, 0.1, 0.1, 0.1, 0.1;
    ( 3.0, 0, 4.0, 6.0 ) 0.1, 0.1, 0.1, 0.1, 0.1, 0.1, 0.1, 0.1, 0.1, 0.1;
    ( 3.0, 0, 4.0, 7.0 ) 0.1, 0.1, 0.1, 0.1, 0.1, 0.1, 0.1, 0.1, 0.1, 0.1;
    ( 3.0, 0, 4.0, 8.0 ) 0.1, 0.1, 0.1, 0.1, 0.1, 0.1, 0.1, 0.1, 0.1, 0.1;
    ( 3.0, 0, 4.0, 9.0 ) 0.1, 0.1, 0.1, 0.1, 0.1, 0.1, 0.1, 0.1, 0.1, 0.1;
    ( 3.0, 0, 5.0, 0.0 ) 0.1, 0.1, 0.1, 0.1, 0.1, 0.1, 0.1, 0.1, 0.1, 0.1;
    ( 3.0, 0, 5.0, 1.0 ) 0.0, 0.0, 0.3333333333333333, 0.3333333333333333, 0.3333333333333333, 0.0, 0.0, 0.0, 0.0, 0.0;
    ( 3.0, 0, 5.0, 2.0 ) 0.0, 0.0, 0.5, 0.5, 0.0, 0.0, 0.0, 0.0, 0.0, 0.0;
    ( 3.0, 0, 5.0, 3.0 ) 0.1, 0.1, 0.1, 0.1, 0.1, 0.1, 0.1, 0.1, 0.1, 0.1;
    ( 3.0, 0, 5.0, 4.0 ) 0.1, 0.1, 0.1, 0.1, 0.1, 0.1, 0.1, 0.1, 0.1, 0.1;
    ( 3.0, 0, 5.0, 5.0 ) 0.1, 0.1, 0.1, 0.1, 0.1, 0.1, 0.1, 0.1, 0.1, 0.1;
    ( 3.0, 0, 5.0, 6.0 ) 0.1, 0.1, 0.1, 0.1, 0.1, 0.1, 0.1, 0.1, 0.1, 0.1;
    ( 3.0, 0, 5.0, 7.0 ) 0.1, 0.1, 0.1, 0.1, 0.1, 0.1, 0.1, 0.1, 0.1, 0.1;
    ( 3.0, 0, 5.0, 8.0 ) 0.1, 0.1, 0.1, 0.1, 0.1, 0.1, 0.1, 0.1, 0.1, 0.1;
    ( 3.0, 0, 5.0, 9.0 ) 0.1, 0.1, 0.1, 0.1, 0.1, 0.1, 0.1, 0.1, 0.1, 0.1;
    ( 3.0, 0, 6.0, 0.0 ) 0.1, 0.1, 0.1, 0.1, 0.1, 0.1, 0.1, 0.1, 0.1, 0.1;
    ( 3.0, 0, 6.0, 1.0 ) 0.0, 0.0, 0.3333333333333333, 0.6666666666666666, 0.0, 0.0, 0.0, 0.0, 0.0, 0.0;
    ( 3.0, 0, 6.0, 2.0 ) 0.0, 0.0, 0.7142857142857143, 0.14285714285714285, 0.0, 0.0, 0.0, 0.0, 0.14285714285714285, 0.0;
    ( 3.0, 0, 6.0, 3.0 ) 0.0, 0.0, 0.0, 0.0, 0.0, 0.0, 0.0, 0.0, 1.0, 0.0;
    ( 3.0, 0, 6.0, 4.0 ) 0.1, 0.1, 0.1, 0.1, 0.1, 0.1, 0.1, 0.1, 0.1, 0.1;
    ( 3.0, 0, 6.0, 5.0 ) 1.0, 0.0, 0.0, 0.0, 0.0, 0.0, 0.0, 0.0, 0.0, 0.0;
    ( 3.0, 0, 6.0, 6.0 ) 0.1, 0.1, 0.1, 0.1, 0.1, 0.1, 0.1, 0.1, 0.1, 0.1;
    ( 3.0, 0, 6.0, 7.0 ) 0.1, 0.1, 0.1, 0.1, 0.1, 0.1, 0.1, 0.1, 0.1, 0.1;
    ( 3.0, 0, 6.0, 8.0 ) 0.1, 0.1, 0.1, 0.1, 0.1, 0.1, 0.1, 0.1, 0.1, 0.1;
    ( 3.0, 0, 6.0, 9.0 ) 0.1, 0.1, 0.1, 0.1, 0.1, 0.1, 0.1, 0.1, 0.1, 0.1;
    ( 3.0, 0, 7.0, 0.0 ) 0.1, 0.1, 0.1, 0.1, 0.1, 0.1, 0.1, 0.1, 0.1, 0.1;
    ( 3.0, 0, 7.0, 1.0 ) 0.1, 0.1, 0.1, 0.1, 0.1, 0.1, 0.1, 0.1, 0.1, 0.1;
    ( 3.0, 0, 7.0, 2.0 ) 0.022727272727272728, 0.06818181818181818, 0.06818181818181818, 0.3181818181818182, 0.09090909090909091, 0.0, 0.13636363636363635, 0.09090909090909091, 0.11363636363636363, 0.09090909090909091;
    ( 3.0, 0, 7.0, 3.0 ) 0.045454545454545456, 0.045454545454545456, 0.29545454545454547, 0.1590909090909091, 0.06818181818181818, 0.045454545454545456, 0.022727272727272728, 0.09090909090909091, 0.11363636363636363, 0.11363636363636363;
    ( 3.0, 0, 7.0, 4.0 ) 0.0, 0.0, 0.14285714285714285, 0.2857142857142857, 0.14285714285714285, 0.0, 0.0, 0.07142857142857142, 0.21428571428571427, 0.14285714285714285;
    ( 3.0, 0, 7.0, 5.0 ) 0.2, 0.0, 0.4, 0.2, 0.0, 0.0, 0.0, 0.0, 0.2, 0.0;
    ( 3.0, 0, 7.0, 6.0 ) 0.1, 0.1, 0.1, 0.1, 0.1, 0.1, 0.1, 0.1, 0.1, 0.1;
    ( 3.0, 0, 7.0, 7.0 ) 0.1, 0.1, 0.1, 0.1, 0.1, 0.1, 0.1, 0.1, 0.1, 0.1;
    ( 3.0, 0, 7.0, 8.0 ) 0.1, 0.1, 0.1, 0.1, 0.1, 0.1, 0.1, 0.1, 0.1, 0.1;
    ( 3.0, 0, 7.0, 9.0 ) 0.1, 0.1, 0.1, 0.1, 0.1, 0.1, 0.1, 0.1, 0.1, 0.1;
    ( 3.0, 0, 8.0, 0.0 ) 0.1, 0.1, 0.1, 0.1, 0.1, 0.1, 0.1, 0.1, 0.1, 0.1;
    ( 3.0, 0, 8.0, 1.0 ) 0.1, 0.1, 0.1, 0.1, 0.1, 0.1, 0.1, 0.1, 0.1, 0.1;
    ( 3.0, 0, 8.0, 2.0 ) 0.014285714285714285, 0.09047619047619047, 0.17142857142857143, 0.14761904761904762, 0.1380952380952381, 0.009523809523809525, 0.08095238095238096, 0.1380952380952381, 0.11904761904761904, 0.09047619047619047;
    ( 3.0, 0, 8.0, 3.0 ) 0.0, 0.0625, 0.125, 0.15625, 0.0, 0.09375, 0.09375, 0.125, 0.1875, 0.15625;
    ( 3.0, 0, 8.0, 4.0 ) 0.045454545454545456, 0.045454545454545456, 0.09090909090909091, 0.13636363636363635, 0.045454545454545456, 0.09090909090909091, 0.0, 0.18181818181818182, 0.36363636363636365, 0.0;
    ( 3.0, 0, 8.0, 5.0 ) 0.16666666666666666, 0.0, 0.0, 0.0, 0.0, 0.0, 0.5, 0.0, 0.0, 0.3333333333333333;
    ( 3.0, 0, 8.0, 6.0 ) 0.1, 0.1, 0.1, 0.1, 0.1, 0.1, 0.1, 0.1, 0.1, 0.1;
    ( 3.0, 0, 8.0, 7.0 ) 0.1, 0.1, 0.1, 0.1, 0.1, 0.1, 0.1, 0.1, 0.1, 0.1;
    ( 3.0, 0, 8.0, 8.0 ) 0.1, 0.1, 0.1, 0.1, 0.1, 0.1, 0.1, 0.1, 0.1, 0.1;
    ( 3.0, 0, 8.0, 9.0 ) 0.1, 0.1, 0.1, 0.1, 0.1, 0.1, 0.1, 0.1, 0.1, 0.1;
    ( 3.0, 0, 9.0, 0.0 ) 0.1, 0.1, 0.1, 0.1, 0.1, 0.1, 0.1, 0.1, 0.1, 0.1;
    ( 3.0, 0, 9.0, 1.0 ) 0.1, 0.1, 0.1, 0.1, 0.1, 0.1, 0.1, 0.1, 0.1, 0.1;
    ( 3.0, 0, 9.0, 2.0 ) 0.0, 0.0, 0.0, 0.0, 0.0, 0.0, 0.03125, 0.46875, 0.28125, 0.21875;
    ( 3.0, 0, 9.0, 3.0 ) 0.0, 0.0, 0.0, 0.0, 0.0, 0.0, 0.0, 1.0, 0.0, 0.0;
    ( 3.0, 0, 9.0, 4.0 ) 0.1, 0.1, 0.1, 0.1, 0.1, 0.1, 0.1, 0.1, 0.1, 0.1;
    ( 3.0, 0, 9.0, 5.0 ) 0.1, 0.1, 0.1, 0.1, 0.1, 0.1, 0.1, 0.1, 0.1, 0.1;
    ( 3.0, 0, 9.0, 6.0 ) 0.1, 0.1, 0.1, 0.1, 0.1, 0.1, 0.1, 0.1, 0.1, 0.1;
    ( 3.0, 0, 9.0, 7.0 ) 0.1, 0.1, 0.1, 0.1, 0.1, 0.1, 0.1, 0.1, 0.1, 0.1;
    ( 3.0, 0, 9.0, 8.0 ) 0.1, 0.1, 0.1, 0.1, 0.1, 0.1, 0.1, 0.1, 0.1, 0.1;
    ( 3.0, 0, 9.0, 9.0 ) 0.1, 0.1, 0.1, 0.1, 0.1, 0.1, 0.1, 0.1, 0.1, 0.1;
    ( 3.0, 1, 0.0, 0.0 ) 0.1, 0.1, 0.1, 0.1, 0.1, 0.1, 0.1, 0.1, 0.1, 0.1;
    ( 3.0, 1, 0.0, 1.0 ) 0.1, 0.1, 0.1, 0.1, 0.1, 0.1, 0.1, 0.1, 0.1, 0.1;
    ( 3.0, 1, 0.0, 2.0 ) 0.1, 0.1, 0.1, 0.1, 0.1, 0.1, 0.1, 0.1, 0.1, 0.1;
    ( 3.0, 1, 0.0, 3.0 ) 0.1, 0.1, 0.1, 0.1, 0.1, 0.1, 0.1, 0.1, 0.1, 0.1;
    ( 3.0, 1, 0.0, 4.0 ) 0.1, 0.1, 0.1, 0.1, 0.1, 0.1, 0.1, 0.1, 0.1, 0.1;
    ( 3.0, 1, 0.0, 5.0 ) 0.1, 0.1, 0.1, 0.1, 0.1, 0.1, 0.1, 0.1, 0.1, 0.1;
    ( 3.0, 1, 0.0, 6.0 ) 0.1, 0.1, 0.1, 0.1, 0.1, 0.1, 0.1, 0.1, 0.1, 0.1;
    ( 3.0, 1, 0.0, 7.0 ) 0.1, 0.1, 0.1, 0.1, 0.1, 0.1, 0.1, 0.1, 0.1, 0.1;
    ( 3.0, 1, 0.0, 8.0 ) 0.1, 0.1, 0.1, 0.1, 0.1, 0.1, 0.1, 0.1, 0.1, 0.1;
    ( 3.0, 1, 0.0, 9.0 ) 0.1, 0.1, 0.1, 0.1, 0.1, 0.1, 0.1, 0.1, 0.1, 0.1;
    ( 3.0, 1, 1.0, 0.0 ) 0.1, 0.1, 0.1, 0.1, 0.1, 0.1, 0.1, 0.1, 0.1, 0.1;
    ( 3.0, 1, 1.0, 1.0 ) 0.1, 0.1, 0.1, 0.1, 0.1, 0.1, 0.1, 0.1, 0.1, 0.1;
    ( 3.0, 1, 1.0, 2.0 ) 0.1, 0.1, 0.1, 0.1, 0.1, 0.1, 0.1, 0.1, 0.1, 0.1;
    ( 3.0, 1, 1.0, 3.0 ) 0.1, 0.1, 0.1, 0.1, 0.1, 0.1, 0.1, 0.1, 0.1, 0.1;
    ( 3.0, 1, 1.0, 4.0 ) 0.1, 0.1, 0.1, 0.1, 0.1, 0.1, 0.1, 0.1, 0.1, 0.1;
    ( 3.0, 1, 1.0, 5.0 ) 0.1, 0.1, 0.1, 0.1, 0.1, 0.1, 0.1, 0.1, 0.1, 0.1;
    ( 3.0, 1, 1.0, 6.0 ) 0.1, 0.1, 0.1, 0.1, 0.1, 0.1, 0.1, 0.1, 0.1, 0.1;
    ( 3.0, 1, 1.0, 7.0 ) 0.1, 0.1, 0.1, 0.1, 0.1, 0.1, 0.1, 0.1, 0.1, 0.1;
    ( 3.0, 1, 1.0, 8.0 ) 0.1, 0.1, 0.1, 0.1, 0.1, 0.1, 0.1, 0.1, 0.1, 0.1;
    ( 3.0, 1, 1.0, 9.0 ) 0.1, 0.1, 0.1, 0.1, 0.1, 0.1, 0.1, 0.1, 0.1, 0.1;
    ( 3.0, 1, 2.0, 0.0 ) 0.1, 0.1, 0.1, 0.1, 0.1, 0.1, 0.1, 0.1, 0.1, 0.1;
    ( 3.0, 1, 2.0, 1.0 ) 0.1, 0.1, 0.1, 0.1, 0.1, 0.1, 0.1, 0.1, 0.1, 0.1;
    ( 3.0, 1, 2.0, 2.0 ) 0.1, 0.1, 0.1, 0.1, 0.1, 0.1, 0.1, 0.1, 0.1, 0.1;
    ( 3.0, 1, 2.0, 3.0 ) 0.1, 0.1, 0.1, 0.1, 0.1, 0.1, 0.1, 0.1, 0.1, 0.1;
    ( 3.0, 1, 2.0, 4.0 ) 0.1, 0.1, 0.1, 0.1, 0.1, 0.1, 0.1, 0.1, 0.1, 0.1;
    ( 3.0, 1, 2.0, 5.0 ) 0.1, 0.1, 0.1, 0.1, 0.1, 0.1, 0.1, 0.1, 0.1, 0.1;
    ( 3.0, 1, 2.0, 6.0 ) 0.1, 0.1, 0.1, 0.1, 0.1, 0.1, 0.1, 0.1, 0.1, 0.1;
    ( 3.0, 1, 2.0, 7.0 ) 0.1, 0.1, 0.1, 0.1, 0.1, 0.1, 0.1, 0.1, 0.1, 0.1;
    ( 3.0, 1, 2.0, 8.0 ) 0.1, 0.1, 0.1, 0.1, 0.1, 0.1, 0.1, 0.1, 0.1, 0.1;
    ( 3.0, 1, 2.0, 9.0 ) 0.1, 0.1, 0.1, 0.1, 0.1, 0.1, 0.1, 0.1, 0.1, 0.1;
    ( 3.0, 1, 3.0, 0.0 ) 0.1, 0.1, 0.1, 0.1, 0.1, 0.1, 0.1, 0.1, 0.1, 0.1;
    ( 3.0, 1, 3.0, 1.0 ) 0.1, 0.1, 0.1, 0.1, 0.1, 0.1, 0.1, 0.1, 0.1, 0.1;
    ( 3.0, 1, 3.0, 2.0 ) 0.1, 0.1, 0.1, 0.1, 0.1, 0.1, 0.1, 0.1, 0.1, 0.1;
    ( 3.0, 1, 3.0, 3.0 ) 0.1, 0.1, 0.1, 0.1, 0.1, 0.1, 0.1, 0.1, 0.1, 0.1;
    ( 3.0, 1, 3.0, 4.0 ) 0.1, 0.1, 0.1, 0.1, 0.1, 0.1, 0.1, 0.1, 0.1, 0.1;
    ( 3.0, 1, 3.0, 5.0 ) 0.1, 0.1, 0.1, 0.1, 0.1, 0.1, 0.1, 0.1, 0.1, 0.1;
    ( 3.0, 1, 3.0, 6.0 ) 0.1, 0.1, 0.1, 0.1, 0.1, 0.1, 0.1, 0.1, 0.1, 0.1;
    ( 3.0, 1, 3.0, 7.0 ) 0.1, 0.1, 0.1, 0.1, 0.1, 0.1, 0.1, 0.1, 0.1, 0.1;
    ( 3.0, 1, 3.0, 8.0 ) 0.1, 0.1, 0.1, 0.1, 0.1, 0.1, 0.1, 0.1, 0.1, 0.1;
    ( 3.0, 1, 3.0, 9.0 ) 0.1, 0.1, 0.1, 0.1, 0.1, 0.1, 0.1, 0.1, 0.1, 0.1;
    ( 3.0, 1, 4.0, 0.0 ) 0.1, 0.1, 0.1, 0.1, 0.1, 0.1, 0.1, 0.1, 0.1, 0.1;
    ( 3.0, 1, 4.0, 1.0 ) 0.1, 0.1, 0.1, 0.1, 0.1, 0.1, 0.1, 0.1, 0.1, 0.1;
    ( 3.0, 1, 4.0, 2.0 ) 0.1, 0.1, 0.1, 0.1, 0.1, 0.1, 0.1, 0.1, 0.1, 0.1;
    ( 3.0, 1, 4.0, 3.0 ) 0.1, 0.1, 0.1, 0.1, 0.1, 0.1, 0.1, 0.1, 0.1, 0.1;
    ( 3.0, 1, 4.0, 4.0 ) 0.1, 0.1, 0.1, 0.1, 0.1, 0.1, 0.1, 0.1, 0.1, 0.1;
    ( 3.0, 1, 4.0, 5.0 ) 0.1, 0.1, 0.1, 0.1, 0.1, 0.1, 0.1, 0.1, 0.1, 0.1;
    ( 3.0, 1, 4.0, 6.0 ) 0.1, 0.1, 0.1, 0.1, 0.1, 0.1, 0.1, 0.1, 0.1, 0.1;
    ( 3.0, 1, 4.0, 7.0 ) 0.1, 0.1, 0.1, 0.1, 0.1, 0.1, 0.1, 0.1, 0.1, 0.1;
    ( 3.0, 1, 4.0, 8.0 ) 0.1, 0.1, 0.1, 0.1, 0.1, 0.1, 0.1, 0.1, 0.1, 0.1;
    ( 3.0, 1, 4.0, 9.0 ) 0.1, 0.1, 0.1, 0.1, 0.1, 0.1, 0.1, 0.1, 0.1, 0.1;
    ( 3.0, 1, 5.0, 0.0 ) 0.1, 0.1, 0.1, 0.1, 0.1, 0.1, 0.1, 0.1, 0.1, 0.1;
    ( 3.0, 1, 5.0, 1.0 ) 0.1, 0.1, 0.1, 0.1, 0.1, 0.1, 0.1, 0.1, 0.1, 0.1;
    ( 3.0, 1, 5.0, 2.0 ) 0.1, 0.1, 0.1, 0.1, 0.1, 0.1, 0.1, 0.1, 0.1, 0.1;
    ( 3.0, 1, 5.0, 3.0 ) 0.1, 0.1, 0.1, 0.1, 0.1, 0.1, 0.1, 0.1, 0.1, 0.1;
    ( 3.0, 1, 5.0, 4.0 ) 0.1, 0.1, 0.1, 0.1, 0.1, 0.1, 0.1, 0.1, 0.1, 0.1;
    ( 3.0, 1, 5.0, 5.0 ) 0.1, 0.1, 0.1, 0.1, 0.1, 0.1, 0.1, 0.1, 0.1, 0.1;
    ( 3.0, 1, 5.0, 6.0 ) 0.1, 0.1, 0.1, 0.1, 0.1, 0.1, 0.1, 0.1, 0.1, 0.1;
    ( 3.0, 1, 5.0, 7.0 ) 0.1, 0.1, 0.1, 0.1, 0.1, 0.1, 0.1, 0.1, 0.1, 0.1;
    ( 3.0, 1, 5.0, 8.0 ) 0.1, 0.1, 0.1, 0.1, 0.1, 0.1, 0.1, 0.1, 0.1, 0.1;
    ( 3.0, 1, 5.0, 9.0 ) 0.1, 0.1, 0.1, 0.1, 0.1, 0.1, 0.1, 0.1, 0.1, 0.1;
    ( 3.0, 1, 6.0, 0.0 ) 0.1, 0.1, 0.1, 0.1, 0.1, 0.1, 0.1, 0.1, 0.1, 0.1;
    ( 3.0, 1, 6.0, 1.0 ) 0.1, 0.1, 0.1, 0.1, 0.1, 0.1, 0.1, 0.1, 0.1, 0.1;
    ( 3.0, 1, 6.0, 2.0 ) 0.1, 0.1, 0.1, 0.1, 0.1, 0.1, 0.1, 0.1, 0.1, 0.1;
    ( 3.0, 1, 6.0, 3.0 ) 0.0, 0.024390243902439025, 0.13414634146341464, 0.6341463414634146, 0.08536585365853659, 0.08536585365853659, 0.036585365853658534, 0.0, 0.0, 0.0;
    ( 3.0, 1, 6.0, 4.0 ) 0.0, 0.0, 0.0, 0.7924528301886793, 0.20754716981132076, 0.0, 0.0, 0.0, 0.0, 0.0;
    ( 3.0, 1, 6.0, 5.0 ) 0.0, 0.0, 0.0, 0.0, 0.0, 1.0, 0.0, 0.0, 0.0, 0.0;
    ( 3.0, 1, 6.0, 6.0 ) 0.1, 0.1, 0.1, 0.1, 0.1, 0.1, 0.1, 0.1, 0.1, 0.1;
    ( 3.0, 1, 6.0, 7.0 ) 0.1, 0.1, 0.1, 0.1, 0.1, 0.1, 0.1, 0.1, 0.1, 0.1;
    ( 3.0, 1, 6.0, 8.0 ) 0.1, 0.1, 0.1, 0.1, 0.1, 0.1, 0.1, 0.1, 0.1, 0.1;
    ( 3.0, 1, 6.0, 9.0 ) 0.1, 0.1, 0.1, 0.1, 0.1, 0.1, 0.1, 0.1, 0.1, 0.1;
    ( 3.0, 1, 7.0, 0.0 ) 0.1, 0.1, 0.1, 0.1, 0.1, 0.1, 0.1, 0.1, 0.1, 0.1;
    ( 3.0, 1, 7.0, 1.0 ) 0.1, 0.1, 0.1, 0.1, 0.1, 0.1, 0.1, 0.1, 0.1, 0.1;
    ( 3.0, 1, 7.0, 2.0 ) 0.0, 0.0, 0.0, 0.47058823529411764, 0.35294117647058826, 0.17647058823529413, 0.0, 0.0, 0.0, 0.0;
    ( 3.0, 1, 7.0, 3.0 ) 0.0, 0.0, 0.07352941176470588, 0.5588235294117647, 0.11764705882352941, 0.16176470588235295, 0.08823529411764706, 0.0, 0.0, 0.0;
    ( 3.0, 1, 7.0, 4.0 ) 0.0, 0.0, 0.08333333333333333, 0.14583333333333334, 0.13541666666666666, 0.3020833333333333, 0.1875, 0.0625, 0.08333333333333333, 0.0;
    ( 3.0, 1, 7.0, 5.0 ) 0.0, 0.10344827586206896, 0.06896551724137931, 0.5287356321839081, 0.20689655172413793, 0.04597701149425287, 0.04597701149425287, 0.0, 0.0, 0.0;
    ( 3.0, 1, 7.0, 6.0 ) 0.1, 0.1, 0.1, 0.1, 0.1, 0.1, 0.1, 0.1, 0.1, 0.1;
    ( 3.0, 1, 7.0, 7.0 ) 0.1, 0.1, 0.1, 0.1, 0.1, 0.1, 0.1, 0.1, 0.1, 0.1;
    ( 3.0, 1, 7.0, 8.0 ) 0.1, 0.1, 0.1, 0.1, 0.1, 0.1, 0.1, 0.1, 0.1, 0.1;
    ( 3.0, 1, 7.0, 9.0 ) 0.1, 0.1, 0.1, 0.1, 0.1, 0.1, 0.1, 0.1, 0.1, 0.1;
    ( 3.0, 1, 8.0, 0.0 ) 0.1, 0.1, 0.1, 0.1, 0.1, 0.1, 0.1, 0.1, 0.1, 0.1;
    ( 3.0, 1, 8.0, 1.0 ) 0.1, 0.1, 0.1, 0.1, 0.1, 0.1, 0.1, 0.1, 0.1, 0.1;
    ( 3.0, 1, 8.0, 2.0 ) 0.0, 0.0, 0.0, 0.0, 0.008403361344537815, 0.08403361344537816, 0.01680672268907563, 0.16806722689075632, 0.6218487394957983, 0.10084033613445378;
    ( 3.0, 1, 8.0, 3.0 ) 0.0, 0.0, 0.0, 0.0, 0.0, 0.04504504504504504, 0.27927927927927926, 0.5585585585585585, 0.09009009009009009, 0.02702702702702703;
    ( 3.0, 1, 8.0, 4.0 ) 0.0, 0.0, 0.0, 0.0, 0.043478260869565216, 0.0, 0.10869565217391304, 0.4782608695652174, 0.3695652173913043, 0.0;
    ( 3.0, 1, 8.0, 5.0 ) 0.0, 0.0, 0.0, 0.0, 0.07692307692307693, 0.2564102564102564, 0.46153846153846156, 0.20512820512820512, 0.0, 0.0;
    ( 3.0, 1, 8.0, 6.0 ) 0.0, 0.0, 0.0, 0.0, 0.0, 0.0, 0.0, 1.0, 0.0, 0.0;
    ( 3.0, 1, 8.0, 7.0 ) 0.1, 0.1, 0.1, 0.1, 0.1, 0.1, 0.1, 0.1, 0.1, 0.1;
    ( 3.0, 1, 8.0, 8.0 ) 0.1, 0.1, 0.1, 0.1, 0.1, 0.1, 0.1, 0.1, 0.1, 0.1;
    ( 3.0, 1, 8.0, 9.0 ) 0.1, 0.1, 0.1, 0.1, 0.1, 0.1, 0.1, 0.1, 0.1, 0.1;
    ( 3.0, 1, 9.0, 0.0 ) 0.1, 0.1, 0.1, 0.1, 0.1, 0.1, 0.1, 0.1, 0.1, 0.1;
    ( 3.0, 1, 9.0, 1.0 ) 0.1, 0.1, 0.1, 0.1, 0.1, 0.1, 0.1, 0.1, 0.1, 0.1;
    ( 3.0, 1, 9.0, 2.0 ) 0.1, 0.1, 0.1, 0.1, 0.1, 0.1, 0.1, 0.1, 0.1, 0.1;
    ( 3.0, 1, 9.0, 3.0 ) 0.1, 0.1, 0.1, 0.1, 0.1, 0.1, 0.1, 0.1, 0.1, 0.1;
    ( 3.0, 1, 9.0, 4.0 ) 0.1, 0.1, 0.1, 0.1, 0.1, 0.1, 0.1, 0.1, 0.1, 0.1;
    ( 3.0, 1, 9.0, 5.0 ) 0.1, 0.1, 0.1, 0.1, 0.1, 0.1, 0.1, 0.1, 0.1, 0.1;
    ( 3.0, 1, 9.0, 6.0 ) 0.1, 0.1, 0.1, 0.1, 0.1, 0.1, 0.1, 0.1, 0.1, 0.1;
    ( 3.0, 1, 9.0, 7.0 ) 0.1, 0.1, 0.1, 0.1, 0.1, 0.1, 0.1, 0.1, 0.1, 0.1;
    ( 3.0, 1, 9.0, 8.0 ) 0.1, 0.1, 0.1, 0.1, 0.1, 0.1, 0.1, 0.1, 0.1, 0.1;
    ( 3.0, 1, 9.0, 9.0 ) 0.1, 0.1, 0.1, 0.1, 0.1, 0.1, 0.1, 0.1, 0.1, 0.1;
    ( 4.0, 0, 0.0, 0.0 ) 0.0, 0.0, 0.0, 0.0, 0.0, 0.0, 0.0, 0.5, 0.5, 0.0;
    ( 4.0, 0, 0.0, 1.0 ) 0.1, 0.1, 0.1, 0.1, 0.1, 0.1, 0.1, 0.1, 0.1, 0.1;
    ( 4.0, 0, 0.0, 2.0 ) 0.1, 0.1, 0.1, 0.1, 0.1, 0.1, 0.1, 0.1, 0.1, 0.1;
    ( 4.0, 0, 0.0, 3.0 ) 0.1, 0.1, 0.1, 0.1, 0.1, 0.1, 0.1, 0.1, 0.1, 0.1;
    ( 4.0, 0, 0.0, 4.0 ) 0.1, 0.1, 0.1, 0.1, 0.1, 0.1, 0.1, 0.1, 0.1, 0.1;
    ( 4.0, 0, 0.0, 5.0 ) 0.1, 0.1, 0.1, 0.1, 0.1, 0.1, 0.1, 0.1, 0.1, 0.1;
    ( 4.0, 0, 0.0, 6.0 ) 0.1, 0.1, 0.1, 0.1, 0.1, 0.1, 0.1, 0.1, 0.1, 0.1;
    ( 4.0, 0, 0.0, 7.0 ) 0.1, 0.1, 0.1, 0.1, 0.1, 0.1, 0.1, 0.1, 0.1, 0.1;
    ( 4.0, 0, 0.0, 8.0 ) 0.1, 0.1, 0.1, 0.1, 0.1, 0.1, 0.1, 0.1, 0.1, 0.1;
    ( 4.0, 0, 0.0, 9.0 ) 0.1, 0.1, 0.1, 0.1, 0.1, 0.1, 0.1, 0.1, 0.1, 0.1;
    ( 4.0, 0, 1.0, 0.0 ) 0.1, 0.1, 0.1, 0.1, 0.1, 0.1, 0.1, 0.1, 0.1, 0.1;
    ( 4.0, 0, 1.0, 1.0 ) 0.1, 0.1, 0.1, 0.1, 0.1, 0.1, 0.1, 0.1, 0.1, 0.1;
    ( 4.0, 0, 1.0, 2.0 ) 0.1, 0.1, 0.1, 0.1, 0.1, 0.1, 0.1, 0.1, 0.1, 0.1;
    ( 4.0, 0, 1.0, 3.0 ) 0.1, 0.1, 0.1, 0.1, 0.1, 0.1, 0.1, 0.1, 0.1, 0.1;
    ( 4.0, 0, 1.0, 4.0 ) 0.1, 0.1, 0.1, 0.1, 0.1, 0.1, 0.1, 0.1, 0.1, 0.1;
    ( 4.0, 0, 1.0, 5.0 ) 0.1, 0.1, 0.1, 0.1, 0.1, 0.1, 0.1, 0.1, 0.1, 0.1;
    ( 4.0, 0, 1.0, 6.0 ) 0.1, 0.1, 0.1, 0.1, 0.1, 0.1, 0.1, 0.1, 0.1, 0.1;
    ( 4.0, 0, 1.0, 7.0 ) 0.1, 0.1, 0.1, 0.1, 0.1, 0.1, 0.1, 0.1, 0.1, 0.1;
    ( 4.0, 0, 1.0, 8.0 ) 0.1, 0.1, 0.1, 0.1, 0.1, 0.1, 0.1, 0.1, 0.1, 0.1;
    ( 4.0, 0, 1.0, 9.0 ) 0.1, 0.1, 0.1, 0.1, 0.1, 0.1, 0.1, 0.1, 0.1, 0.1;
    ( 4.0, 0, 2.0, 0.0 ) 0.1, 0.1, 0.1, 0.1, 0.1, 0.1, 0.1, 0.1, 0.1, 0.1;
    ( 4.0, 0, 2.0, 1.0 ) 0.0, 0.0, 0.0, 0.0, 0.0, 0.0, 0.0, 0.0, 0.0, 1.0;
    ( 4.0, 0, 2.0, 2.0 ) 0.1, 0.1, 0.1, 0.1, 0.1, 0.1, 0.1, 0.1, 0.1, 0.1;
    ( 4.0, 0, 2.0, 3.0 ) 0.1, 0.1, 0.1, 0.1, 0.1, 0.1, 0.1, 0.1, 0.1, 0.1;
    ( 4.0, 0, 2.0, 4.0 ) 0.1, 0.1, 0.1, 0.1, 0.1, 0.1, 0.1, 0.1, 0.1, 0.1;
    ( 4.0, 0, 2.0, 5.0 ) 0.1, 0.1, 0.1, 0.1, 0.1, 0.1, 0.1, 0.1, 0.1, 0.1;
    ( 4.0, 0, 2.0, 6.0 ) 0.1, 0.1, 0.1, 0.1, 0.1, 0.1, 0.1, 0.1, 0.1, 0.1;
    ( 4.0, 0, 2.0, 7.0 ) 0.1, 0.1, 0.1, 0.1, 0.1, 0.1, 0.1, 0.1, 0.1, 0.1;
    ( 4.0, 0, 2.0, 8.0 ) 0.1, 0.1, 0.1, 0.1, 0.1, 0.1, 0.1, 0.1, 0.1, 0.1;
    ( 4.0, 0, 2.0, 9.0 ) 0.1, 0.1, 0.1, 0.1, 0.1, 0.1, 0.1, 0.1, 0.1, 0.1;
    ( 4.0, 0, 3.0, 0.0 ) 0.1, 0.1, 0.1, 0.1, 0.1, 0.1, 0.1, 0.1, 0.1, 0.1;
    ( 4.0, 0, 3.0, 1.0 ) 0.1, 0.1, 0.1, 0.1, 0.1, 0.1, 0.1, 0.1, 0.1, 0.1;
    ( 4.0, 0, 3.0, 2.0 ) 0.1, 0.1, 0.1, 0.1, 0.1, 0.1, 0.1, 0.1, 0.1, 0.1;
    ( 4.0, 0, 3.0, 3.0 ) 0.1, 0.1, 0.1, 0.1, 0.1, 0.1, 0.1, 0.1, 0.1, 0.1;
    ( 4.0, 0, 3.0, 4.0 ) 0.1, 0.1, 0.1, 0.1, 0.1, 0.1, 0.1, 0.1, 0.1, 0.1;
    ( 4.0, 0, 3.0, 5.0 ) 0.1, 0.1, 0.1, 0.1, 0.1, 0.1, 0.1, 0.1, 0.1, 0.1;
    ( 4.0, 0, 3.0, 6.0 ) 0.1, 0.1, 0.1, 0.1, 0.1, 0.1, 0.1, 0.1, 0.1, 0.1;
    ( 4.0, 0, 3.0, 7.0 ) 0.1, 0.1, 0.1, 0.1, 0.1, 0.1, 0.1, 0.1, 0.1, 0.1;
    ( 4.0, 0, 3.0, 8.0 ) 0.1, 0.1, 0.1, 0.1, 0.1, 0.1, 0.1, 0.1, 0.1, 0.1;
    ( 4.0, 0, 3.0, 9.0 ) 0.1, 0.1, 0.1, 0.1, 0.1, 0.1, 0.1, 0.1, 0.1, 0.1;
    ( 4.0, 0, 4.0, 0.0 ) 0.0, 0.0, 0.0, 0.0, 0.0, 0.0, 0.0, 1.0, 0.0, 0.0;
    ( 4.0, 0, 4.0, 1.0 ) 0.1, 0.1, 0.1, 0.1, 0.1, 0.1, 0.1, 0.1, 0.1, 0.1;
    ( 4.0, 0, 4.0, 2.0 ) 0.1, 0.1, 0.1, 0.1, 0.1, 0.1, 0.1, 0.1, 0.1, 0.1;
    ( 4.0, 0, 4.0, 3.0 ) 0.1, 0.1, 0.1, 0.1, 0.1, 0.1, 0.1, 0.1, 0.1, 0.1;
    ( 4.0, 0, 4.0, 4.0 ) 0.1, 0.1, 0.1, 0.1, 0.1, 0.1, 0.1, 0.1, 0.1, 0.1;
    ( 4.0, 0, 4.0, 5.0 ) 0.1, 0.1, 0.1, 0.1, 0.1, 0.1, 0.1, 0.1, 0.1, 0.1;
    ( 4.0, 0, 4.0, 6.0 ) 0.1, 0.1, 0.1, 0.1, 0.1, 0.1, 0.1, 0.1, 0.1, 0.1;
    ( 4.0, 0, 4.0, 7.0 ) 0.1, 0.1, 0.1, 0.1, 0.1, 0.1, 0.1, 0.1, 0.1, 0.1;
    ( 4.0, 0, 4.0, 8.0 ) 0.1, 0.1, 0.1, 0.1, 0.1, 0.1, 0.1, 0.1, 0.1, 0.1;
    ( 4.0, 0, 4.0, 9.0 ) 0.1, 0.1, 0.1, 0.1, 0.1, 0.1, 0.1, 0.1, 0.1, 0.1;
    ( 4.0, 0, 5.0, 0.0 ) 0.1, 0.1, 0.1, 0.1, 0.1, 0.1, 0.1, 0.1, 0.1, 0.1;
    ( 4.0, 0, 5.0, 1.0 ) 0.0, 0.5, 0.0, 0.0, 0.0, 0.0, 0.0, 0.0, 0.5, 0.0;
    ( 4.0, 0, 5.0, 2.0 ) 0.0, 0.0, 1.0, 0.0, 0.0, 0.0, 0.0, 0.0, 0.0, 0.0;
    ( 4.0, 0, 5.0, 3.0 ) 0.1, 0.1, 0.1, 0.1, 0.1, 0.1, 0.1, 0.1, 0.1, 0.1;
    ( 4.0, 0, 5.0, 4.0 ) 0.1, 0.1, 0.1, 0.1, 0.1, 0.1, 0.1, 0.1, 0.1, 0.1;
    ( 4.0, 0, 5.0, 5.0 ) 0.1, 0.1, 0.1, 0.1, 0.1, 0.1, 0.1, 0.1, 0.1, 0.1;
    ( 4.0, 0, 5.0, 6.0 ) 0.1, 0.1, 0.1, 0.1, 0.1, 0.1, 0.1, 0.1, 0.1, 0.1;
    ( 4.0, 0, 5.0, 7.0 ) 0.1, 0.1, 0.1, 0.1, 0.1, 0.1, 0.1, 0.1, 0.1, 0.1;
    ( 4.0, 0, 5.0, 8.0 ) 0.1, 0.1, 0.1, 0.1, 0.1, 0.1, 0.1, 0.1, 0.1, 0.1;
    ( 4.0, 0, 5.0, 9.0 ) 0.1, 0.1, 0.1, 0.1, 0.1, 0.1, 0.1, 0.1, 0.1, 0.1;
    ( 4.0, 0, 6.0, 0.0 ) 0.1, 0.1, 0.1, 0.1, 0.1, 0.1, 0.1, 0.1, 0.1, 0.1;
    ( 4.0, 0, 6.0, 1.0 ) 0.0, 0.0, 0.5, 0.25, 0.0, 0.0, 0.0, 0.0, 0.25, 0.0;
    ( 4.0, 0, 6.0, 2.0 ) 0.0, 0.0, 0.5, 0.16666666666666666, 0.0, 0.0, 0.0, 0.3333333333333333, 0.0, 0.0;
    ( 4.0, 0, 6.0, 3.0 ) 0.0, 0.0, 0.0, 0.0, 0.5, 0.0, 0.0, 0.0, 0.0, 0.5;
    ( 4.0, 0, 6.0, 4.0 ) 0.1, 0.1, 0.1, 0.1, 0.1, 0.1, 0.1, 0.1, 0.1, 0.1;
    ( 4.0, 0, 6.0, 5.0 ) 0.0, 0.0, 0.0, 0.0, 0.0, 0.0, 0.0, 0.0, 1.0, 0.0;
    ( 4.0, 0, 6.0, 6.0 ) 0.1, 0.1, 0.1, 0.1, 0.1, 0.1, 0.1, 0.1, 0.1, 0.1;
    ( 4.0, 0, 6.0, 7.0 ) 0.1, 0.1, 0.1, 0.1, 0.1, 0.1, 0.1, 0.1, 0.1, 0.1;
    ( 4.0, 0, 6.0, 8.0 ) 0.1, 0.1, 0.1, 0.1, 0.1, 0.1, 0.1, 0.1, 0.1, 0.1;
    ( 4.0, 0, 6.0, 9.0 ) 0.1, 0.1, 0.1, 0.1, 0.1, 0.1, 0.1, 0.1, 0.1, 0.1;
    ( 4.0, 0, 7.0, 0.0 ) 0.1, 0.1, 0.1, 0.1, 0.1, 0.1, 0.1, 0.1, 0.1, 0.1;
    ( 4.0, 0, 7.0, 1.0 ) 0.1, 0.1, 0.1, 0.1, 0.1, 0.1, 0.1, 0.1, 0.1, 0.1;
    ( 4.0, 0, 7.0, 2.0 ) 0.018518518518518517, 0.09259259259259259, 0.24074074074074073, 0.18518518518518517, 0.14814814814814814, 0.018518518518518517, 0.018518518518518517, 0.07407407407407407, 0.09259259259259259, 0.1111111111111111;
    ( 4.0, 0, 7.0, 3.0 ) 0.09090909090909091, 0.09090909090909091, 0.0, 0.2727272727272727, 0.18181818181818182, 0.09090909090909091, 0.0, 0.09090909090909091, 0.09090909090909091, 0.09090909090909091;
    ( 4.0, 0, 7.0, 4.0 ) 0.0, 0.0, 0.5, 0.0, 0.0, 0.0, 0.5, 0.0, 0.0, 0.0;
    ( 4.0, 0, 7.0, 5.0 ) 0.0, 0.0, 0.0, 0.0, 0.6666666666666666, 0.0, 0.0, 0.0, 0.3333333333333333, 0.0;
    ( 4.0, 0, 7.0, 6.0 ) 0.1, 0.1, 0.1, 0.1, 0.1, 0.1, 0.1, 0.1, 0.1, 0.1;
    ( 4.0, 0, 7.0, 7.0 ) 0.1, 0.1, 0.1, 0.1, 0.1, 0.1, 0.1, 0.1, 0.1, 0.1;
    ( 4.0, 0, 7.0, 8.0 ) 0.1, 0.1, 0.1, 0.1, 0.1, 0.1, 0.1, 0.1, 0.1, 0.1;
    ( 4.0, 0, 7.0, 9.0 ) 0.1, 0.1, 0.1, 0.1, 0.1, 0.1, 0.1, 0.1, 0.1, 0.1;
    ( 4.0, 0, 8.0, 0.0 ) 0.1, 0.1, 0.1, 0.1, 0.1, 0.1, 0.1, 0.1, 0.1, 0.1;
    ( 4.0, 0, 8.0, 1.0 ) 0.0, 0.0, 0.0, 0.0, 0.0, 0.0, 0.0, 0.0, 0.0, 1.0;
    ( 4.0, 0, 8.0, 2.0 ) 0.03508771929824561, 0.03508771929824561, 0.14035087719298245, 0.05263157894736842, 0.05263157894736842, 0.017543859649122806, 0.05263157894736842, 0.15789473684210525, 0.3333333333333333, 0.12280701754385964;
    ( 4.0, 0, 8.0, 3.0 ) 0.0, 0.0, 0.0, 0.2, 0.0, 0.0, 0.0, 0.4, 0.2, 0.2;
    ( 4.0, 0, 8.0, 4.0 ) 0.0, 0.0, 0.0, 0.0, 0.0, 0.0, 0.0, 0.0, 0.3333333333333333, 0.6666666666666666;
    ( 4.0, 0, 8.0, 5.0 ) 0.0, 0.0, 0.0, 0.0, 0.0, 0.0, 0.0, 0.0, 1.0, 0.0;
    ( 4.0, 0, 8.0, 6.0 ) 0.1, 0.1, 0.1, 0.1, 0.1, 0.1, 0.1, 0.1, 0.1, 0.1;
    ( 4.0, 0, 8.0, 7.0 ) 0.1, 0.1, 0.1, 0.1, 0.1, 0.1, 0.1, 0.1, 0.1, 0.1;
    ( 4.0, 0, 8.0, 8.0 ) 0.1, 0.1, 0.1, 0.1, 0.1, 0.1, 0.1, 0.1, 0.1, 0.1;
    ( 4.0, 0, 8.0, 9.0 ) 0.1, 0.1, 0.1, 0.1, 0.1, 0.1, 0.1, 0.1, 0.1, 0.1;
    ( 4.0, 0, 9.0, 0.0 ) 0.1, 0.1, 0.1, 0.1, 0.1, 0.1, 0.1, 0.1, 0.1, 0.1;
    ( 4.0, 0, 9.0, 1.0 ) 0.1, 0.1, 0.1, 0.1, 0.1, 0.1, 0.1, 0.1, 0.1, 0.1;
    ( 4.0, 0, 9.0, 2.0 ) 0.1, 0.1, 0.1, 0.1, 0.1, 0.1, 0.1, 0.1, 0.1, 0.1;
    ( 4.0, 0, 9.0, 3.0 ) 0.1, 0.1, 0.1, 0.1, 0.1, 0.1, 0.1, 0.1, 0.1, 0.1;
    ( 4.0, 0, 9.0, 4.0 ) 0.1, 0.1, 0.1, 0.1, 0.1, 0.1, 0.1, 0.1, 0.1, 0.1;
    ( 4.0, 0, 9.0, 5.0 ) 0.0, 0.0, 0.0, 0.0, 0.0, 0.0, 1.0, 0.0, 0.0, 0.0;
    ( 4.0, 0, 9.0, 6.0 ) 0.1, 0.1, 0.1, 0.1, 0.1, 0.1, 0.1, 0.1, 0.1, 0.1;
    ( 4.0, 0, 9.0, 7.0 ) 0.1, 0.1, 0.1, 0.1, 0.1, 0.1, 0.1, 0.1, 0.1, 0.1;
    ( 4.0, 0, 9.0, 8.0 ) 0.1, 0.1, 0.1, 0.1, 0.1, 0.1, 0.1, 0.1, 0.1, 0.1;
    ( 4.0, 0, 9.0, 9.0 ) 0.1, 0.1, 0.1, 0.1, 0.1, 0.1, 0.1, 0.1, 0.1, 0.1;
    ( 4.0, 1, 0.0, 0.0 ) 0.1, 0.1, 0.1, 0.1, 0.1, 0.1, 0.1, 0.1, 0.1, 0.1;
    ( 4.0, 1, 0.0, 1.0 ) 0.1, 0.1, 0.1, 0.1, 0.1, 0.1, 0.1, 0.1, 0.1, 0.1;
    ( 4.0, 1, 0.0, 2.0 ) 0.1, 0.1, 0.1, 0.1, 0.1, 0.1, 0.1, 0.1, 0.1, 0.1;
    ( 4.0, 1, 0.0, 3.0 ) 0.1, 0.1, 0.1, 0.1, 0.1, 0.1, 0.1, 0.1, 0.1, 0.1;
    ( 4.0, 1, 0.0, 4.0 ) 0.1, 0.1, 0.1, 0.1, 0.1, 0.1, 0.1, 0.1, 0.1, 0.1;
    ( 4.0, 1, 0.0, 5.0 ) 0.1, 0.1, 0.1, 0.1, 0.1, 0.1, 0.1, 0.1, 0.1, 0.1;
    ( 4.0, 1, 0.0, 6.0 ) 0.1, 0.1, 0.1, 0.1, 0.1, 0.1, 0.1, 0.1, 0.1, 0.1;
    ( 4.0, 1, 0.0, 7.0 ) 0.1, 0.1, 0.1, 0.1, 0.1, 0.1, 0.1, 0.1, 0.1, 0.1;
    ( 4.0, 1, 0.0, 8.0 ) 0.1, 0.1, 0.1, 0.1, 0.1, 0.1, 0.1, 0.1, 0.1, 0.1;
    ( 4.0, 1, 0.0, 9.0 ) 0.1, 0.1, 0.1, 0.1, 0.1, 0.1, 0.1, 0.1, 0.1, 0.1;
    ( 4.0, 1, 1.0, 0.0 ) 0.1, 0.1, 0.1, 0.1, 0.1, 0.1, 0.1, 0.1, 0.1, 0.1;
    ( 4.0, 1, 1.0, 1.0 ) 0.1, 0.1, 0.1, 0.1, 0.1, 0.1, 0.1, 0.1, 0.1, 0.1;
    ( 4.0, 1, 1.0, 2.0 ) 0.1, 0.1, 0.1, 0.1, 0.1, 0.1, 0.1, 0.1, 0.1, 0.1;
    ( 4.0, 1, 1.0, 3.0 ) 0.1, 0.1, 0.1, 0.1, 0.1, 0.1, 0.1, 0.1, 0.1, 0.1;
    ( 4.0, 1, 1.0, 4.0 ) 0.1, 0.1, 0.1, 0.1, 0.1, 0.1, 0.1, 0.1, 0.1, 0.1;
    ( 4.0, 1, 1.0, 5.0 ) 0.1, 0.1, 0.1, 0.1, 0.1, 0.1, 0.1, 0.1, 0.1, 0.1;
    ( 4.0, 1, 1.0, 6.0 ) 0.1, 0.1, 0.1, 0.1, 0.1, 0.1, 0.1, 0.1, 0.1, 0.1;
    ( 4.0, 1, 1.0, 7.0 ) 0.1, 0.1, 0.1, 0.1, 0.1, 0.1, 0.1, 0.1, 0.1, 0.1;
    ( 4.0, 1, 1.0, 8.0 ) 0.1, 0.1, 0.1, 0.1, 0.1, 0.1, 0.1, 0.1, 0.1, 0.1;
    ( 4.0, 1, 1.0, 9.0 ) 0.1, 0.1, 0.1, 0.1, 0.1, 0.1, 0.1, 0.1, 0.1, 0.1;
    ( 4.0, 1, 2.0, 0.0 ) 0.1, 0.1, 0.1, 0.1, 0.1, 0.1, 0.1, 0.1, 0.1, 0.1;
    ( 4.0, 1, 2.0, 1.0 ) 0.1, 0.1, 0.1, 0.1, 0.1, 0.1, 0.1, 0.1, 0.1, 0.1;
    ( 4.0, 1, 2.0, 2.0 ) 0.1, 0.1, 0.1, 0.1, 0.1, 0.1, 0.1, 0.1, 0.1, 0.1;
    ( 4.0, 1, 2.0, 3.0 ) 0.1, 0.1, 0.1, 0.1, 0.1, 0.1, 0.1, 0.1, 0.1, 0.1;
    ( 4.0, 1, 2.0, 4.0 ) 0.1, 0.1, 0.1, 0.1, 0.1, 0.1, 0.1, 0.1, 0.1, 0.1;
    ( 4.0, 1, 2.0, 5.0 ) 0.1, 0.1, 0.1, 0.1, 0.1, 0.1, 0.1, 0.1, 0.1, 0.1;
    ( 4.0, 1, 2.0, 6.0 ) 0.1, 0.1, 0.1, 0.1, 0.1, 0.1, 0.1, 0.1, 0.1, 0.1;
    ( 4.0, 1, 2.0, 7.0 ) 0.1, 0.1, 0.1, 0.1, 0.1, 0.1, 0.1, 0.1, 0.1, 0.1;
    ( 4.0, 1, 2.0, 8.0 ) 0.1, 0.1, 0.1, 0.1, 0.1, 0.1, 0.1, 0.1, 0.1, 0.1;
    ( 4.0, 1, 2.0, 9.0 ) 0.1, 0.1, 0.1, 0.1, 0.1, 0.1, 0.1, 0.1, 0.1, 0.1;
    ( 4.0, 1, 3.0, 0.0 ) 0.1, 0.1, 0.1, 0.1, 0.1, 0.1, 0.1, 0.1, 0.1, 0.1;
    ( 4.0, 1, 3.0, 1.0 ) 0.1, 0.1, 0.1, 0.1, 0.1, 0.1, 0.1, 0.1, 0.1, 0.1;
    ( 4.0, 1, 3.0, 2.0 ) 0.1, 0.1, 0.1, 0.1, 0.1, 0.1, 0.1, 0.1, 0.1, 0.1;
    ( 4.0, 1, 3.0, 3.0 ) 0.1, 0.1, 0.1, 0.1, 0.1, 0.1, 0.1, 0.1, 0.1, 0.1;
    ( 4.0, 1, 3.0, 4.0 ) 0.1, 0.1, 0.1, 0.1, 0.1, 0.1, 0.1, 0.1, 0.1, 0.1;
    ( 4.0, 1, 3.0, 5.0 ) 0.1, 0.1, 0.1, 0.1, 0.1, 0.1, 0.1, 0.1, 0.1, 0.1;
    ( 4.0, 1, 3.0, 6.0 ) 0.1, 0.1, 0.1, 0.1, 0.1, 0.1, 0.1, 0.1, 0.1, 0.1;
    ( 4.0, 1, 3.0, 7.0 ) 0.1, 0.1, 0.1, 0.1, 0.1, 0.1, 0.1, 0.1, 0.1, 0.1;
    ( 4.0, 1, 3.0, 8.0 ) 0.1, 0.1, 0.1, 0.1, 0.1, 0.1, 0.1, 0.1, 0.1, 0.1;
    ( 4.0, 1, 3.0, 9.0 ) 0.1, 0.1, 0.1, 0.1, 0.1, 0.1, 0.1, 0.1, 0.1, 0.1;
    ( 4.0, 1, 4.0, 0.0 ) 0.1, 0.1, 0.1, 0.1, 0.1, 0.1, 0.1, 0.1, 0.1, 0.1;
    ( 4.0, 1, 4.0, 1.0 ) 0.1, 0.1, 0.1, 0.1, 0.1, 0.1, 0.1, 0.1, 0.1, 0.1;
    ( 4.0, 1, 4.0, 2.0 ) 0.1, 0.1, 0.1, 0.1, 0.1, 0.1, 0.1, 0.1, 0.1, 0.1;
    ( 4.0, 1, 4.0, 3.0 ) 0.1, 0.1, 0.1, 0.1, 0.1, 0.1, 0.1, 0.1, 0.1, 0.1;
    ( 4.0, 1, 4.0, 4.0 ) 0.1, 0.1, 0.1, 0.1, 0.1, 0.1, 0.1, 0.1, 0.1, 0.1;
    ( 4.0, 1, 4.0, 5.0 ) 0.1, 0.1, 0.1, 0.1, 0.1, 0.1, 0.1, 0.1, 0.1, 0.1;
    ( 4.0, 1, 4.0, 6.0 ) 0.1, 0.1, 0.1, 0.1, 0.1, 0.1, 0.1, 0.1, 0.1, 0.1;
    ( 4.0, 1, 4.0, 7.0 ) 0.1, 0.1, 0.1, 0.1, 0.1, 0.1, 0.1, 0.1, 0.1, 0.1;
    ( 4.0, 1, 4.0, 8.0 ) 0.1, 0.1, 0.1, 0.1, 0.1, 0.1, 0.1, 0.1, 0.1, 0.1;
    ( 4.0, 1, 4.0, 9.0 ) 0.1, 0.1, 0.1, 0.1, 0.1, 0.1, 0.1, 0.1, 0.1, 0.1;
    ( 4.0, 1, 5.0, 0.0 ) 0.1, 0.1, 0.1, 0.1, 0.1, 0.1, 0.1, 0.1, 0.1, 0.1;
    ( 4.0, 1, 5.0, 1.0 ) 0.1, 0.1, 0.1, 0.1, 0.1, 0.1, 0.1, 0.1, 0.1, 0.1;
    ( 4.0, 1, 5.0, 2.0 ) 0.1, 0.1, 0.1, 0.1, 0.1, 0.1, 0.1, 0.1, 0.1, 0.1;
    ( 4.0, 1, 5.0, 3.0 ) 0.1, 0.1, 0.1, 0.1, 0.1, 0.1, 0.1, 0.1, 0.1, 0.1;
    ( 4.0, 1, 5.0, 4.0 ) 0.1, 0.1, 0.1, 0.1, 0.1, 0.1, 0.1, 0.1, 0.1, 0.1;
    ( 4.0, 1, 5.0, 5.0 ) 0.1, 0.1, 0.1, 0.1, 0.1, 0.1, 0.1, 0.1, 0.1, 0.1;
    ( 4.0, 1, 5.0, 6.0 ) 0.1, 0.1, 0.1, 0.1, 0.1, 0.1, 0.1, 0.1, 0.1, 0.1;
    ( 4.0, 1, 5.0, 7.0 ) 0.1, 0.1, 0.1, 0.1, 0.1, 0.1, 0.1, 0.1, 0.1, 0.1;
    ( 4.0, 1, 5.0, 8.0 ) 0.1, 0.1, 0.1, 0.1, 0.1, 0.1, 0.1, 0.1, 0.1, 0.1;
    ( 4.0, 1, 5.0, 9.0 ) 0.1, 0.1, 0.1, 0.1, 0.1, 0.1, 0.1, 0.1, 0.1, 0.1;
    ( 4.0, 1, 6.0, 0.0 ) 0.1, 0.1, 0.1, 0.1, 0.1, 0.1, 0.1, 0.1, 0.1, 0.1;
    ( 4.0, 1, 6.0, 1.0 ) 0.1, 0.1, 0.1, 0.1, 0.1, 0.1, 0.1, 0.1, 0.1, 0.1;
    ( 4.0, 1, 6.0, 2.0 ) 0.1, 0.1, 0.1, 0.1, 0.1, 0.1, 0.1, 0.1, 0.1, 0.1;
    ( 4.0, 1, 6.0, 3.0 ) 0.0, 1.0, 0.0, 0.0, 0.0, 0.0, 0.0, 0.0, 0.0, 0.0;
    ( 4.0, 1, 6.0, 4.0 ) 0.0, 0.10714285714285714, 0.5714285714285714, 0.32142857142857145, 0.0, 0.0, 0.0, 0.0, 0.0, 0.0;
    ( 4.0, 1, 6.0, 5.0 ) 0.1, 0.1, 0.1, 0.1, 0.1, 0.1, 0.1, 0.1, 0.1, 0.1;
    ( 4.0, 1, 6.0, 6.0 ) 0.1, 0.1, 0.1, 0.1, 0.1, 0.1, 0.1, 0.1, 0.1, 0.1;
    ( 4.0, 1, 6.0, 7.0 ) 0.1, 0.1, 0.1, 0.1, 0.1, 0.1, 0.1, 0.1, 0.1, 0.1;
    ( 4.0, 1, 6.0, 8.0 ) 0.1, 0.1, 0.1, 0.1, 0.1, 0.1, 0.1, 0.1, 0.1, 0.1;
    ( 4.0, 1, 6.0, 9.0 ) 0.1, 0.1, 0.1, 0.1, 0.1, 0.1, 0.1, 0.1, 0.1, 0.1;
    ( 4.0, 1, 7.0, 0.0 ) 0.1, 0.1, 0.1, 0.1, 0.1, 0.1, 0.1, 0.1, 0.1, 0.1;
    ( 4.0, 1, 7.0, 1.0 ) 0.1, 0.1, 0.1, 0.1, 0.1, 0.1, 0.1, 0.1, 0.1, 0.1;
    ( 4.0, 1, 7.0, 2.0 ) 0.0, 0.0, 0.0, 0.017857142857142856, 0.125, 0.17857142857142858, 0.32142857142857145, 0.35714285714285715, 0.0, 0.0;
    ( 4.0, 1, 7.0, 3.0 ) 0.1, 0.1, 0.1, 0.1, 0.1, 0.1, 0.1, 0.1, 0.1, 0.1;
    ( 4.0, 1, 7.0, 4.0 ) 0.5081967213114754, 0.4918032786885246, 0.0, 0.0, 0.0, 0.0, 0.0, 0.0, 0.0, 0.0;
    ( 4.0, 1, 7.0, 5.0 ) 0.0, 0.3142857142857143, 0.5428571428571428, 0.14285714285714285, 0.0, 0.0, 0.0, 0.0, 0.0, 0.0;
    ( 4.0, 1, 7.0, 6.0 ) 0.1, 0.1, 0.1, 0.1, 0.1, 0.1, 0.1, 0.1, 0.1, 0.1;
    ( 4.0, 1, 7.0, 7.0 ) 0.1, 0.1, 0.1, 0.1, 0.1, 0.1, 0.1, 0.1, 0.1, 0.1;
    ( 4.0, 1, 7.0, 8.0 ) 0.1, 0.1, 0.1, 0.1, 0.1, 0.1, 0.1, 0.1, 0.1, 0.1;
    ( 4.0, 1, 7.0, 9.0 ) 0.1, 0.1, 0.1, 0.1, 0.1, 0.1, 0.1, 0.1, 0.1, 0.1;
    ( 4.0, 1, 8.0, 0.0 ) 0.1, 0.1, 0.1, 0.1, 0.1, 0.1, 0.1, 0.1, 0.1, 0.1;
    ( 4.0, 1, 8.0, 1.0 ) 0.1, 0.1, 0.1, 0.1, 0.1, 0.1, 0.1, 0.1, 0.1, 0.1;
    ( 4.0, 1, 8.0, 2.0 ) 0.0, 0.0, 0.0, 0.0, 0.0, 0.0, 0.0, 0.9354838709677419, 0.06451612903225806, 0.0;
    ( 4.0, 1, 8.0, 3.0 ) 0.1, 0.1, 0.1, 0.1, 0.1, 0.1, 0.1, 0.1, 0.1, 0.1;
    ( 4.0, 1, 8.0, 4.0 ) 0.1, 0.1, 0.1, 0.1, 0.1, 0.1, 0.1, 0.1, 0.1, 0.1;
    ( 4.0, 1, 8.0, 5.0 ) 0.1, 0.1, 0.1, 0.1, 0.1, 0.1, 0.1, 0.1, 0.1, 0.1;
    ( 4.0, 1, 8.0, 6.0 ) 0.1, 0.1, 0.1, 0.1, 0.1, 0.1, 0.1, 0.1, 0.1, 0.1;
    ( 4.0, 1, 8.0, 7.0 ) 0.1, 0.1, 0.1, 0.1, 0.1, 0.1, 0.1, 0.1, 0.1, 0.1;
    ( 4.0, 1, 8.0, 8.0 ) 0.1, 0.1, 0.1, 0.1, 0.1, 0.1, 0.1, 0.1, 0.1, 0.1;
    ( 4.0, 1, 8.0, 9.0 ) 0.1, 0.1, 0.1, 0.1, 0.1, 0.1, 0.1, 0.1, 0.1, 0.1;
    ( 4.0, 1, 9.0, 0.0 ) 0.1, 0.1, 0.1, 0.1, 0.1, 0.1, 0.1, 0.1, 0.1, 0.1;
    ( 4.0, 1, 9.0, 1.0 ) 0.1, 0.1, 0.1, 0.1, 0.1, 0.1, 0.1, 0.1, 0.1, 0.1;
    ( 4.0, 1, 9.0, 2.0 ) 0.1, 0.1, 0.1, 0.1, 0.1, 0.1, 0.1, 0.1, 0.1, 0.1;
    ( 4.0, 1, 9.0, 3.0 ) 0.1, 0.1, 0.1, 0.1, 0.1, 0.1, 0.1, 0.1, 0.1, 0.1;
    ( 4.0, 1, 9.0, 4.0 ) 0.1, 0.1, 0.1, 0.1, 0.1, 0.1, 0.1, 0.1, 0.1, 0.1;
    ( 4.0, 1, 9.0, 5.0 ) 0.1, 0.1, 0.1, 0.1, 0.1, 0.1, 0.1, 0.1, 0.1, 0.1;
    ( 4.0, 1, 9.0, 6.0 ) 0.1, 0.1, 0.1, 0.1, 0.1, 0.1, 0.1, 0.1, 0.1, 0.1;
    ( 4.0, 1, 9.0, 7.0 ) 0.1, 0.1, 0.1, 0.1, 0.1, 0.1, 0.1, 0.1, 0.1, 0.1;
    ( 4.0, 1, 9.0, 8.0 ) 0.1, 0.1, 0.1, 0.1, 0.1, 0.1, 0.1, 0.1, 0.1, 0.1;
    ( 4.0, 1, 9.0, 9.0 ) 0.1, 0.1, 0.1, 0.1, 0.1, 0.1, 0.1, 0.1, 0.1, 0.1;
    ( 5.0, 0, 0.0, 0.0 ) 0.0, 0.0, 1.0, 0.0, 0.0, 0.0, 0.0, 0.0, 0.0, 0.0;
    ( 5.0, 0, 0.0, 1.0 ) 0.1, 0.1, 0.1, 0.1, 0.1, 0.1, 0.1, 0.1, 0.1, 0.1;
    ( 5.0, 0, 0.0, 2.0 ) 0.1, 0.1, 0.1, 0.1, 0.1, 0.1, 0.1, 0.1, 0.1, 0.1;
    ( 5.0, 0, 0.0, 3.0 ) 0.1, 0.1, 0.1, 0.1, 0.1, 0.1, 0.1, 0.1, 0.1, 0.1;
    ( 5.0, 0, 0.0, 4.0 ) 0.1, 0.1, 0.1, 0.1, 0.1, 0.1, 0.1, 0.1, 0.1, 0.1;
    ( 5.0, 0, 0.0, 5.0 ) 0.1, 0.1, 0.1, 0.1, 0.1, 0.1, 0.1, 0.1, 0.1, 0.1;
    ( 5.0, 0, 0.0, 6.0 ) 0.1, 0.1, 0.1, 0.1, 0.1, 0.1, 0.1, 0.1, 0.1, 0.1;
    ( 5.0, 0, 0.0, 7.0 ) 0.1, 0.1, 0.1, 0.1, 0.1, 0.1, 0.1, 0.1, 0.1, 0.1;
    ( 5.0, 0, 0.0, 8.0 ) 0.1, 0.1, 0.1, 0.1, 0.1, 0.1, 0.1, 0.1, 0.1, 0.1;
    ( 5.0, 0, 0.0, 9.0 ) 0.1, 0.1, 0.1, 0.1, 0.1, 0.1, 0.1, 0.1, 0.1, 0.1;
    ( 5.0, 0, 1.0, 0.0 ) 0.1, 0.1, 0.1, 0.1, 0.1, 0.1, 0.1, 0.1, 0.1, 0.1;
    ( 5.0, 0, 1.0, 1.0 ) 0.1, 0.1, 0.1, 0.1, 0.1, 0.1, 0.1, 0.1, 0.1, 0.1;
    ( 5.0, 0, 1.0, 2.0 ) 0.1, 0.1, 0.1, 0.1, 0.1, 0.1, 0.1, 0.1, 0.1, 0.1;
    ( 5.0, 0, 1.0, 3.0 ) 0.1, 0.1, 0.1, 0.1, 0.1, 0.1, 0.1, 0.1, 0.1, 0.1;
    ( 5.0, 0, 1.0, 4.0 ) 0.1, 0.1, 0.1, 0.1, 0.1, 0.1, 0.1, 0.1, 0.1, 0.1;
    ( 5.0, 0, 1.0, 5.0 ) 0.1, 0.1, 0.1, 0.1, 0.1, 0.1, 0.1, 0.1, 0.1, 0.1;
    ( 5.0, 0, 1.0, 6.0 ) 0.1, 0.1, 0.1, 0.1, 0.1, 0.1, 0.1, 0.1, 0.1, 0.1;
    ( 5.0, 0, 1.0, 7.0 ) 0.1, 0.1, 0.1, 0.1, 0.1, 0.1, 0.1, 0.1, 0.1, 0.1;
    ( 5.0, 0, 1.0, 8.0 ) 0.1, 0.1, 0.1, 0.1, 0.1, 0.1, 0.1, 0.1, 0.1, 0.1;
    ( 5.0, 0, 1.0, 9.0 ) 0.1, 0.1, 0.1, 0.1, 0.1, 0.1, 0.1, 0.1, 0.1, 0.1;
    ( 5.0, 0, 2.0, 0.0 ) 0.1, 0.1, 0.1, 0.1, 0.1, 0.1, 0.1, 0.1, 0.1, 0.1;
    ( 5.0, 0, 2.0, 1.0 ) 0.1, 0.1, 0.1, 0.1, 0.1, 0.1, 0.1, 0.1, 0.1, 0.1;
    ( 5.0, 0, 2.0, 2.0 ) 0.1, 0.1, 0.1, 0.1, 0.1, 0.1, 0.1, 0.1, 0.1, 0.1;
    ( 5.0, 0, 2.0, 3.0 ) 0.1, 0.1, 0.1, 0.1, 0.1, 0.1, 0.1, 0.1, 0.1, 0.1;
    ( 5.0, 0, 2.0, 4.0 ) 0.1, 0.1, 0.1, 0.1, 0.1, 0.1, 0.1, 0.1, 0.1, 0.1;
    ( 5.0, 0, 2.0, 5.0 ) 0.1, 0.1, 0.1, 0.1, 0.1, 0.1, 0.1, 0.1, 0.1, 0.1;
    ( 5.0, 0, 2.0, 6.0 ) 0.1, 0.1, 0.1, 0.1, 0.1, 0.1, 0.1, 0.1, 0.1, 0.1;
    ( 5.0, 0, 2.0, 7.0 ) 0.1, 0.1, 0.1, 0.1, 0.1, 0.1, 0.1, 0.1, 0.1, 0.1;
    ( 5.0, 0, 2.0, 8.0 ) 0.1, 0.1, 0.1, 0.1, 0.1, 0.1, 0.1, 0.1, 0.1, 0.1;
    ( 5.0, 0, 2.0, 9.0 ) 0.1, 0.1, 0.1, 0.1, 0.1, 0.1, 0.1, 0.1, 0.1, 0.1;
    ( 5.0, 0, 3.0, 0.0 ) 0.1, 0.1, 0.1, 0.1, 0.1, 0.1, 0.1, 0.1, 0.1, 0.1;
    ( 5.0, 0, 3.0, 1.0 ) 0.1, 0.1, 0.1, 0.1, 0.1, 0.1, 0.1, 0.1, 0.1, 0.1;
    ( 5.0, 0, 3.0, 2.0 ) 0.1, 0.1, 0.1, 0.1, 0.1, 0.1, 0.1, 0.1, 0.1, 0.1;
    ( 5.0, 0, 3.0, 3.0 ) 0.1, 0.1, 0.1, 0.1, 0.1, 0.1, 0.1, 0.1, 0.1, 0.1;
    ( 5.0, 0, 3.0, 4.0 ) 0.1, 0.1, 0.1, 0.1, 0.1, 0.1, 0.1, 0.1, 0.1, 0.1;
    ( 5.0, 0, 3.0, 5.0 ) 0.1, 0.1, 0.1, 0.1, 0.1, 0.1, 0.1, 0.1, 0.1, 0.1;
    ( 5.0, 0, 3.0, 6.0 ) 0.1, 0.1, 0.1, 0.1, 0.1, 0.1, 0.1, 0.1, 0.1, 0.1;
    ( 5.0, 0, 3.0, 7.0 ) 0.1, 0.1, 0.1, 0.1, 0.1, 0.1, 0.1, 0.1, 0.1, 0.1;
    ( 5.0, 0, 3.0, 8.0 ) 0.1, 0.1, 0.1, 0.1, 0.1, 0.1, 0.1, 0.1, 0.1, 0.1;
    ( 5.0, 0, 3.0, 9.0 ) 0.1, 0.1, 0.1, 0.1, 0.1, 0.1, 0.1, 0.1, 0.1, 0.1;
    ( 5.0, 0, 4.0, 0.0 ) 0.1, 0.1, 0.1, 0.1, 0.1, 0.1, 0.1, 0.1, 0.1, 0.1;
    ( 5.0, 0, 4.0, 1.0 ) 0.1, 0.1, 0.1, 0.1, 0.1, 0.1, 0.1, 0.1, 0.1, 0.1;
    ( 5.0, 0, 4.0, 2.0 ) 0.1, 0.1, 0.1, 0.1, 0.1, 0.1, 0.1, 0.1, 0.1, 0.1;
    ( 5.0, 0, 4.0, 3.0 ) 0.1, 0.1, 0.1, 0.1, 0.1, 0.1, 0.1, 0.1, 0.1, 0.1;
    ( 5.0, 0, 4.0, 4.0 ) 0.1, 0.1, 0.1, 0.1, 0.1, 0.1, 0.1, 0.1, 0.1, 0.1;
    ( 5.0, 0, 4.0, 5.0 ) 0.1, 0.1, 0.1, 0.1, 0.1, 0.1, 0.1, 0.1, 0.1, 0.1;
    ( 5.0, 0, 4.0, 6.0 ) 0.1, 0.1, 0.1, 0.1, 0.1, 0.1, 0.1, 0.1, 0.1, 0.1;
    ( 5.0, 0, 4.0, 7.0 ) 0.1, 0.1, 0.1, 0.1, 0.1, 0.1, 0.1, 0.1, 0.1, 0.1;
    ( 5.0, 0, 4.0, 8.0 ) 0.1, 0.1, 0.1, 0.1, 0.1, 0.1, 0.1, 0.1, 0.1, 0.1;
    ( 5.0, 0, 4.0, 9.0 ) 0.1, 0.1, 0.1, 0.1, 0.1, 0.1, 0.1, 0.1, 0.1, 0.1;
    ( 5.0, 0, 5.0, 0.0 ) 0.1, 0.1, 0.1, 0.1, 0.1, 0.1, 0.1, 0.1, 0.1, 0.1;
    ( 5.0, 0, 5.0, 1.0 ) 0.0, 0.0, 0.0, 1.0, 0.0, 0.0, 0.0, 0.0, 0.0, 0.0;
    ( 5.0, 0, 5.0, 2.0 ) 0.1, 0.1, 0.1, 0.1, 0.1, 0.1, 0.1, 0.1, 0.1, 0.1;
    ( 5.0, 0, 5.0, 3.0 ) 0.1, 0.1, 0.1, 0.1, 0.1, 0.1, 0.1, 0.1, 0.1, 0.1;
    ( 5.0, 0, 5.0, 4.0 ) 0.1, 0.1, 0.1, 0.1, 0.1, 0.1, 0.1, 0.1, 0.1, 0.1;
    ( 5.0, 0, 5.0, 5.0 ) 0.1, 0.1, 0.1, 0.1, 0.1, 0.1, 0.1, 0.1, 0.1, 0.1;
    ( 5.0, 0, 5.0, 6.0 ) 0.1, 0.1, 0.1, 0.1, 0.1, 0.1, 0.1, 0.1, 0.1, 0.1;
    ( 5.0, 0, 5.0, 7.0 ) 0.1, 0.1, 0.1, 0.1, 0.1, 0.1, 0.1, 0.1, 0.1, 0.1;
    ( 5.0, 0, 5.0, 8.0 ) 0.1, 0.1, 0.1, 0.1, 0.1, 0.1, 0.1, 0.1, 0.1, 0.1;
    ( 5.0, 0, 5.0, 9.0 ) 0.1, 0.1, 0.1, 0.1, 0.1, 0.1, 0.1, 0.1, 0.1, 0.1;
    ( 5.0, 0, 6.0, 0.0 ) 0.1, 0.1, 0.1, 0.1, 0.1, 0.1, 0.1, 0.1, 0.1, 0.1;
    ( 5.0, 0, 6.0, 1.0 ) 0.0, 0.15384615384615385, 0.15384615384615385, 0.3076923076923077, 0.07692307692307693, 0.07692307692307693, 0.0, 0.23076923076923078, 0.0, 0.0;
